{"learner":{"attributes":{"best_iteration":"4","best_ntree_limit":"5","best_score":"0.999267"},"feature_names":[],"feature_types":[],"gradient_booster":{"model":{"gbtree_model_param":{"num_parallel_tree":"1","num_trees":"5","size_leaf_vector":"0"},"tree_info":[0,0,0,0,0],"trees":[{"base_weights":[8.256753E0,8.102346E0,8.448211E0,8.037193E0,8.174867E0,8.434249E0,8.690339E0,8.044964E0,7.5868096E0,8.2256E0,8.058358E0,8.464004E0,8.352441E0,8.605866E0,8.772102E0,8.099716E0,7.991124E0,7.6891704E0,7.3590636E0,8.341748E0,8.173077E0,8.023213E0,8.190154E0,8.4131E0,8.526263E0,8.307889E0,8.444478E0,8.058709E0,8.179833E0,7.9492974E0,8.140525E0,8.416041E0,8.1939E0,8.156336E0,8.392052E0,7.9397306E0,8.072428E0,8.214117E0,7.395748E0,8.531874E0,8.393579E0,8.73667E0,8.501322E0,8.450423E0,8.277185E0,8.451369E0,7.767979E0,8.148887E0,8.007765E0,8.557004E0,8.14405E0,8.140052E0,7.9061704E0,8.207637E0,7.999828E0,7.762648E0,8.434101E0,7.771347E0,8.237694E0,7.838724E0,8.164796E0,8.032036E0,7.726189E0,8.234219E0,8.039296E0,8.254655E0,8.017729E0,7.888755E0,8.399086E0,8.189139E0,8.784387E0,8.498244E0,9.438182E0,8.200441E0,8.326212E0,8.4921255E0,8.325204E0,8.128945E0,8.57784E0,7.9390073E0,8.119799E0,8.659186E0,7.884463E0,8.16739E0,7.9085803E0,8.228269E0,8.002921E0,7.049597E0,7.9153996E0,8.232372E0,7.9530554E0,8.521923E0,8.290961E0,8.432187E0,8.170551E0,7.736857E0,8.527294E0,8.533953E0,8.156868E0,8.093928E0,7.774265E0,7.470542E0,7.7986193E0,8.021436E0,8.37462E0,7.879688E0,8.284872E0,7.852046E0,8.355738E0,8.405307E0,8.015088E0,8.815014E0,8.4144535E0,8.488174E0,8.663974E0,8.658E0,8.1769495E0,8.390857E0,8.255667E0,8.198067E0,8.020069E0,7.982688E0,7.7678857E0,8.469109E0,8.084485E0,9.051427E0,8.399153E0,8.06459E0,8.20152E0,6.983764E0,8.038985E0,8.027357E0,8.332747E0,7.9697685E0,8.487682E0,7.864278E0,8.002951E0,7.687202E0,8.229022E0,8.503119E0,9.339341E0,7.9552884E0,8.401523E0,8.171327E0,8.7497635E0,8.021246E0,8.166956E0,8.35835E0,8.05772E0,7.631403E0,8.0337E0,8.119122E0,8.709035E0,8.283572E0,7.4461536E0,8.43882E0,8.34105E0,8.71232E0,8.943983E0,8.56881E0,8.471192E0,8.216128E0,7.96818E0,8.443776E0,8.264592E0,8.242037E0,8.8255005E0,8.131593E0,8.495778E0,7.9886355E0,8.687499E0,7.9992776E0,7.0196586E0,7.6134853E0,7.8993106E0,8.662119E0,7.8402185E0,8.109844E0,7.7576385E0,9.376889E0,8.712422E0,7.316384E0,8.105681E0,8.270017E0,8.140226E0,8.179016E0,7.6847196E0,8.579774E0,8.247686E0,8.209494E0,7.8527575E0,8.099775E0,7.946936E0,8.264996E0,8.547537E0,8.055669E0,7.3446965E0,8.436845E0,7.6289926E0,8.092522E0,7.770788E0,8.190164E0,8.114445E0,8.024675E0,8.54913E0,8.703285E0,8.42952E0,8.302792E0,8.466019E0,9.161462E0,8.621573E0,8.369105E0,8.045061E0,8.156772E0,7.76044E0,8.290017E0,9.004509E0,7.80239E0,8.039219E0,8.030615E0,7.662354E0,8.069816E0,8.446548E0,8.633744E0,8.07584E0,8.122009E0,8.472401E0,7.8024035E0,7.9297423E0,8.261607E0,7.9225826E0,8.79493E0,8.170082E0,8.768373E0,8.448713E0,8.183336E0,8.455477E0,7.76862E0,8.1307125E0,8.312202E0,8.82444E0,8.395286E0,8.491863E0,8.342566E0,8.221665E0],"categories":[],"categories_nodes":[],"categories_segments":[],"categories_sizes":[],"default_left":[1,1,1,1,1,1,1,1,1,1,1,1,1,0,0,1,1,0,0,1,1,1,1,1,1,1,1,1,1,1,1,1,1,1,0,1,1,1,0,0,1,1,1,0,1,1,0,1,1,1,1,1,1,1,0,0,1,0,1,1,1,1,1,0,1,1,1,0,1,0,1,1,0,1,1,0,0,1,0,1,1,1,0,1,1,1,1,0,1,0,1,1,1,1,0,0,0,0,1,1,0,0,0,1,1,1,0,0,0,1,0,1,0,1,0,0,1,1,1,1,1,1,1,1,1,1,0,1,1,0,1,0,1,0,0,1,1,0,0,1,0,1,1,0,0,1,1,0,0,0,1,0,0,0,0,1,1,1,0,0,0,0,0,0,1,0,0,1,1,0,0,1,0,0,1,0,0,1,0,0,0,0,1,0,0,0,0,0,1,0,1,0,1,1,1,0,0,0,0,0,0,1,1,0,0,1,1,1,0,0,0,0,0,0,0,0,0,0,0,0,0,0,0,0,0,0,0,0,0,0,0,0,0,0,0,0,0,0,0,0,0,0,0,0,0],"id":0,"left_children":[1,3,5,7,9,11,13,15,17,19,21,23,25,-1,-1,27,29,-1,-1,31,33,35,37,39,41,43,45,47,49,51,53,55,57,59,-1,61,63,65,-1,-1,67,69,71,-1,73,75,-1,77,79,81,83,85,87,89,-1,-1,91,-1,93,95,97,99,101,-1,103,105,107,-1,109,-1,111,113,-1,115,117,-1,-1,119,-1,121,123,125,-1,127,129,131,133,-1,135,-1,137,139,141,143,-1,-1,-1,-1,145,147,-1,-1,-1,149,151,153,-1,-1,-1,155,-1,157,-1,159,-1,-1,161,163,165,167,169,171,173,175,177,179,-1,181,183,-1,185,-1,187,-1,-1,189,191,-1,-1,193,-1,195,197,-1,-1,199,201,-1,-1,-1,203,-1,-1,-1,-1,205,207,209,-1,-1,-1,-1,-1,-1,211,-1,-1,213,215,-1,-1,217,-1,-1,219,-1,-1,221,-1,-1,-1,-1,223,-1,-1,-1,-1,-1,225,-1,227,-1,229,231,233,-1,-1,-1,-1,-1,-1,235,237,-1,-1,239,241,243,-1,-1,-1,-1,-1,-1,-1,-1,-1,-1,-1,-1,-1,-1,-1,-1,-1,-1,-1,-1,-1,-1,-1,-1,-1,-1,-1,-1,-1,-1,-1,-1,-1,-1,-1,-1,-1],"loss_changes":[1.678E4,1.426E3,7.84E2,5.21E2,8.16E2,5.16E2,2.0125E1,4.17E2,9.5625E0,5.66E2,1.4425E2,4.88E2,1.935E2,0E0,0E0,2E2,4.505E2,0E0,0E0,2.8575E2,1.945E2,8.325E1,1.199375E2,1.53E2,3.415E2,1.195E2,3.1625E1,1.8075E2,2.99375E2,4.66E2,1.04375E2,1.88E2,1.36625E2,1.145E2,0E0,2.01E2,5.425E1,7.0625E0,0E0,0E0,1.655E2,1.465625E2,1.235E2,0E0,6.625E1,3.5625E1,0E0,9.5125E1,2E2,9.3171875E1,7.2625E1,7.7625E1,3.6025E2,1.1E1,0E0,0E0,1.9175E2,0E0,5.91875E1,5.6914062E1,1.205E2,8.5375E1,1.6828125E1,0E0,4.475E1,2.08125E1,2.4546875E1,0E0,1.3E2,0E0,1.2875E1,4.45E1,0E0,7.95E1,2.9875E1,0E0,0E0,7.3125E1,0E0,9.7375E1,9.19375E1,1.3092188E2,0E0,1.35E1,2.194375E2,8.375E1,7.53125E0,0E0,1.7E2,0E0,1.7804688E1,1.189375E2,2.291875E2,1.3445312E2,0E0,0E0,0E0,0E0,2.1E1,4.21875E0,0E0,0E0,0E0,2.375E1,8.160156E0,4.1101562E1,0E0,0E0,0E0,1.045E2,0E0,1.56875E1,0E0,1.85E1,0E0,0E0,4.35E1,5.5625E0,8.375E0,1.534375E2,8.19375E1,2.14375E2,2.85625E1,7.446875E1,3.51875E1,6.1328125E0,0E0,1.165E2,4.125E0,0E0,3.6164062E1,0E0,2.79375E1,0E0,0E0,6.65E1,3.9375E1,0E0,0E0,6.2875E1,0E0,6.3101562E1,9.884375E1,0E0,0E0,1.65625E1,5.5E0,0E0,0E0,0E0,1.15E1,0E0,0E0,0E0,0E0,5.8E1,6.325E1,8.296875E1,0E0,0E0,0E0,0E0,0E0,0E0,1.0140625E1,0E0,0E0,2.28125E1,1.3784375E2,0E0,0E0,6.8125E1,0E0,0E0,1.1078125E1,0E0,0E0,7.95E1,0E0,0E0,0E0,0E0,1.55625E1,0E0,0E0,0E0,0E0,0E0,3.05625E1,0E0,6.1625E1,0E0,2.775E1,2.95E1,1.574375E2,0E0,0E0,0E0,0E0,0E0,0E0,4.5E0,3.925E1,0E0,0E0,1.09375E1,3.85E1,5E-1,0E0,0E0,0E0,0E0,0E0,0E0,0E0,0E0,0E0,0E0,0E0,0E0,0E0,0E0,0E0,0E0,0E0,0E0,0E0,0E0,0E0,0E0,0E0,0E0,0E0,0E0,0E0,0E0,0E0,0E0,0E0,0E0,0E0,0E0,0E0,0E0,0E0],"parents":[2147483647,0,0,1,1,2,2,3,3,4,4,5,5,6,6,7,7,8,8,9,9,10,10,11,11,12,12,15,15,16,16,19,19,20,20,21,21,22,22,23,23,24,24,25,25,26,26,27,27,28,28,29,29,30,30,31,31,32,32,33,33,35,35,36,36,37,37,40,40,41,41,42,42,44,44,45,45,47,47,48,48,49,49,50,50,51,51,52,52,53,53,56,56,58,58,59,59,60,60,61,61,62,62,64,64,65,65,66,66,68,68,70,70,71,71,73,73,74,74,77,77,79,79,80,80,81,81,83,83,84,84,85,85,86,86,88,88,90,90,91,91,92,92,93,93,98,98,99,99,103,103,104,104,105,105,109,109,111,111,113,113,116,116,117,117,118,118,119,119,120,120,121,121,122,122,123,123,124,124,125,125,127,127,128,128,130,130,132,132,135,135,136,136,139,139,141,141,142,142,145,145,146,146,150,150,155,155,156,156,157,157,164,164,167,167,168,168,171,171,174,174,177,177,182,182,188,188,190,190,192,192,193,193,194,194,201,201,202,202,205,205,206,206,207,207],"right_children":[2,4,6,8,10,12,14,16,18,20,22,24,26,-1,-1,28,30,-1,-1,32,34,36,38,40,42,44,46,48,50,52,54,56,58,60,-1,62,64,66,-1,-1,68,70,72,-1,74,76,-1,78,80,82,84,86,88,90,-1,-1,92,-1,94,96,98,100,102,-1,104,106,108,-1,110,-1,112,114,-1,116,118,-1,-1,120,-1,122,124,126,-1,128,130,132,134,-1,136,-1,138,140,142,144,-1,-1,-1,-1,146,148,-1,-1,-1,150,152,154,-1,-1,-1,156,-1,158,-1,160,-1,-1,162,164,166,168,170,172,174,176,178,180,-1,182,184,-1,186,-1,188,-1,-1,190,192,-1,-1,194,-1,196,198,-1,-1,200,202,-1,-1,-1,204,-1,-1,-1,-1,206,208,210,-1,-1,-1,-1,-1,-1,212,-1,-1,214,216,-1,-1,218,-1,-1,220,-1,-1,222,-1,-1,-1,-1,224,-1,-1,-1,-1,-1,226,-1,228,-1,230,232,234,-1,-1,-1,-1,-1,-1,236,238,-1,-1,240,242,244,-1,-1,-1,-1,-1,-1,-1,-1,-1,-1,-1,-1,-1,-1,-1,-1,-1,-1,-1,-1,-1,-1,-1,-1,-1,-1,-1,-1,-1,-1,-1,-1,-1,-1,-1,-1,-1],"split_conditions":[5E-1,1.5E0,1.15E1,2.561E4,2.0115E3,2.0115E3,1.05E1,5E-1,8.21E2,1.615E3,2.0135E3,1.5E0,2.0135E3,2.58176E-1,2.6316306E-1,1.5E0,2.0135E3,2.306751E-1,2.2077191E-1,5E-1,4.75E1,1.2E1,2.2565E4,2.85E2,3.55E2,2.8E2,2.563E4,8.55E2,2.5E0,2.85E2,8.5E0,4E1,1.1E1,1.855E3,2.5176156E-1,7.425E2,3.55E2,7.38E3,2.2187243E-1,2.559562E-1,3.05E2,4E1,1.1135E3,2.5351268E-1,1.2E1,9.5E0,2.3303936E-1,7.9E2,6.655E2,8.815E2,1.15E1,7.165E2,3E2,2.0145E3,2.3999482E-1,2.3287944E-1,2.5E0,2.3314041E-1,2.95E2,8.405E2,1.915E3,7.5E0,2E0,2.4702655E-1,4.65E1,5.5E0,1.4695E4,2.3666264E-1,2.759E4,2.4567418E-1,3.5E0,2.95E1,2.8314546E-1,5.75E1,2.0125E3,2.5476375E-1,2.4975611E-1,8.5E0,2.573352E-1,5.365E2,7.065E2,5.5E0,2.3653388E-1,2.295E2,1.605E3,3.15E2,2.65E2,2.114879E-1,3.765E3,2.4697116E-1,1.6E1,1.1055E3,2E0,3.6E1,2.4511653E-1,2.321057E-1,2.558188E-1,2.5601858E-1,2.41E3,5.75E1,2.3322794E-1,2.2411625E-1,2.3395857E-1,3.75E2,6.545E2,4.47E2,2.4854615E-1,2.3556137E-1,2.5067213E-1,1.1E1,2.4045263E-1,1.85E2,2.524336E-1,4.5E0,2.599192E-1,2.5974E-1,7.5E0,5.015E3,1.982E4,6.5E0,7.4E2,1.771E4,6E2,1.2095E4,1.05E1,3.425E2,2.5197458E-1,3.65E2,3.5E0,2.0951292E-1,8.98E3,2.408207E-1,2.0105E3,2.3909305E-1,2.5463048E-1,3.25E2,1E0,2.3061605E-1,2.4687065E-1,1.65E2,2.8018022E-1,1.33E3,1.09E3,2.451398E-1,2.624929E-1,5E-1,7.88E2,2.5075048E-1,2.417316E-1,2.2894208E-1,1.9455E4,2.4357364E-1,2.6127103E-1,2.4850716E-1,2.233846E-1,4.05E2,8.705E3,5.5E1,2.683195E-1,2.570643E-1,2.5413576E-1,2.4648385E-1,2.390454E-1,2.5331327E-1,4.41E2,2.4726109E-1,2.64765E-1,9.51E2,1.75E2,2.3965906E-1,2.6062497E-1,1.285E3,2.1058975E-1,2.2840455E-1,6.355E2,2.5986356E-1,2.3520654E-1,1.031E3,2.3272915E-1,2.8130668E-1,2.6137266E-1,2.1949151E-1,6.75E2,2.4810049E-1,2.4420679E-1,2.4537048E-1,2.3054159E-1,2.573932E-1,2.0125E3,2.462848E-1,2E0,2.4299325E-1,8.9E1,5.5E1,3.8E2,2.4167006E-1,2.203409E-1,2.5310534E-1,2.2886977E-1,2.4277565E-1,2.3312365E-1,7.675E2,7.95E2,2.4074025E-1,2.564739E-1,8.2E1,1.5E0,7.075E2,2.5398055E-1,2.7484384E-1,2.586472E-1,2.5107315E-1,2.4135183E-1,2.4470314E-1,2.328132E-1,2.4870051E-1,2.7013525E-1,2.340717E-1,2.4117656E-1,2.4091844E-1,2.2987062E-1,2.4209446E-1,2.5339645E-1,2.590123E-1,2.422752E-1,2.4366027E-1,2.5417203E-1,2.340721E-1,2.3789227E-1,2.4784821E-1,2.3767747E-1,2.6384792E-1,2.4510245E-1,2.6305118E-1,2.534614E-1,2.4550009E-1,2.5366428E-1,2.330586E-1,2.4392137E-1,2.4936607E-1,2.647332E-1,2.5185856E-1,2.5475588E-1,2.5027695E-1,2.4664995E-1],"split_indices":[2,6,14,7,12,12,15,10,0,7,12,6,12,0,0,5,12,0,0,10,16,11,7,7,7,7,7,7,5,7,8,7,11,7,0,0,7,7,0,0,7,7,0,0,11,8,0,7,0,0,8,0,7,12,0,0,5,0,7,0,7,11,5,0,11,11,7,0,7,0,5,15,0,0,12,0,0,8,0,0,0,8,0,0,7,0,7,0,7,0,11,0,8,11,0,0,0,0,7,0,0,0,0,7,0,0,0,0,0,11,0,7,0,15,0,0,11,7,7,8,7,7,0,7,8,0,0,7,5,0,7,0,12,0,0,7,8,0,0,7,0,7,0,0,0,10,0,0,0,0,7,0,0,0,0,7,7,7,0,0,0,0,0,0,0,0,0,0,7,0,0,7,0,0,0,0,0,0,0,0,0,0,7,0,0,0,0,0,12,0,5,0,0,7,7,0,0,0,0,0,0,0,0,0,0,0,5,0,0,0,0,0,0,0,0,0,0,0,0,0,0,0,0,0,0,0,0,0,0,0,0,0,0,0,0,0,0,0,0,0,0,0,0,0,0],"split_type":[0,0,0,0,0,0,0,0,0,0,0,0,0,0,0,0,0,0,0,0,0,0,0,0,0,0,0,0,0,0,0,0,0,0,0,0,0,0,0,0,0,0,0,0,0,0,0,0,0,0,0,0,0,0,0,0,0,0,0,0,0,0,0,0,0,0,0,0,0,0,0,0,0,0,0,0,0,0,0,0,0,0,0,0,0,0,0,0,0,0,0,0,0,0,0,0,0,0,0,0,0,0,0,0,0,0,0,0,0,0,0,0,0,0,0,0,0,0,0,0,0,0,0,0,0,0,0,0,0,0,0,0,0,0,0,0,0,0,0,0,0,0,0,0,0,0,0,0,0,0,0,0,0,0,0,0,0,0,0,0,0,0,0,0,0,0,0,0,0,0,0,0,0,0,0,0,0,0,0,0,0,0,0,0,0,0,0,0,0,0,0,0,0,0,0,0,0,0,0,0,0,0,0,0,0,0,0,0,0,0,0,0,0,0,0,0,0,0,0,0,0,0,0,0,0,0,0,0,0,0,0,0,0,0,0,0,0,0,0,0,0,0,0,0,0],"sum_hessian":[5.69849E5,3.15471E5,2.54378E5,1.66235E5,1.49236E5,2.40543E5,1.3835E4,1.63399E5,2.836E3,1.03916E5,4.532E4,1.76314E5,6.4229E4,6.857E3,6.978E3,8.0938E4,8.2461E4,1.934E3,9.02E2,3.231E4,7.1606E4,3.5828E4,9.492E3,9.7079E4,7.9235E4,4.3341E4,2.0888E4,5.3603E4,2.7335E4,6.4467E4,1.7994E4,2.1467E4,1.0843E4,6.6556E4,5.05E3,1.3348E4,2.248E4,9.205E3,2.87E2,1.3642E4,8.3437E4,8.36E3,7.0875E4,7.633E3,3.5708E4,2.0666E4,2.22E2,1.9293E4,3.431E4,2.348E3,2.4987E4,1.1853E4,5.2614E4,1.2144E4,5.85E3,5.89E2,2.0878E4,1.035E3,9.808E3,1.751E3,6.4805E4,9.294E3,4.054E3,3.779E3,1.8701E4,7.596E3,1.609E3,9.16E2,8.2521E4,6.84E2,7.676E3,7.0653E4,2.22E2,1.3985E4,2.1723E4,1.557E4,5.096E3,1.8455E4,8.38E2,2.1306E4,1.3004E4,2.028E3,3.2E2,2.2703E4,2.284E3,7.177E3,4.676E3,5.69E2,5.2045E4,1.104E4,1.104E3,1.2903E4,7.975E3,2.485E3,7.323E3,1.536E3,2.15E2,1.34E3,6.3465E4,7.47E3,1.824E3,9.18E2,3.136E3,1.7779E4,9.22E2,5.86E2,7.01E3,1.096E3,5.13E2,8.1185E4,1.336E3,7.068E3,6.08E2,6.6655E4,3.998E3,6.65E2,1.332E4,1.1274E4,1.0449E4,1.1243E4,7.212E3,1.6937E4,4.369E3,1.172E3,1.1832E4,7.95E2,1.233E3,5.718E3,1.6985E4,2.89E2,1.995E3,2.482E3,4.695E3,4.393E3,2.83E2,3.2916E4,1.9129E4,5.77E2,5.27E2,1.2624E4,2.79E2,1.994E3,5.981E3,1.379E3,1.106E3,4.449E3,5.9016E4,8.72E2,6.598E3,5.61E2,1.7218E4,5.37E2,3.85E2,2.94E2,2.92E2,5.3271E4,2.7914E4,3.973E3,3.095E3,1.1508E4,5.5147E4,1.1183E4,2.137E3,7.898E3,3.376E3,1.022E4,2.29E2,9.214E3,2.029E3,6.9E3,3.12E2,1.6643E4,2.94E2,2.036E3,2.333E3,8.87E2,2.85E2,1.0958E4,8.74E2,3.92E2,4.03E2,3.07E2,5.411E3,7.958E3,9.027E3,1.414E3,5.81E2,1.177E3,3.518E3,1.04E3,3.1876E4,6.958E3,1.2171E4,2.014E3,1.061E4,1.702E3,2.92E2,5.71E3,2.71E2,3.439E3,1.01E3,4.082E4,1.8196E4,1.6938E4,2.8E2,1.778E3,5.1493E4,2.1423E4,6.491E3,6.51E2,3.322E3,2.262E3,1.114E3,8.609E3,6.05E2,1.457E3,5.72E2,2.84E3,1.3803E4,1.48E3,8.53E2,9.816E3,1.142E3,2.74E2,5.137E3,2.28E3,1.238E3,1.9333E4,1.2543E4,8.5E2,1.1321E4,2.92E2,1.722E3,3.253E3,7.357E3,3.9827E4,9.93E2,8.39E2,1.7357E4,4.37E2,1.341E3,3.3328E4,1.8165E4,1.4307E4,7.116E3],"tree_param":{"num_deleted":"0","num_feature":"20","num_nodes":"245","size_leaf_vector":"0"}},{"base_weights":[8.009358E0,8.047778E0,7.828141E0,8.169901E0,8.017582E0,7.6999564E0,7.9761367E0,8.155139E0,8.649938E0,8.115067E0,7.9902186E0,7.8982353E0,7.63025E0,8.278977E0,7.955251E0,8.347601E0,8.115587E0,8.032625E0,8.170857E0,7.9808884E0,8.305517E0,7.800023E0,8.064896E0,7.549675E0,7.759184E0,8.201549E0,8.8295765E0,7.939452E0,8.160867E0,8.258764E0,8.404565E0,8.089822E0,8.355462E0,7.9993844E0,8.206797E0,8.12613E0,8.219964E0,8.030465E0,7.931252E0,8.477461E0,7.823328E0,7.8936095E0,7.6191335E0,7.5030055E0,8.095858E0,7.5869255E0,7.0986915E0,7.7906675E0,7.068197E0,8.147463E0,8.886443E0,7.8795485E0,7.9811344E0,8.326355E0,8.019387E0,8.146752E0,8.033077E0,8.4525E0,8.196426E0,8.040874E0,7.8777843E0,8.277913E0,8.160906E0,7.9793096E0,8.088609E0,8.06769E0,7.9104233E0,7.664146E0,8.093849E0,7.797494E0,8.111177E0,7.808733E0,7.3935432E0,8.284315E0,7.972478E0,7.389017E0,7.6066046E0,7.22546E0,6.76867E0,7.7821784E0,9.109992E0,7.9577765E0,8.332297E0,7.9851675E0,7.0185513E0,8.385529E0,7.8846045E0,8.054506E0,8.176768E0,8.178889E0,8.010265E0,8.104896E0,7.979672E0,8.401798E0,8.225948E0,7.9886193E0,7.5436907E0,8.224204E0,8.034019E0,7.374582E0,8.074822E0,7.8891826E0,8.033462E0,7.8370275E0,6.932004E0,8.333414E0,7.909372E0,6.5967135E0,7.502999E0,8.055554E0,8.455624E0,8.931946E0,7.9402137E0,7.738789E0,7.572968E0,7.759703E0,7.1397595E0,7.794407E0,7.272166E0,8.445592E0,8.019163E0,7.9150357E0,8.042665E0,7.9505525E0,8.047206E0,7.670022E0,8.240265E0,7.6182604E0,8.042744E0,7.971159E0,8.112835E0,7.8721952E0,8.043542E0,7.8203654E0,8.109824E0,7.900106E0,7.58699E0,6.319533E0,7.4884906E0,6.0468597E0,7.061052E0,7.2346807E0,7.682142E0,8.660214E0,8.008404E0,7.7528925E0,8.097569E0,7.5942383E0,7.237637E0,6.4019685E0,7.197578E0,7.8521876E0,7.7117887E0,7.9870605E0,7.7148924E0,7.920925E0,8.080293E0,8.332955E0,8.030479E0,8.326431E0,8.105786E0,8.374093E0,8.033109E0,8.089245E0,8.489821E0,7.834703E0,7.908844E0,8.118098E0,7.9036837E0,7.6970167E0,7.9507084E0,8.181545E0,7.967788E0,8.119392E0,7.38775E0,7.883465E0,7.373142E0,7.5865455E0,8.248768E0,8.099237E0,7.8039784E0,7.725355E0,6.7238636E0,8.030178E0,7.6504865E0,7.9474945E0,7.8300443E0,7.5544276E0,8.153475E0,7.95249E0,8.082264E0,8.309819E0,9.042233E0,7.834881E0,8.231776E0,8.040581E0,7.76474E0,8.758248E0,8.074832E0,7.3353252E0,7.8416657E0,8.0712805E0,7.8969417E0,8.141644E0,7.3955607E0,8.090768E0,8.277625E0,7.4759097E0,7.6276817E0,7.738845E0,8.334837E0],"categories":[],"categories_nodes":[],"categories_segments":[],"categories_sizes":[],"default_left":[1,1,1,1,1,1,1,1,0,1,1,1,1,1,1,1,1,1,1,1,1,1,1,1,1,1,0,1,0,1,0,1,1,1,0,0,1,1,1,0,1,1,1,0,1,1,1,1,0,1,0,0,1,0,1,1,1,0,0,1,0,1,0,1,1,1,1,0,0,1,1,0,1,1,1,0,1,1,0,1,0,0,0,0,0,0,0,1,0,0,1,0,0,0,0,1,0,1,1,0,1,1,1,1,1,0,0,1,1,0,1,0,1,0,1,0,1,1,0,0,0,1,0,1,1,0,1,0,1,0,1,1,1,1,1,0,0,0,0,0,0,0,1,0,0,1,0,1,0,0,0,1,1,1,0,1,1,0,1,1,1,0,1,1,0,1,1,1,0,0,0,1,0,0,0,0,0,1,0,1,0,0,0,0,0,0,0,0,0,0,0,0,0,0,0,0,0,0,0,0,0,0,0,0,0,0,0,0,0,0,0],"id":1,"left_children":[1,3,5,7,9,11,13,15,-1,17,19,21,23,25,27,29,31,33,35,37,39,41,43,45,47,49,-1,51,-1,53,-1,55,57,59,-1,-1,61,63,65,-1,67,69,71,-1,73,75,77,79,-1,81,-1,-1,83,-1,85,87,89,-1,-1,91,-1,93,-1,95,97,99,101,-1,-1,103,105,-1,107,109,111,-1,113,115,-1,117,-1,-1,-1,-1,-1,-1,-1,119,-1,-1,121,-1,-1,-1,-1,123,-1,125,127,-1,129,131,133,135,137,-1,-1,139,141,-1,143,-1,145,-1,147,-1,149,151,-1,-1,-1,153,-1,155,157,-1,159,-1,161,-1,163,165,167,169,171,-1,-1,-1,-1,-1,-1,-1,173,-1,-1,175,-1,177,-1,-1,-1,179,181,183,-1,185,187,-1,189,191,193,-1,195,197,-1,199,201,203,-1,-1,-1,205,-1,-1,-1,-1,-1,207,-1,209,-1,-1,-1,-1,-1,-1,-1,-1,-1,-1,-1,-1,-1,-1,-1,-1,-1,-1,-1,-1,-1,-1,-1,-1,-1,-1,-1,-1,-1,-1,-1],"loss_changes":[3.908E3,1.67E3,1.8315E3,5.9E2,9.42E2,6.79E2,2.2675E2,6.205E2,0E0,3.145E2,8E2,1.64375E2,3.53E2,5.38125E1,7.575E1,8.375E0,3.965E2,1.275E2,4.1E1,6.38E2,6.335625E2,8.825E1,2.834375E1,3.5625E2,2.755625E2,2.4265625E1,0E0,3.775E1,0E0,3.1375E1,0E0,1.535E2,4.2625E1,7.8375E1,0E0,0E0,1.2625E1,3.6E2,3.43E2,0E0,3.4078125E1,5.696875E1,7.1359375E1,0E0,4.646875E1,3.15E1,2.965625E1,9.18125E1,0E0,1.89375E1,0E0,0E0,3.575E1,0E0,1.1484375E0,2.775E1,4.775E1,0E0,0E0,1.725E1,0E0,6.3125E0,0E0,2.49E2,4.295E2,3.375E1,2.605E2,0E0,0E0,8.3015625E1,1.19921875E1,0E0,7.235156E1,5.9140625E0,2.0421875E1,0E0,3.25E1,6.0390625E0,0E0,3.33125E1,0E0,0E0,0E0,0E0,0E0,0E0,0E0,4.7875E1,0E0,0E0,2.725E1,0E0,0E0,0E0,0E0,1.02E2,0E0,1.0725E2,1.1175E2,0E0,9E0,2.15E2,2.33125E2,5E-1,1.5388672E1,0E0,0E0,2.494629E0,3.109375E0,0E0,2.7625E1,0E0,2.1640625E1,0E0,6.16875E1,0E0,3.7890625E0,6.6875E0,0E0,0E0,0E0,4.715625E1,0E0,1.1025E2,7.325E1,0E0,1.48125E2,0E0,8.2E1,0E0,5.24375E1,6.95E1,4.4875E1,1.653125E1,7.125E1,0E0,0E0,0E0,0E0,0E0,0E0,0E0,3.217578E1,0E0,0E0,7.8671875E0,0E0,1.475E1,0E0,0E0,0E0,3.4875E1,2.653125E1,1.865625E1,0E0,2.675E1,2.605E2,0E0,4.7625E1,5.925E1,1.8475E2,0E0,2.9E1,5.30625E1,0E0,1.0675E2,2.95E1,5.525E1,0E0,0E0,0E0,1.03125E1,0E0,0E0,0E0,0E0,0E0,1.21875E1,0E0,4.7414062E1,0E0,0E0,0E0,0E0,0E0,0E0,0E0,0E0,0E0,0E0,0E0,0E0,0E0,0E0,0E0,0E0,0E0,0E0,0E0,0E0,0E0,0E0,0E0,0E0,0E0,0E0,0E0,0E0,0E0,0E0,0E0],"parents":[2147483647,0,0,1,1,2,2,3,3,4,4,5,5,6,6,7,7,9,9,10,10,11,11,12,12,13,13,14,14,15,15,16,16,17,17,18,18,19,19,20,20,21,21,22,22,23,23,24,24,25,25,27,27,29,29,31,31,32,32,33,33,36,36,37,37,38,38,40,40,41,41,42,42,44,44,45,45,46,46,47,47,49,49,52,52,54,54,55,55,56,56,59,59,61,61,63,63,64,64,65,65,66,66,69,69,70,70,72,72,73,73,74,74,76,76,77,77,79,79,87,87,90,90,95,95,97,97,98,98,100,100,101,101,102,102,103,103,104,104,107,107,108,108,110,110,112,112,114,114,116,116,117,117,121,121,123,123,124,124,126,126,128,128,130,130,131,131,132,132,133,133,134,134,142,142,145,145,147,147,151,151,152,152,153,153,155,155,156,156,158,158,159,159,160,160,162,162,163,163,165,165,166,166,167,167,171,171,177,177,179,179],"right_children":[2,4,6,8,10,12,14,16,-1,18,20,22,24,26,28,30,32,34,36,38,40,42,44,46,48,50,-1,52,-1,54,-1,56,58,60,-1,-1,62,64,66,-1,68,70,72,-1,74,76,78,80,-1,82,-1,-1,84,-1,86,88,90,-1,-1,92,-1,94,-1,96,98,100,102,-1,-1,104,106,-1,108,110,112,-1,114,116,-1,118,-1,-1,-1,-1,-1,-1,-1,120,-1,-1,122,-1,-1,-1,-1,124,-1,126,128,-1,130,132,134,136,138,-1,-1,140,142,-1,144,-1,146,-1,148,-1,150,152,-1,-1,-1,154,-1,156,158,-1,160,-1,162,-1,164,166,168,170,172,-1,-1,-1,-1,-1,-1,-1,174,-1,-1,176,-1,178,-1,-1,-1,180,182,184,-1,186,188,-1,190,192,194,-1,196,198,-1,200,202,204,-1,-1,-1,206,-1,-1,-1,-1,-1,208,-1,210,-1,-1,-1,-1,-1,-1,-1,-1,-1,-1,-1,-1,-1,-1,-1,-1,-1,-1,-1,-1,-1,-1,-1,-1,-1,-1,-1,-1,-1,-1,-1],"split_conditions":[5.5E0,1.5E0,1.5E0,5.05E1,7.5E0,4.95E2,2.5E0,5.5E0,2.5949812E-1,2.0135E3,5.05E1,2E0,2E0,2.012E3,4.75E1,2.0135E3,2.85E1,4.45E1,1.5E0,5E-1,2.35E1,8.5E0,4E1,1.7905E4,6.5E0,2.5E0,2.648873E-1,2E0,2.44826E-1,5E-1,2.5213695E-1,5E-1,8E0,3.15E1,2.462039E-1,2.4378389E-1,5E-1,1.5E0,2.85E2,2.543238E-1,2.45E1,2.0085E3,2.55E2,2.2509016E-1,5E-1,1.01E2,2.736E4,1.1135E3,2.120459E-1,6.5E0,2.6659328E-1,2.3638645E-1,6.5E0,2.4979064E-1,7.5E0,1.15E1,2.85E2,2.53575E-1,2.458928E-1,5E-1,2.3633352E-1,1.615E3,2.4482717E-1,2.759E4,1.615E3,1E1,2.75E1,2.2992437E-1,2.4281546E-1,7.5E0,5E-1,2.3426199E-1,2.0035E3,1.9E2,6E1,2.2167051E-1,1.5E0,2.825E2,2.0306009E-1,2.0145E3,2.7329975E-1,2.3873329E-1,2.4996892E-1,2.3955502E-1,2.1055654E-1,2.5156584E-1,2.3653813E-1,8E0,2.4530305E-1,2.4536668E-1,1.15E1,2.4314687E-1,2.3939015E-1,2.5205395E-1,2.4677844E-1,6.605E2,2.2631072E-1,4E1,1.855E3,2.2123745E-1,3.175E2,1.406E4,1.1E1,3.25E2,6.495E2,2.500024E-1,2.3728114E-1,3.22E2,3.15E2,2.4166663E-1,3.8E2,2.6795837E-1,3.5E0,2.3216367E-1,1.3385E4,2.327911E-1,3.805E2,5E-1,2.1816497E-1,2.5336775E-1,2.4057488E-1,8.5E0,2.4127993E-1,2.0125E3,6.845E2,2.3010066E-1,2.5E0,2.2854781E-1,1.915E3,2.3913476E-1,1.15E1,1.5E0,5.5E0,3.5E0,7.5E0,2.3700318E-1,2.276097E-1,1.8958598E-1,2.2465472E-1,1.8140578E-1,2.1183155E-1,2.1704042E-1,3.8E2,2.5980642E-1,2.402521E-1,3.55E2,2.4292707E-1,1.269E4,2.1712911E-1,1.9205905E-1,2.1592733E-1,1.615E3,2.596E4,2.65E1,2.3144677E-1,5.365E2,2.5E0,2.4998866E-1,2.0055E3,1.1055E3,5E0,2.512228E-1,2.0145E3,3.4E2,2.5469464E-1,2.95E2,5.7E1,2.596E4,2.3711051E-1,2.309105E-1,2.3852125E-1,2.95E1,2.3903364E-1,2.4358177E-1,2.216325E-1,2.3650394E-1,2.2119425E-1,2.0065E3,2.4746303E-1,1.065E3,2.3411934E-1,2.3176065E-1,2.017159E-1,2.4090533E-1,2.2951458E-1,2.3842482E-1,2.3490132E-1,2.2663282E-1,2.4460424E-1,2.3857468E-1,2.4246791E-1,2.4929456E-1,2.71267E-1,2.3504642E-1,2.4695328E-1,2.4121742E-1,2.329422E-1,2.6274744E-1,2.4224496E-1,2.2005975E-1,2.3524997E-1,2.4213842E-1,2.3690824E-1,2.442493E-1,2.2186682E-1,2.4272303E-1,2.4832875E-1,2.2427729E-1,2.2883044E-1,2.3216534E-1,2.500451E-1],"split_indices":[1,1,5,16,15,7,5,15,0,13,16,6,6,9,16,13,15,16,6,10,15,8,7,7,1,6,0,6,0,4,0,10,14,16,0,0,10,6,7,0,15,9,7,0,10,0,7,0,0,1,0,0,1,0,14,16,7,0,0,10,0,7,0,7,7,7,15,0,0,8,10,0,9,7,7,0,8,0,0,9,0,0,0,0,0,0,0,15,0,0,16,0,0,0,0,0,0,7,7,0,0,7,16,7,0,0,0,0,7,0,7,0,8,0,7,0,0,10,0,0,0,16,0,9,0,0,5,0,7,0,8,6,8,1,14,0,0,0,0,0,0,0,7,0,0,7,0,7,0,0,0,7,7,15,0,0,8,0,9,0,8,0,9,0,0,7,0,7,0,0,0,15,0,0,0,0,0,9,0,7,0,0,0,0,0,0,0,0,0,0,0,0,0,0,0,0,0,0,0,0,0,0,0,0,0,0,0,0,0,0,0],"split_type":[0,0,0,0,0,0,0,0,0,0,0,0,0,0,0,0,0,0,0,0,0,0,0,0,0,0,0,0,0,0,0,0,0,0,0,0,0,0,0,0,0,0,0,0,0,0,0,0,0,0,0,0,0,0,0,0,0,0,0,0,0,0,0,0,0,0,0,0,0,0,0,0,0,0,0,0,0,0,0,0,0,0,0,0,0,0,0,0,0,0,0,0,0,0,0,0,0,0,0,0,0,0,0,0,0,0,0,0,0,0,0,0,0,0,0,0,0,0,0,0,0,0,0,0,0,0,0,0,0,0,0,0,0,0,0,0,0,0,0,0,0,0,0,0,0,0,0,0,0,0,0,0,0,0,0,0,0,0,0,0,0,0,0,0,0,0,0,0,0,0,0,0,0,0,0,0,0,0,0,0,0,0,0,0,0,0,0,0,0,0,0,0,0,0,0,0,0,0,0,0,0,0,0,0,0,0,0,0,0,0,0],"sum_hessian":[5.70131E5,4.70366E5,9.9765E4,9.3194E4,3.77172E5,5.3489E4,4.6276E4,9.0431E4,2.763E3,8.2601E4,2.94571E5,1.3884E4,3.9605E4,2.96E3,4.3316E4,1.538E4,7.5051E4,3.3397E4,4.9204E4,2.8613E5,8.441E3,8.766E3,5.118E3,2.441E4,1.5195E4,2.609E3,3.51E2,4.0262E4,3.054E3,6.066E3,9.314E3,6.7803E4,7.248E3,2.8084E4,5.313E3,2.5837E4,2.3367E4,1.4307E5,1.4306E5,6.21E3,2.231E3,5.749E3,3.017E3,2.8E2,4.838E3,2.2533E4,1.877E3,1.4523E4,6.72E2,2.43E3,1.79E2,1.6598E4,2.3664E4,4.704E3,1.362E3,3.3775E4,3.4028E4,4.469E3,2.779E3,2.0891E4,7.193E3,1.1724E4,1.1643E4,7.6182E4,6.6888E4,1.8896E4,1.24164E5,1.423E3,8.08E2,4.013E3,1.736E3,1.621E3,1.396E3,1.888E3,2.95E3,2.072E3,2.0461E4,1.341E3,5.36E2,1.4437E4,8.6E1,1.221E3,1.209E3,2.3558E4,1.06E2,3.5E2,1.012E3,8.358E3,2.5417E4,4.555E3,2.9473E4,1.0146E4,1.0745E4,3.417E3,8.307E3,7.4571E4,1.611E3,1.9156E4,4.7732E4,2.03E2,1.8693E4,1.0594E5,1.8224E4,3.83E3,1.83E2,8.07E2,9.29E2,1.76E2,1.22E3,8.29E2,1.059E3,8.7E1,2.863E3,4.104E3,1.6357E4,1.73E2,1.168E3,1.4085E4,3.52E2,6.73E2,7.685E3,7.544E3,2.1929E4,4.5284E4,2.9287E4,5.53E2,1.8603E4,9.99E2,4.6733E4,5.072E3,1.3621E4,9.5484E4,1.0456E4,4.835E3,1.3389E4,3.034E3,7.96E2,9.3E1,9E1,8.7E1,8.9E1,5.05E2,7.15E2,7.14E2,3.45E2,1.33E3,1.533E3,1.5361E4,9.96E2,9.3E1,1.075E3,8.233E3,5.852E3,5.519E3,2.025E3,3.6916E4,8.368E3,1.592E3,2.7695E4,1.1301E4,7.302E3,1.296E3,4.5437E4,1.284E4,7.81E2,4.7305E4,4.8179E4,6.783E3,3.673E3,2.515E3,2.32E3,8.859E3,4.53E3,2.77E2,4.38E2,9.75E2,3.55E2,1.5195E4,1.66E2,1.317E3,6.916E3,5.766E3,8.6E1,4.872E3,6.47E2,2.8498E4,8.418E3,1.035E3,7.333E3,1.1113E4,1.6582E4,1.1057E4,2.44E2,2.338E3,4.964E3,4.4178E4,1.259E3,2.58E2,1.2582E4,6.65E2,4.664E4,3.243E3,4.4936E4,6.559E3,2.24E2,4.599E3,4.26E3,4.168E3,1.1027E4,5.34E2,7.83E2],"tree_param":{"num_deleted":"0","num_feature":"20","num_nodes":"211","size_leaf_vector":"0"}},{"base_weights":[7.7695084E0,7.806852E0,7.5936303E0,7.924524E0,7.777795E0,7.4695096E0,7.7367244E0,8.116242E0,7.8931694E0,7.8244395E0,7.7171783E0,7.660537E0,7.402076E0,8.037476E0,7.716204E0,7.874617E0,8.139875E0,7.921457E0,7.7970824E0,7.859601E0,7.6947174E0,7.775001E0,7.556118E0,7.4421153E0,7.2402916E0,8.146005E0,7.654759E0,7.69703E0,7.849455E0,7.8527045E0,8.1314335E0,7.7848945E0,8.258323E0,7.844077E0,7.974179E0,7.780877E0,7.8937683E0,7.8219976E0,8.149882E0,7.7731957E0,7.668254E0,7.835644E0,7.5048714E0,7.4816427E0,7.9555216E0,7.415705E0,7.6427445E0,7.2849774E0,6.7698708E0,7.9397755E0,8.339434E0,7.699955E0,7.0399714E0,7.796345E0,7.9197183E0,8.19757E0,7.913116E0,8.391446E0,7.986698E0,7.8719835E0,7.7198496E0,7.7682776E0,7.986529E0,7.912951E0,7.5269113E0,7.186952E0,7.830693E0,8.304577E0,7.893487E0,7.7004027E0,7.825538E0,7.6484447E0,7.7811236E0,6.905846E0,7.850892E0,7.594239E0,7.2741942E0,7.5059905E0,7.272936E0,7.7302876E0,7.131841E0,7.4033275E0,7.182342E0,7.727896E0,7.6368303E0,7.933492E0,7.775307E0,7.857512E0,7.751945E0,8.0491705E0,7.6273036E0,7.7502017E0,7.9579697E0,7.9738655E0,7.2914968E0,7.9483976E0,7.7970004E0,7.748724E0,7.574769E0,7.635773E0,7.864033E0,7.61337E0,7.8279524E0,7.707035E0,7.3740435E0,6.008156E0,7.385454E0,7.529551E0,7.3130345E0,7.294854E0,6.9901485E0,6.8245697E0,7.755987E0,6.9686546E0,7.8349113E0,7.353371E0,7.927017E0,6.9065804E0,7.275758E0,7.8078423E0,7.696358E0,7.811728E0,8.065824E0,7.7585616E0,7.583812E0,7.815837E0,8.253844E0,8.017744E0,7.848875E0,7.6109624E0,7.7283936E0,7.9304914E0,7.52349E0,7.9227443E0,7.6717386E0,7.15756E0,7.5583615E0,7.3029494E0,6.5495167E0,6.4276123E0,7.1335096E0,7.7770147E0,6.699559E0,7.2886615E0,7.642307E0,7.516091E0,6.763051E0,7.407681E0,7.00904E0,7.7468886E0,7.8958955E0,7.5270424E0,7.760154E0,7.843945E0,7.51987E0,8.316203E0,7.919383E0,7.776639E0,7.703669E0,7.498486E0,7.753333E0,7.9395914E0,8.098129E0,7.6497593E0,7.514582E0,7.7689557E0,7.6114855E0,7.683841E0,8.149291E0,7.600724E0,7.8737206E0,7.3126197E0,6.5061717E0,7.878002E0,7.5426702E0,6.986924E0,6.303101E0,6.5389404E0,7.183286E0,7.878297E0,7.696921E0,7.958978E0,7.7893825E0,7.7586756E0,7.9268556E0,7.7038584E0,7.177143E0,8.079555E0,7.5006633E0,7.783238E0,7.652394E0,7.685642E0,7.835461E0,7.4910407E0,7.661348E0,7.508029E0,8.07696E0,7.77815E0,7.1655993E0,7.336428E0,6.6215377E0],"categories":[],"categories_nodes":[],"categories_segments":[],"categories_sizes":[],"default_left":[1,1,1,1,1,1,1,0,1,1,1,1,1,1,1,1,1,1,1,1,1,1,1,1,1,1,0,1,0,1,1,0,1,1,0,1,1,1,1,1,1,1,0,1,0,1,1,1,0,0,0,1,0,1,0,0,0,0,0,0,0,1,1,1,1,0,1,0,0,1,0,1,1,0,0,1,1,1,1,1,1,1,1,0,0,0,1,1,1,1,0,0,1,0,0,0,0,0,0,1,1,0,1,0,0,0,1,0,0,1,1,0,1,0,0,1,0,1,1,1,1,1,1,1,1,0,0,1,0,1,1,1,0,0,1,1,0,0,0,0,0,1,0,0,0,0,1,0,1,1,1,0,0,1,1,0,1,1,1,0,0,0,0,1,1,1,0,0,0,0,0,0,0,0,0,0,0,0,1,0,0,0,0,0,0,0,0,0,0,0,0,0,0,0,0,0,0,0,0,0,0],"id":2,"left_children":[1,3,5,7,9,11,13,-1,15,17,19,21,23,25,27,29,31,33,35,37,39,41,43,45,47,49,-1,51,-1,53,55,-1,57,59,-1,61,63,65,67,69,71,73,-1,75,-1,77,79,81,-1,-1,-1,83,-1,85,-1,-1,-1,-1,-1,-1,-1,87,89,91,93,-1,95,-1,-1,97,-1,99,101,-1,-1,103,105,107,109,111,113,115,117,-1,-1,-1,119,121,123,125,-1,-1,127,-1,-1,-1,-1,-1,-1,129,131,-1,133,-1,-1,-1,135,-1,-1,137,139,-1,141,-1,-1,143,-1,145,147,149,151,153,155,157,159,-1,-1,161,-1,163,165,167,-1,-1,169,171,-1,-1,-1,-1,-1,173,-1,-1,-1,-1,175,-1,177,179,181,-1,-1,183,185,-1,187,189,191,-1,-1,-1,-1,193,195,197,-1,-1,-1,-1,-1,-1,-1,-1,-1,-1,-1,-1,199,-1,-1,-1,-1,-1,-1,-1,-1,-1,-1,-1,-1,-1,-1,-1,-1,-1,-1,-1,-1,-1,-1],"loss_changes":[3.68E3,1.546E3,1.7145E3,4.95E2,1.004E3,6.32E2,2.24E2,0E0,3.01E2,5.03E2,4.64E2,1.0775E2,2.025E2,5.9546875E1,5.05E1,3.55E2,1.6959375E2,1.2825E2,1.99E2,1.79625E2,2.355E2,4.940625E1,1.58125E2,1.10875E2,1.1640625E2,2.4359375E1,0E0,1.875E1,0E0,1.975E2,1.915625E1,0E0,8.31875E1,5.125E0,0E0,3.07E2,1.07625E2,5.275E1,3.4875E1,7.55E1,1.77E2,2.196875E1,0E0,8.915625E1,0E0,3.06625E2,1.08171875E2,3.4125E1,0E0,0E0,0E0,7.75E0,0E0,4.6E1,0E0,0E0,0E0,0E0,0E0,0E0,0E0,1.35E2,1.2275E2,1.0375E2,6.8328125E1,0E0,1.5375E1,0E0,0E0,3.21875E1,0E0,1.865E2,6.43125E1,0E0,0E0,4.2140625E1,2.65375E2,2.275E1,1.64375E1,1.934375E1,8.160156E0,2.8171875E1,4.975E1,0E0,0E0,0E0,2.325E1,1.3425E2,6.65E1,2.6734375E2,0E0,0E0,5.225E1,0E0,0E0,0E0,0E0,0E0,0E0,1.37E2,5.29375E1,0E0,1.211875E2,0E0,0E0,0E0,2.5390625E1,0E0,0E0,1.3E1,1.9230469E1,0E0,1.4796875E1,0E0,0E0,9.6875E-1,0E0,3.6828125E1,4.9453125E1,6.15E1,4.45E1,1.0075E2,6.965625E1,4.85E1,4.671875E0,0E0,0E0,7E0,0E0,1.9425E2,2.6E1,1.6109375E2,0E0,0E0,7.21875E0,4.2214844E1,0E0,0E0,0E0,0E0,0E0,1.03125E1,0E0,0E0,0E0,0E0,4.05E1,0E0,3.2648438E1,2.85E1,5E-1,0E0,0E0,4.65E1,5.2726562E1,0E0,9.721875E1,7.5E0,4.25E0,0E0,0E0,0E0,0E0,3.05E1,1.0875E1,1.79375E1,0E0,0E0,0E0,0E0,0E0,0E0,0E0,0E0,0E0,0E0,0E0,0E0,1.1558594E1,0E0,0E0,0E0,0E0,0E0,0E0,0E0,0E0,0E0,0E0,0E0,0E0,0E0,0E0,0E0,0E0,0E0,0E0,0E0,0E0,0E0,0E0],"parents":[2147483647,0,0,1,1,2,2,3,3,4,4,5,5,6,6,8,8,9,9,10,10,11,11,12,12,13,13,14,14,15,15,16,16,17,17,18,18,19,19,20,20,21,21,22,22,23,23,24,24,25,25,27,27,29,29,30,30,32,32,33,33,35,35,36,36,37,37,38,38,39,39,40,40,41,41,43,43,45,45,46,46,47,47,51,51,53,53,61,61,62,62,63,63,64,64,66,66,69,69,71,71,72,72,75,75,76,76,77,77,78,78,79,79,80,80,81,81,82,82,86,86,87,87,88,88,89,89,92,92,99,99,100,100,102,102,106,106,109,109,110,110,112,112,115,115,117,117,118,118,119,119,120,120,121,121,122,122,123,123,124,124,127,127,129,129,130,130,131,131,134,134,135,135,141,141,146,146,148,148,149,149,150,150,153,153,154,154,156,156,157,157,158,158,163,163,164,164,165,165,178,178],"right_children":[2,4,6,8,10,12,14,-1,16,18,20,22,24,26,28,30,32,34,36,38,40,42,44,46,48,50,-1,52,-1,54,56,-1,58,60,-1,62,64,66,68,70,72,74,-1,76,-1,78,80,82,-1,-1,-1,84,-1,86,-1,-1,-1,-1,-1,-1,-1,88,90,92,94,-1,96,-1,-1,98,-1,100,102,-1,-1,104,106,108,110,112,114,116,118,-1,-1,-1,120,122,124,126,-1,-1,128,-1,-1,-1,-1,-1,-1,130,132,-1,134,-1,-1,-1,136,-1,-1,138,140,-1,142,-1,-1,144,-1,146,148,150,152,154,156,158,160,-1,-1,162,-1,164,166,168,-1,-1,170,172,-1,-1,-1,-1,-1,174,-1,-1,-1,-1,176,-1,178,180,182,-1,-1,184,186,-1,188,190,192,-1,-1,-1,-1,194,196,198,-1,-1,-1,-1,-1,-1,-1,-1,-1,-1,-1,-1,200,-1,-1,-1,-1,-1,-1,-1,-1,-1,-1,-1,-1,-1,-1,-1,-1,-1,-1,-1,-1,-1,-1],"split_conditions":[5.5E0,1.5E0,1.5E0,4.5E0,2.0095E3,4.95E2,2.5E0,2.4348727E-1,1.15E1,7.5E0,2.8E2,2.0095E3,1.3115E4,2.0125E3,1.05E1,2.85E1,1.2E1,2.4167125E4,2.75E1,3.8E1,8.5E0,1.05E1,3.8E1,2.0135E3,2.0135E3,6.5E0,2.2964276E-1,6.5E0,2.3548365E-1,2.4158875E4,8E0,2.3354682E-1,2.6E1,2.4163875E4,2.3922536E-1,1.15E1,1.15E1,1E1,2.5E0,2.0135E3,2.75E1,1.5E1,2.2514613E-1,2.8E2,2.3866564E-1,5E-1,2.0145E3,3.5E0,2.0309612E-1,2.3819326E-1,2.5018302E-1,6.5E0,2.1119913E-1,2.85E2,2.3759155E-1,2.459271E-1,2.3739347E-1,2.5174338E-1,2.3960094E-1,2.361595E-1,2.3159549E-1,4.35E2,2.35E1,2.5E0,3.05E1,2.1560855E-1,7.5E0,2.491373E-1,2.368046E-1,5E-1,2.3476614E-1,1.15E1,2.5E0,2.0717537E-1,2.3552676E-1,2.4E1,2.95E2,1.05E1,2.0135E3,5.5E0,1.85E1,2.5E0,2.0055E3,2.3183689E-1,2.291049E-1,2.3800476E-1,2.15E1,3.35E2,4.2E1,1.45E1,2.288191E-1,2.3250605E-1,7.5E0,2.3921596E-1,2.187449E-1,2.3845193E-1,2.3391001E-1,2.3246172E-1,2.2724307E-1,2.0135E3,2.35E1,2.284011E-1,7.5E0,2.3121105E-1,2.212213E-1,1.8024467E-1,2.0025E3,2.2588652E-1,2.1939103E-1,6.5E0,9.9E2,2.0473708E-1,6.5E0,2.0905964E-1,2.3504734E-1,1.8E1,2.378105E-1,2.0005E3,2.861E4,1.45E1,2.5E0,2.85E2,3.95E2,2.25E1,3.5E0,2.344751E-1,2.4761532E-1,2.95E1,2.3546624E-1,2.0125E3,9.5E0,1.45E1,2.257047E-1,2.3768233E-1,4.5E0,4E0,2.2675084E-1,2.1908848E-1,1.9648549E-1,1.9282837E-1,2.1400529E-1,9E0,2.0098677E-1,2.1865983E-1,2.2926919E-1,2.2548272E-1,7.5E0,2.2223042E-1,2.009E3,7.5E0,1.85E1,2.2581127E-1,2.3280461E-1,2.0055E3,2E0,2.4948609E-1,8.5E0,2.707E4,9.5E0,2.2495458E-1,2.3259999E-1,2.3818773E-1,2.4294387E-1,3E0,1.982E4,2.414E4,2.2834456E-1,2.3051523E-1,2.4447873E-1,2.2802173E-1,2.3621161E-1,2.1937859E-1,1.9518514E-1,2.3634006E-1,2.2628011E-1,2.0960772E-1,1.8909302E-1,1.9616821E-1,6.5E0,2.363489E-1,2.3090762E-1,2.3876934E-1,2.3368147E-1,2.3276027E-1,2.3780566E-1,2.3111574E-1,2.1531428E-1,2.4238662E-1,2.2501989E-1,2.3349713E-1,2.295718E-1,2.3056924E-1,2.3506384E-1,2.2473122E-1,2.2984043E-1,2.2524087E-1,2.4230878E-1,2.333445E-1,2.1496798E-1,2.2009283E-1,1.9864613E-1],"split_indices":[1,1,5,15,12,7,5,0,14,15,7,12,7,12,14,15,15,18,15,11,15,8,11,12,9,1,0,1,0,18,14,0,15,18,0,14,14,7,5,13,15,7,0,7,0,10,12,8,0,0,0,14,0,7,0,0,0,0,0,0,0,7,15,14,15,0,15,0,0,4,0,14,14,0,0,11,7,8,9,11,11,8,9,0,0,0,15,7,11,15,0,0,14,0,0,0,0,0,0,12,15,0,14,0,0,0,9,0,0,1,7,0,1,0,0,11,0,9,7,15,14,7,7,15,5,0,0,15,0,12,8,15,0,0,1,8,0,0,0,0,0,8,0,0,0,0,8,0,9,15,15,0,0,9,5,0,8,7,14,0,0,0,0,11,7,7,0,0,0,0,0,0,0,0,0,0,0,0,1,0,0,0,0,0,0,0,0,0,0,0,0,0,0,0,0,0,0,0,0,0,0],"split_type":[0,0,0,0,0,0,0,0,0,0,0,0,0,0,0,0,0,0,0,0,0,0,0,0,0,0,0,0,0,0,0,0,0,0,0,0,0,0,0,0,0,0,0,0,0,0,0,0,0,0,0,0,0,0,0,0,0,0,0,0,0,0,0,0,0,0,0,0,0,0,0,0,0,0,0,0,0,0,0,0,0,0,0,0,0,0,0,0,0,0,0,0,0,0,0,0,0,0,0,0,0,0,0,0,0,0,0,0,0,0,0,0,0,0,0,0,0,0,0,0,0,0,0,0,0,0,0,0,0,0,0,0,0,0,0,0,0,0,0,0,0,0,0,0,0,0,0,0,0,0,0,0,0,0,0,0,0,0,0,0,0,0,0,0,0,0,0,0,0,0,0,0,0,0,0,0,0,0,0,0,0,0,0,0,0,0,0,0,0,0,0,0,0,0,0,0,0,0,0,0,0],"sum_hessian":[5.69598E5,4.69803E5,9.9795E4,9.2982E4,3.76821E5,5.3469E4,4.6326E4,1.3033E4,7.9949E4,2.1288E5,1.63941E5,1.3921E4,3.9548E4,2.934E3,4.3392E4,7.4388E4,5.561E3,4.6761E4,1.66119E5,2.2285E4,1.41656E5,6.606E3,7.315E3,3.1666E4,7.882E3,2.27E3,6.64E2,3.7985E4,5.407E3,6.8569E4,5.819E3,1.408E3,4.153E3,1.901E4,2.7751E4,1.42343E5,2.3776E4,1.9754E4,2.531E3,3.5648E4,1.06008E5,5.372E3,1.234E3,6.182E3,1.133E3,2.8016E4,3.65E3,7.185E3,6.97E2,1.119E3,1.151E3,3.7806E4,1.79E2,3.7309E4,3.126E4,4.438E3,1.381E3,2.767E3,1.386E3,1.5472E4,3.538E3,1.34162E5,8.181E3,2.2575E4,1.201E3,2.78E2,1.9476E4,1.559E3,9.72E2,1.4973E4,2.0675E4,9.0239E4,1.5769E4,9.4E1,5.278E3,3.984E3,2.198E3,1.7131E4,1.0885E4,3.104E3,5.46E2,3.304E3,3.881E3,2.6122E4,1.1684E4,4.912E3,3.2397E4,2.0682E4,1.1348E5,6.948E3,1.233E3,4.929E3,1.7646E4,4.03E2,7.98E2,4.282E3,1.5194E4,1.077E4,4.203E3,8.5264E4,4.975E3,3.477E3,1.2292E4,2.612E3,1.372E3,1.82E2,2.016E3,1.5233E4,1.898E3,1.0079E4,8.06E2,9.3E1,3.011E3,4.52E2,9.4E1,3.03E3,2.74E2,1.001E3,2.88E3,2.2873E4,9.524E3,1.6987E4,3.695E3,1.0914E5,4.34E3,3.265E3,3.683E3,1.1353E4,6.293E3,6.7315E4,1.7949E4,4.144E3,8.31E2,7.619E3,4.673E3,8.88E2,1.128E3,9.962E3,1.17E2,1.73E2,6.33E2,2.946E3,6.5E1,2.497E3,5.33E2,1.81E2,8.2E2,1.909E3,9.71E2,1.3569E4,9.304E3,2.639E3,6.885E3,1.5275E4,1.712E3,1.343E3,2.352E3,8.1996E4,2.7144E4,2.917E3,1.423E3,5.807E3,5.546E3,4.7939E4,1.9376E4,1.3277E4,4.672E3,1.965E3,2.179E3,3.486E3,1.187E3,7.09E2,1.79E2,2.036E3,9.1E2,5.42E2,2.78E2,2.73E2,6.98E2,3.695E3,9.874E3,5.797E3,3.507E3,7.577E3,7.698E3,1.1E3,6.12E2,1.688E3,6.64E2,7.7802E4,4.194E3,2.393E4,3.214E3,3.306E3,4.4633E4,1.9167E4,2.09E2,1.3066E4,2.11E2,5.39E2,1.59E2],"tree_param":{"num_deleted":"0","num_feature":"20","num_nodes":"201","size_leaf_vector":"0"}},{"base_weights":[7.536439E0,7.5224853E0,7.7254934E0,7.4757614E0,7.574644E0,7.7982416E0,7.561184E0,7.564957E0,7.4502835E0,7.7340913E0,7.5536723E0,7.6749473E0,7.993553E0,7.6421757E0,7.369816E0,7.342219E0,7.5787E0,7.4331646E0,7.600998E0,7.2675595E0,7.7591996E0,7.6067657E0,7.499256E0,7.892003E0,7.5485916E0,7.2078404E0,7.4702773E0,7.6967554E0,7.5569177E0,7.4379654E0,6.976242E0,7.4155097E0,7.672067E0,7.9137754E0,7.6509905E0,7.7373357E0,7.571865E0,7.4017606E0,7.5435324E0,7.562186E0,7.1255846E0,7.5355453E0,7.419936E0,7.084948E0,6.7456555E0,7.744449E0,7.507816E0,7.7366214E0,8.136717E0,7.3364463E0,7.7183213E0,7.7191687E0,8.611075E0,7.152007E0,7.581009E0,7.3113317E0,7.484488E0,7.5230274E0,7.7952123E0,7.612095E0,7.5107155E0,7.374796E0,7.551179E0,7.4693074E0,7.3701053E0,7.955098E0,7.638634E0,8.2113905E0,7.431068E0,7.166436E0,7.676798E0,8.384777E0,7.69303E0,7.6898546E0,8.147679E0,7.937156E0,7.570602E0,7.347261E0,7.036046E0,7.403622E0,7.6307E0,7.4921474E0,7.5845823E0,7.829463E0,7.3152146E0,7.1158466E0,7.618517E0,6.9593787E0,7.5171566E0,7.7846656E0,7.306981E0,7.5293612E0,7.718598E0,7.000826E0,7.4751987E0,6.778421E0,7.377122E0,8.269565E0,7.625451E0,7.4700956E0,7.7203E0,8.282367E0,7.9828877E0,7.632052E0,7.8474355E0,7.674519E0,8.32233E0,7.9503217E0,8.51454E0,7.56671E0,8.022476E0,7.578773E0,7.282147E0,7.6433206E0,7.3150177E0,7.376451E0,7.9879904E0,7.0848975E0,7.500377E0,7.68994E0,7.50787E0,7.929781E0,7.656366E0,7.580285E0,7.689525E0,7.7866096E0,7.506935E0,7.731028E0,7.5068903E0,7.8699374E0,7.4816175E0,7.437265E0,7.546471E0,7.3433814E0,7.444853E0,7.64727E0,8.066383E0,7.700316E0,7.47498E0,7.7078953E0,7.4661613E0,7.667851E0,7.553202E0,7.521634E0,7.0970974E0,7.2635126E0,7.458839E0,7.8866115E0,7.3509088E0,7.538161E0,7.4483433E0,7.8197308E0,7.5846934E0,7.3916574E0,7.6175117E0,7.9046297E0,7.566431E0,7.534599E0,8.155569E0,7.4923143E0,7.9467382E0,7.760406E0,7.4242177E0,7.8654723E0,7.522153E0,7.3024936E0,7.4268813E0,7.429608E0,7.7055006E0,7.528939E0,7.7718396E0,7.3019433E0,7.627452E0,7.6523724E0,7.8773174E0,7.7507563E0,7.3358693E0,7.5369244E0,7.6932797E0,7.328835E0,6.9996963E0,7.417405E0,7.12697E0,7.487116E0,7.6195865E0,7.2292128E0,7.484865E0,7.6674585E0,7.9398427E0,7.6221724E0,7.206095E0,7.071546E0,7.447503E0,7.709429E0,7.367005E0],"categories":[],"categories_nodes":[],"categories_segments":[],"categories_sizes":[],"default_left":[1,1,1,1,1,1,1,1,1,1,1,1,0,0,1,0,1,1,1,0,1,1,1,0,0,0,0,0,1,1,1,0,1,1,1,1,1,1,1,1,0,1,1,0,0,0,0,1,1,1,1,1,0,0,1,1,1,1,1,1,1,1,1,1,1,1,1,1,0,0,0,0,1,1,1,1,1,1,0,1,0,1,1,1,0,0,1,0,1,0,0,1,1,0,1,0,1,0,0,0,1,0,0,1,0,1,0,0,0,0,0,1,1,0,1,1,0,0,1,1,1,0,0,1,0,0,0,1,1,0,0,1,1,1,1,0,0,1,1,1,1,0,1,0,0,1,0,0,1,1,1,1,1,1,1,0,0,0,0,0,0,0,0,0,0,0,0,0,0,0,0,0,0,0,0,0,0,0,0,0,0,0,0,0,0,0,0,0,0,0,0,0,0,0,0],"id":3,"left_children":[1,3,5,7,9,11,13,15,17,19,21,23,-1,-1,25,-1,27,29,31,-1,33,35,37,-1,-1,-1,-1,-1,39,41,43,-1,45,47,49,51,53,55,57,59,-1,61,63,-1,-1,-1,-1,65,67,69,71,73,-1,-1,75,77,79,81,83,85,87,89,91,93,95,97,99,101,-1,-1,-1,-1,103,105,107,109,111,113,-1,115,-1,117,119,121,-1,-1,123,-1,125,-1,-1,127,129,-1,131,-1,133,-1,-1,-1,135,-1,-1,137,-1,139,-1,-1,-1,-1,-1,141,143,-1,145,147,-1,-1,149,151,153,-1,-1,155,-1,-1,-1,157,159,-1,-1,161,163,165,167,-1,-1,169,171,173,175,-1,177,-1,-1,179,-1,-1,181,183,185,187,189,191,193,-1,-1,-1,-1,-1,-1,-1,-1,-1,-1,-1,-1,-1,-1,-1,-1,-1,-1,-1,-1,-1,-1,-1,-1,-1,-1,-1,-1,-1,-1,-1,-1,-1,-1,-1,-1,-1,-1,-1,-1],"loss_changes":[1.442E3,1.238E3,4.09E2,5.8E2,7.8E2,5.91E2,1.303125E2,1.3475E2,5.05E2,2.84375E2,5.83E2,3.965625E2,0E0,0E0,4.890625E0,0E0,9.225E1,3.78E2,2.355E2,0E0,4.01125E2,4.52E2,4.175E2,0E0,0E0,0E0,0E0,0E0,5.85E1,2.84E2,3.625E0,0E0,1.3225E2,3.848125E2,2.878125E2,3.08125E2,2.855E2,2.015E2,3.295E2,6.825E1,0E0,2.0125E1,3.48E2,0E0,0E0,0E0,0E0,7.490625E1,2.024375E2,1.12078125E2,1.610625E2,2.27875E2,0E0,0E0,2.61E2,1.105625E2,1.544375E2,7.55E1,3.55E1,2.45E1,3.325E1,1.8546875E1,4.2125E1,1.74E2,2.88E2,1.3783594E2,2.890625E0,7.0625E0,0E0,0E0,0E0,0E0,6.1625E1,1.4625E2,3.83125E1,1.6359375E1,1.43E2,8.2375E1,0E0,1.240625E2,0E0,1.0275E2,1.295E2,3.046875E1,0E0,0E0,7.875E0,0E0,7.125E0,0E0,0E0,5.2E1,5.3109375E1,0E0,1.635E2,0E0,1.295E2,0E0,0E0,0E0,1.246875E1,0E0,0E0,4.19375E1,0E0,8.9625E1,0E0,0E0,0E0,0E0,0E0,1.285E2,5.0492188E1,0E0,4.2875E1,8.56875E1,0E0,0E0,3.325E1,7.35625E1,1.151875E2,0E0,0E0,1.175E1,0E0,0E0,0E0,1.389375E2,8.1E1,0E0,0E0,1.6575E2,1.5875E2,1.295E2,4.8875E1,0E0,0E0,2.040625E1,1.9421875E1,1.11E2,5.2671875E1,0E0,8.7E1,0E0,0E0,1.1546875E2,0E0,0E0,1.0375E2,5.225E1,9.975E1,1.81875E1,2.171875E1,6.46875E1,1.0184375E2,0E0,0E0,0E0,0E0,0E0,0E0,0E0,0E0,0E0,0E0,0E0,0E0,0E0,0E0,0E0,0E0,0E0,0E0,0E0,0E0,0E0,0E0,0E0,0E0,0E0,0E0,0E0,0E0,0E0,0E0,0E0,0E0,0E0,0E0,0E0,0E0,0E0,0E0,0E0,0E0],"parents":[2147483647,0,0,1,1,2,2,3,3,4,4,5,5,6,6,7,7,8,8,9,9,10,10,11,11,14,14,16,16,17,17,18,18,20,20,21,21,22,22,28,28,29,29,30,30,32,32,33,33,34,34,35,35,36,36,37,37,38,38,39,39,41,41,42,42,47,47,48,48,49,49,50,50,51,51,54,54,55,55,56,56,57,57,58,58,59,59,60,60,61,61,62,62,63,63,64,64,65,65,66,66,67,67,72,72,73,73,74,74,75,75,76,76,77,77,79,79,81,81,82,82,83,83,86,86,88,88,91,91,92,92,94,94,96,96,100,100,103,103,105,105,111,111,112,112,114,114,115,115,118,118,119,119,120,120,123,123,127,127,128,128,131,131,132,132,133,133,134,134,137,137,138,138,139,139,140,140,142,142,145,145,148,148,149,149,150,150,151,151,152,152,153,153,154,154],"right_children":[2,4,6,8,10,12,14,16,18,20,22,24,-1,-1,26,-1,28,30,32,-1,34,36,38,-1,-1,-1,-1,-1,40,42,44,-1,46,48,50,52,54,56,58,60,-1,62,64,-1,-1,-1,-1,66,68,70,72,74,-1,-1,76,78,80,82,84,86,88,90,92,94,96,98,100,102,-1,-1,-1,-1,104,106,108,110,112,114,-1,116,-1,118,120,122,-1,-1,124,-1,126,-1,-1,128,130,-1,132,-1,134,-1,-1,-1,136,-1,-1,138,-1,140,-1,-1,-1,-1,-1,142,144,-1,146,148,-1,-1,150,152,154,-1,-1,156,-1,-1,-1,158,160,-1,-1,162,164,166,168,-1,-1,170,172,174,176,-1,178,-1,-1,180,-1,-1,182,184,186,188,190,192,194,-1,-1,-1,-1,-1,-1,-1,-1,-1,-1,-1,-1,-1,-1,-1,-1,-1,-1,-1,-1,-1,-1,-1,-1,-1,-1,-1,-1,-1,-1,-1,-1,-1,-1,-1,-1,-1,-1,-1,-1],"split_conditions":[4.75E1,1.5E0,2.35E1,7.5E0,3.55E2,1.45E1,1.15E1,1.5E0,2.85E1,4E1,5E-1,5.5E0,2.3980659E-1,2.2926526E-1,2.45E1,2.2026657E-1,2.85E2,2.759E4,1.35E1,2.1802679E-1,5E-1,1.615E3,1.15E1,2.3676008E-1,2.2645774E-1,2.162352E-1,2.2410831E-1,2.3090266E-1,2.759E4,2.85E2,8.21E2,2.2246529E-1,7.5E0,1.9E2,7.5E0,1.112E3,1.855E3,3.5E0,1.449E4,5E-1,2.1376753E-1,1.39E2,5E-1,2.1254843E-1,2.0236966E-1,2.3233347E-1,2.2523446E-1,8E1,8.67E2,2.0085E3,6E1,1.525E3,2.5833225E-1,2.1456021E-1,1.915E3,1.207E4,2.0075E3,7.375E2,6E0,3.05E2,2.95E2,7.5E0,3.65E1,3.05E2,2.95E2,2.014E3,5.725E2,1.5E0,2.2293204E-1,2.1499307E-1,2.3030393E-1,2.515433E-1,5E0,2.0145E3,6.425E2,3.55E2,2.0145E3,1.79E2,2.1108137E-1,1.965E4,2.28921E-1,3.75E2,2.5E0,6.64E2,2.1945643E-1,2.1347539E-1,1.5E0,2.0878136E-1,1.5E0,2.3353997E-1,2.1920943E-1,3.385E2,2E0,2.1002477E-1,1.5E0,2.0335263E-1,3.65E1,2.4808693E-1,2.2876352E-1,2.2410287E-1,2E0,2.4847099E-1,2.3948662E-1,2E0,2.3542306E-1,1.425E3,2.4966991E-1,2.3850964E-1,2.5543618E-1,2.270013E-1,2.4067429E-1,7.5E0,4.86E3,2.292996E-1,3.765E3,6.65E1,2.396397E-1,2.1254691E-1,4.375E2,9.215E2,2.0045E3,2.3789342E-1,2.2969097E-1,4.05E2,2.3068576E-1,2.3359828E-1,2.2520804E-1,3.15E2,1.15E1,2.3609811E-1,2.2444852E-1,4.05E2,2.5E0,3.97E3,1.063E3,2.294181E-1,2.4199149E-1,1.9E2,7.82E2,1.17E3,3.895E2,2.3003553E-1,2.85E1,2.2564901E-1,2.1291292E-1,8.505E2,2.2376516E-1,2.3659834E-1,9.5E0,3.3E1,4.86E2,3E1,1.0895E3,1.6E1,3.55E1,2.3713888E-1,2.2699292E-1,2.2603796E-1,2.4466707E-1,2.2476943E-1,2.3840214E-1,2.3281218E-1,2.2272652E-1,2.3596416E-1,2.2566459E-1,2.190748E-1,2.2280644E-1,2.2288823E-1,2.31165E-1,2.2586817E-1,2.3315518E-1,2.1905829E-1,2.2882356E-1,2.2957116E-1,2.3631951E-1,2.3252268E-1,2.2007607E-1,2.2610773E-1,2.307984E-1,2.1986504E-1,2.0999089E-1,2.2252215E-1,2.1380909E-1,2.2461347E-1,2.2858758E-1,2.1687637E-1,2.2454596E-1,2.3002376E-1,2.3819527E-1,2.2866516E-1,2.1618286E-1,2.1214637E-1,2.2342509E-1,2.3128286E-1,2.2101015E-1],"split_indices":[16,6,15,15,7,15,14,16,15,7,10,15,0,0,15,0,7,7,16,0,10,7,11,0,0,0,0,0,7,7,0,0,14,7,11,0,7,5,7,10,0,0,10,0,0,0,0,7,0,9,7,7,0,0,7,7,9,0,8,7,7,11,11,7,7,9,0,5,0,0,0,0,8,9,0,0,9,0,0,7,0,7,5,0,0,0,5,0,14,0,0,0,5,0,5,0,11,0,0,0,5,0,0,5,0,7,0,0,0,0,0,15,7,0,7,0,0,0,0,0,9,0,0,7,0,0,0,0,8,0,0,7,5,7,0,0,0,7,0,7,0,0,15,0,0,0,0,0,8,11,0,11,0,11,11,0,0,0,0,0,0,0,0,0,0,0,0,0,0,0,0,0,0,0,0,0,0,0,0,0,0,0,0,0,0,0,0,0,0,0,0,0,0,0,0],"split_type":[0,0,0,0,0,0,0,0,0,0,0,0,0,0,0,0,0,0,0,0,0,0,0,0,0,0,0,0,0,0,0,0,0,0,0,0,0,0,0,0,0,0,0,0,0,0,0,0,0,0,0,0,0,0,0,0,0,0,0,0,0,0,0,0,0,0,0,0,0,0,0,0,0,0,0,0,0,0,0,0,0,0,0,0,0,0,0,0,0,0,0,0,0,0,0,0,0,0,0,0,0,0,0,0,0,0,0,0,0,0,0,0,0,0,0,0,0,0,0,0,0,0,0,0,0,0,0,0,0,0,0,0,0,0,0,0,0,0,0,0,0,0,0,0,0,0,0,0,0,0,0,0,0,0,0,0,0,0,0,0,0,0,0,0,0,0,0,0,0,0,0,0,0,0,0,0,0,0,0,0,0,0,0,0,0,0,0,0,0,0,0,0,0,0,0],"sum_hessian":[5.69881E5,5.30749E5,3.9132E4,2.80037E5,2.50712E5,2.7091E4,1.2041E4,6.2152E4,2.17885E5,2.91E4,2.21612E5,1.6632E4,1.0459E4,8.433E3,3.608E3,3.643E3,5.8509E4,1.95706E5,2.2179E4,1.501E3,2.7599E4,1.12099E5,1.09513E5,6.097E3,1.0535E4,1.409E3,2.199E3,9.059E3,4.945E4,1.93656E5,2.05E3,6.173E3,1.6006E4,1.1335E4,1.6264E4,2.3597E4,8.8502E4,3.4254E4,7.5259E4,4.8837E4,6.13E2,3.0136E4,1.6352E5,1.373E3,6.77E2,1.1078E4,4.928E3,6.336E3,4.999E3,2.887E3,1.3377E4,2.3126E4,4.71E2,1.903E3,8.6599E4,1.6408E4,1.7846E4,6.9618E4,5.641E3,2.472E4,2.4117E4,2.713E3,2.7423E4,8.2064E4,8.1456E4,1.937E3,4.399E3,4.511E3,4.88E2,1.94E3,9.47E2,4.77E2,1.29E4,2.1663E4,1.463E3,2.437E3,8.4162E4,1.4491E4,1.917E3,1.1524E4,6.322E3,4.6442E4,2.3176E4,5.251E3,3.9E2,3.3E2,2.439E4,2.91E2,2.3826E4,3.69E2,2.344E3,2.4302E4,3.121E3,1.034E3,8.103E4,9.66E2,8.049E4,9.79E2,9.58E2,1.466E3,2.933E3,3.415E3,1.096E3,9.284E3,3.616E3,2.1163E4,5E2,9.66E2,4.97E2,4.73E2,1.964E3,8.1819E4,2.343E3,1.4E3,1.3091E4,1.1025E4,4.99E2,9.37E2,4.5505E4,9.723E3,1.3453E4,3.296E3,1.955E3,1.5924E4,8.466E3,8.43E2,2.2983E4,2.402E3,2.19E4,1.885E3,1.236E3,5.2952E4,2.8078E4,5.3799E4,2.6691E4,2.441E3,4.92E2,6.438E3,2.846E3,1.821E4,2.953E3,1.8182E4,6.3637E4,1.004E3,1.339E3,9.677E3,3.414E3,5.11E2,1.0514E4,2.6279E4,1.9226E4,4.321E3,5.402E3,6.564E3,6.889E3,6.29E2,1.5295E4,1.655E3,7.47E2,2.1215E4,6.85E2,2.032E3,5.092E4,1.966E3,2.6112E4,3.6174E4,1.7625E4,2.5244E4,1.447E3,1.927E3,4.511E3,1.356E3,1.49E3,1.375E4,4.46E3,9.09E2,2.044E3,5.7061E4,6.576E3,7.735E3,1.942E3,8.082E3,2.432E3,1.621E4,1.0069E4,2.775E3,1.6451E4,1.934E3,2.387E3,4.898E3,5.04E2,9.94E2,5.57E3,5.018E3,1.871E3],"tree_param":{"num_deleted":"0","num_feature":"20","num_nodes":"195","size_leaf_vector":"0"}},{"base_weights":[7.3102527E0,7.1646852E0,7.490524E0,7.1043887E0,7.231809E0,7.4784255E0,7.7004237E0,7.11134E0,6.693195E0,7.2777224E0,7.126178E0,7.4146113E0,7.5095963E0,7.6272874E0,7.771365E0,7.0621495E0,7.1612835E0,6.7900453E0,6.4788456E0,7.4836984E0,7.253482E0,7.0959077E0,7.266972E0,7.5486145E0,7.3927355E0,7.4636707E0,7.565527E0,7.022353E0,7.20434E0,7.1153164E0,7.2256227E0,6.900226E0,7.5338717E0,7.250315E0,8.314535E0,7.0584054E0,7.2550054E0,7.5129023E0,7.8075886E0,7.35946E0,7.4789557E0,7.4692583E0,7.0922947E0,7.749586E0,7.5447803E0,7.191643E0,6.983932E0,7.2389903E0,6.9523673E0,7.1335692E0,6.95053E0,6.99033E0,7.244922E0,7.427338E0,7.6586E0,7.2372675E0,7.434588E0,7.0468636E0,7.424323E0,7.285514E0,6.502478E0,6.9222574E0,7.522985E0,7.413143E0,7.2860427E0,7.4858713E0,6.8828125E0,7.576863E0,7.456032E0,7.2387643E0,7.7957973E0,7.5416694E0,8.369495E0,7.275864E0,7.0616536E0,6.200814E0,6.9922647E0,6.7687073E0,7.146178E0,7.104112E0,7.225604E0,6.371635E0,7.0228224E0,7.0741053E0,6.6927667E0,7.3511853E0,7.22073E0,7.7832074E0,7.329547E0,7.360461E0,7.8186355E0,7.6043787E0,7.2311115E0,7.4731665E0,6.884122E0,6.988515E0,7.113891E0,7.1824875E0,7.7380753E0,6.5531297E0,7.315647E0,7.25922E0,7.4288316E0,7.279265E0,7.844019E0,6.939563E0,7.491325E0,7.487994E0,7.6660476E0,7.4261484E0,7.5135794E0,7.6897955E0,7.9415054E0,7.5265718E0,7.6294966E0,7.0884604E0,7.374562E0,7.0315237E0,7.5251503E0,6.9436603E0,7.07542E0,7.178111E0,7.035631E0,7.1892543E0,7.829942E0,6.7010756E0,7.067617E0,7.582484E0,7.3072343E0,7.155705E0,7.2798448E0,8.00035E0,7.089993E0,7.212437E0,7.455654E0,7.648898E0,7.2141266E0,7.8865895E0,7.1502852E0,7.856338E0,7.341276E0,7.2223797E0,7.3518496E0,6.9408493E0,7.071872E0,7.3645263E0,7.0518475E0,7.7215357E0,7.1898923E0,7.205471E0,7.3236356E0,7.219426E0,7.7120047E0,7.4316587E0,7.1674986E0,7.9926815E0,7.465735E0,7.5485315E0,7.465692E0,7.6104755E0,7.2931437E0,6.5781417E0,7.0547633E0,7.267729E0,6.932692E0,7.169395E0,7.0145717E0,7.1458173E0,7.484189E0,6.639439E0,7.049719E0,7.0283046E0,7.2293787E0,7.437528E0,6.138371E0,7.1748314E0,7.453269E0,7.033785E0,7.286164E0,7.47221E0,7.151839E0,6.6760893E0,7.2241006E0,6.9925632E0,6.796623E0,7.4392214E0,7.0096087E0,6.8660555E0,7.7071795E0,6.6078963E0,7.2294364E0,7.413715E0,7.532351E0,7.616955E0,8.077192E0,7.17504E0,7.507805E0,6.7982907E0,7.3961596E0,6.726746E0,6.9480457E0,7.6628947E0,7.149824E0,6.827308E0,7.0640683E0,7.192803E0,6.734739E0,7.640854E0,6.8628187E0,7.147505E0,6.9853363E0,7.632692E0,7.1952553E0,7.1495776E0,6.6512427E0,7.503266E0,7.1080203E0,7.6735115E0,7.1944733E0,6.524546E0,7.19886E0,7.2794576E0,7.2091174E0,6.978279E0,7.5211906E0,6.73111E0,7.1748257E0,7.598732E0,7.3777175E0],"categories":[],"categories_nodes":[],"categories_segments":[],"categories_sizes":[],"default_left":[1,1,1,1,1,1,1,1,1,1,1,1,1,0,0,1,1,0,0,1,1,1,0,1,1,1,1,1,1,1,1,0,1,1,0,1,1,1,0,1,1,1,0,1,1,1,1,0,1,1,1,1,1,1,1,1,1,1,1,1,0,0,0,1,1,1,0,1,1,0,1,1,0,1,1,0,1,0,0,1,1,0,1,0,0,1,1,1,1,1,1,1,1,0,0,1,0,0,0,0,1,1,0,1,0,0,0,0,1,1,0,0,1,1,0,0,1,1,0,1,1,1,1,1,0,1,0,0,1,1,1,0,0,0,0,0,0,0,0,0,0,1,0,1,1,0,1,0,1,0,0,0,0,1,0,1,0,0,0,0,1,0,0,1,1,1,1,1,1,0,1,0,1,0,0,0,0,1,1,1,1,0,1,1,1,0,0,0,0,0,0,0,1,0,0,0,0,0,0,0,0,0,0,0,0,0,0,0,0,0,0,0,0,0,0,0,0,0,0,0,0,0,0,0,0,0,0,0,0],"id":4,"left_children":[1,3,5,7,9,11,13,15,17,19,21,23,25,-1,-1,27,29,-1,-1,31,33,35,-1,37,39,41,43,45,47,49,51,-1,53,55,-1,57,59,61,-1,63,65,67,-1,69,71,73,75,-1,77,79,81,83,85,87,89,91,93,95,97,99,-1,-1,-1,101,103,105,-1,107,109,-1,111,113,-1,115,117,-1,119,-1,-1,121,123,-1,125,-1,-1,127,129,131,133,135,137,139,141,-1,-1,143,-1,-1,-1,-1,145,147,-1,149,-1,-1,-1,-1,151,153,-1,-1,155,157,-1,-1,159,161,-1,163,165,167,169,171,-1,173,-1,-1,175,177,179,-1,-1,-1,-1,-1,-1,-1,-1,-1,-1,181,-1,183,185,-1,187,-1,189,-1,-1,-1,-1,191,-1,193,-1,-1,-1,-1,195,-1,-1,197,199,201,203,205,207,-1,209,-1,211,-1,-1,-1,-1,213,215,217,219,-1,221,223,225,-1,-1,-1,-1,-1,-1,-1,227,-1,-1,-1,-1,-1,-1,-1,-1,-1,-1,-1,-1,-1,-1,-1,-1,-1,-1,-1,-1,-1,-1,-1,-1,-1,-1,-1,-1,-1,-1,-1,-1,-1,-1,-1,-1],"loss_changes":[1.4904E4,1.226E3,5.89E2,4.27E2,6.72E2,4.24E2,1.25E1,3.515E2,1.37265625E1,4.64E2,1.415E2,1.76E2,3.59E2,0E0,0E0,4.155E2,1.88E2,0E0,0E0,2.675E2,2.525E2,1.7125E2,0E0,4.35625E1,1.4025E2,1.315E2,2.1975E2,3.6875E2,1.06625E2,9.275E1,1.025E2,0E0,7.65E1,1.69E2,0E0,7.525E1,1.1509375E2,5.9375E0,0E0,1.3975E2,2.65E1,6.85E1,0E0,1.1690625E2,1.0475E2,7.86875E1,2.995E2,0E0,2.990625E1,6.4E1,1.5435938E2,1.7039062E1,2.6875E1,1.325E2,1.615625E2,1.41E2,7.80625E1,6.4875E1,1.30859375E1,1.0190625E2,0E0,0E0,0E0,1.45E1,2.1625E1,3.5E0,0E0,1.80625E1,7.8E1,0E0,4.265625E1,2.9E1,0E0,8.05E1,1.2796875E1,0E0,1.61E2,0E0,0E0,1.1325E2,1.691875E2,0E0,1.346875E1,0E0,0E0,2.6875E0,4.5625E1,1.1758594E2,9.59375E0,1.32421875E1,7.859375E1,3.5804688E1,3.65E1,0E0,0E0,1.3375E1,0E0,0E0,0E0,0E0,3.209375E1,2.9890625E1,0E0,1.4625E1,0E0,0E0,0E0,0E0,4.096875E1,2.025E1,0E0,0E0,8.484375E0,1.8E1,0E0,0E0,3.4328125E1,2.96875E-1,0E0,6.65E1,5.90625E1,9.95E1,4.70625E1,1.171875E1,0E0,1.7605273E2,0E0,0E0,3.9921875E1,1.420625E2,2.7275E2,0E0,0E0,0E0,0E0,0E0,0E0,0E0,0E0,0E0,0E0,2.675E1,0E0,2.75E1,7.746875E1,0E0,7.3953125E1,0E0,5.8984375E0,0E0,0E0,0E0,0E0,3.525E1,0E0,1.828125E1,0E0,0E0,0E0,0E0,3.4890625E1,0E0,0E0,1.3328125E1,5.375E1,1.7375E1,5.975E1,2.22375E2,8.9296875E1,0E0,5.23125E1,0E0,5.140625E1,0E0,0E0,0E0,0E0,2.3203125E2,1.7265625E2,2.395E2,1.88375E2,0E0,1.325E1,3.15625E0,1.8359375E1,0E0,0E0,0E0,0E0,0E0,0E0,0E0,2.14375E1,0E0,0E0,0E0,0E0,0E0,0E0,0E0,0E0,0E0,0E0,0E0,0E0,0E0,0E0,0E0,0E0,0E0,0E0,0E0,0E0,0E0,0E0,0E0,0E0,0E0,0E0,0E0,0E0,0E0,0E0,0E0,0E0,0E0,0E0,0E0,0E0],"parents":[2147483647,0,0,1,1,2,2,3,3,4,4,5,5,6,6,7,7,8,8,9,9,10,10,11,11,12,12,15,15,16,16,19,19,20,20,21,21,23,23,24,24,25,25,26,26,27,27,28,28,29,29,30,30,32,32,33,33,35,35,36,36,37,37,39,39,40,40,41,41,43,43,44,44,45,45,46,46,48,48,49,49,50,50,51,51,52,52,53,53,54,54,55,55,56,56,57,57,58,58,59,59,63,63,64,64,65,65,67,67,68,68,70,70,71,71,73,73,74,74,76,76,79,79,80,80,82,82,85,85,86,86,87,87,88,88,89,89,90,90,91,91,92,92,95,95,100,100,101,101,103,103,108,108,109,109,112,112,113,113,116,116,117,117,119,119,120,120,121,121,122,122,123,123,125,125,128,128,129,129,130,130,141,141,143,143,144,144,146,146,148,148,153,153,155,155,160,160,163,163,164,164,165,165,166,166,167,167,168,168,170,170,172,172,177,177,178,178,179,179,180,180,182,182,183,183,184,184,192,192],"right_children":[2,4,6,8,10,12,14,16,18,20,22,24,26,-1,-1,28,30,-1,-1,32,34,36,-1,38,40,42,44,46,48,50,52,-1,54,56,-1,58,60,62,-1,64,66,68,-1,70,72,74,76,-1,78,80,82,84,86,88,90,92,94,96,98,100,-1,-1,-1,102,104,106,-1,108,110,-1,112,114,-1,116,118,-1,120,-1,-1,122,124,-1,126,-1,-1,128,130,132,134,136,138,140,142,-1,-1,144,-1,-1,-1,-1,146,148,-1,150,-1,-1,-1,-1,152,154,-1,-1,156,158,-1,-1,160,162,-1,164,166,168,170,172,-1,174,-1,-1,176,178,180,-1,-1,-1,-1,-1,-1,-1,-1,-1,-1,182,-1,184,186,-1,188,-1,190,-1,-1,-1,-1,192,-1,194,-1,-1,-1,-1,196,-1,-1,198,200,202,204,206,208,-1,210,-1,212,-1,-1,-1,-1,214,216,218,220,-1,222,224,226,-1,-1,-1,-1,-1,-1,-1,228,-1,-1,-1,-1,-1,-1,-1,-1,-1,-1,-1,-1,-1,-1,-1,-1,-1,-1,-1,-1,-1,-1,-1,-1,-1,-1,-1,-1,-1,-1,-1,-1,-1,-1,-1,-1],"split_conditions":[5E-1,1.5E0,1.15E1,2.561E4,2.0115E3,3.5875E1,1.05E1,7.1125E1,8.21E2,3.55E2,2.0115E3,2.8E2,1.5E0,2.2881861E-1,2.3314095E-1,2.0135E3,2.0085E3,2.0370135E-1,1.9436537E-1,4E1,1.1135E3,2.0135E3,2.1800916E-1,3.8E1,2.0135E3,2.759E4,3.55E2,2.85E2,2.0145E3,1.4435E4,6.75E1,2.0700678E-1,1.85E2,1.15E1,2.4943605E-1,4.65E1,2.113E4,1E1,2.3422766E-1,2.0125E3,2.563E4,2.35E2,2.1276884E-1,4E1,1.1135E3,7.165E2,3E2,2.171697E-1,1.6E1,3.335E3,1.5E4,4.65E1,2.0095E3,5.5E1,5.1625E1,2.5E0,3.05E1,1.7125E1,6.545E2,5.5E0,1.9507433E-1,2.0766772E-1,2.2568955E-1,3E0,1.982E4,2.95E2,2.0648438E-1,2.0055E3,3.775E3,2.1716292E-1,1.85E2,2.65E1,2.5108486E-1,3.15E2,2.65E2,1.8602441E-1,3.765E3,2.0306121E-1,2.1438533E-1,8.55E2,1.019E3,1.9114904E-1,4.705E2,2.1222316E-1,2.00783E-1,6.2E2,2.0125E3,2.014E3,2.008E3,2.95E2,8.67E2,1.135E3,2.85E1,2.2419499E-1,2.0652366E-1,2.95E1,2.1341673E-1,2.1547462E-1,2.3214225E-1,1.9659388E-1,8.17E3,4.8E1,2.2286494E-1,2.0135E3,2.3532057E-1,2.0818688E-1,2.2473975E-1,2.2463982E-1,3.5E1,3.595E3,2.2540738E-1,2.3069386E-1,8.67E2,1.85E1,2.2888489E-1,2.1265382E-1,2.0105E3,5E1,2.257545E-1,3.25E2,2.0005E3,7.25E2,9.55E2,1.95E2,2.3489825E-1,2.035E2,2.120285E-1,2.2747451E-1,1.665E3,6.04E2,1.455E3,2.400105E-1,2.1269979E-1,2.1637312E-1,2.2366962E-1,2.2946694E-1,2.164238E-1,2.3659769E-1,2.1450855E-1,2.3569013E-1,2.2023828E-1,3.65E2,2.2055548E-1,7.425E2,4.8E2,2.2093578E-1,1.4695E4,2.3164606E-1,3.4E2,2.1616413E-1,2.1970907E-1,2.1658278E-1,2.3136014E-1,2.0125E3,2.1502495E-1,5.05E1,2.2397204E-1,2.2645594E-1,2.2397076E-1,2.2831427E-1,2.0125E3,1.9734424E-1,2.1164289E-1,1.255E2,4.15E2,4.115E3,2.0035E3,5.85E2,9.435E2,1.9918317E-1,2.001E3,2.1084914E-1,2.615E2,2.2312585E-1,1.8415113E-1,2.1524493E-1,2.2359806E-1,5.16E2,2.0115E3,5.795E2,1.655E3,2.0028268E-1,1.615E3,1.9765E4,1.8E1,2.2317664E-1,2.1028826E-1,2.0598166E-1,2.3121539E-1,1.9823688E-1,2.168831E-1,2.2241144E-1,7.65E2,2.2850864E-1,2.4231577E-1,2.1525119E-1,2.2523414E-1,2.0394872E-1,2.2188479E-1,2.0180237E-1,2.0844136E-1,2.2988683E-1,2.1449472E-1,2.0481925E-1,2.1192205E-1,2.1578409E-1,2.0204216E-1,2.292256E-1,2.0588456E-1,2.1442515E-1,2.0956008E-1,2.2898075E-1,2.1585765E-1,2.1448733E-1,1.9953728E-1,2.2509797E-1,2.1324061E-1,2.3020534E-1,2.158342E-1,1.9573638E-1,2.159658E-1,2.1838373E-1,2.1627352E-1,2.0934837E-1,2.256357E-1,2.019333E-1,2.1524477E-1,2.2796196E-1,2.2133152E-1],"split_indices":[2,6,14,7,12,18,15,18,0,7,9,7,6,0,0,12,9,0,0,7,0,12,0,11,12,7,7,7,12,7,0,0,7,14,0,11,7,7,0,12,7,7,0,7,0,0,7,0,11,7,7,0,9,7,18,6,15,18,0,11,0,0,0,11,7,7,0,9,7,0,7,15,0,0,7,0,7,0,0,7,0,0,0,0,0,7,9,9,9,7,0,7,15,0,0,11,0,0,0,0,7,0,0,13,0,0,0,0,7,7,0,0,0,15,0,0,12,7,0,7,9,7,7,0,0,0,0,0,7,0,7,0,0,0,0,0,0,0,0,0,0,7,0,0,7,0,7,0,7,0,0,0,0,9,0,18,0,0,0,0,12,0,0,0,7,7,9,7,0,0,9,0,0,0,0,0,0,0,9,0,7,0,7,7,11,0,0,0,0,0,0,0,0,0,0,0,0,0,0,0,0,0,0,0,0,0,0,0,0,0,0,0,0,0,0,0,0,0,0,0,0,0,0,0,0,0,0,0,0],"split_type":[0,0,0,0,0,0,0,0,0,0,0,0,0,0,0,0,0,0,0,0,0,0,0,0,0,0,0,0,0,0,0,0,0,0,0,0,0,0,0,0,0,0,0,0,0,0,0,0,0,0,0,0,0,0,0,0,0,0,0,0,0,0,0,0,0,0,0,0,0,0,0,0,0,0,0,0,0,0,0,0,0,0,0,0,0,0,0,0,0,0,0,0,0,0,0,0,0,0,0,0,0,0,0,0,0,0,0,0,0,0,0,0,0,0,0,0,0,0,0,0,0,0,0,0,0,0,0,0,0,0,0,0,0,0,0,0,0,0,0,0,0,0,0,0,0,0,0,0,0,0,0,0,0,0,0,0,0,0,0,0,0,0,0,0,0,0,0,0,0,0,0,0,0,0,0,0,0,0,0,0,0,0,0,0,0,0,0,0,0,0,0,0,0,0,0,0,0,0,0,0,0,0,0,0,0,0,0,0,0,0,0,0,0,0,0,0,0,0,0,0,0,0,0,0,0,0,0,0,0],"sum_hessian":[5.70017E5,3.15386E5,2.54631E5,1.66199E5,1.49187E5,2.40789E5,1.3842E4,1.6342E5,2.779E3,1.03941E5,4.5246E4,7.9097E4,1.61692E5,6.869E3,6.973E3,8.2402E4,8.1018E4,1.893E3,8.86E2,1.0912E4,9.3029E4,3.7282E4,7.964E3,1.1052E4,6.8045E4,8.8861E4,7.2831E4,6.4422E4,1.798E4,4.7321E4,3.3697E4,8.75E2,1.0037E4,9.276E4,2.69E2,3.0207E4,7.075E3,9.739E3,1.313E3,4.9159E4,1.8886E4,8.7525E4,1.336E3,7.34E3,6.5491E4,1.1882E4,5.254E4,1.5782E4,2.198E3,4.2564E4,4.757E3,2.582E3,3.1115E4,5.446E3,4.591E3,8.6664E4,6.096E3,2.9303E4,9.04E2,6.791E3,2.84E2,1.75E2,9.564E3,2.8338E4,2.0821E4,1.8658E4,2.28E2,9.518E3,7.8007E4,6.22E2,6.718E3,6.5255E4,2.36E2,7.177E3,4.705E3,5.61E2,5.1979E4,1.147E3,1.051E3,3.2303E4,1.0261E4,5.38E2,4.219E3,1.997E3,5.85E2,5.714E3,2.5401E4,1.157E3,4.289E3,1.62E3,2.971E3,1.409E3,8.5255E4,5.685E3,4.11E2,1.5722E4,1.3581E4,5.24E2,3.8E2,2.77E2,6.514E3,2.664E3,2.5674E4,2.0585E4,2.36E2,1.97E2,1.8461E4,4.81E3,4.708E3,5.143E4,2.6577E4,3.92E3,2.798E3,5.5757E4,9.498E3,2.501E3,4.676E3,4.433E3,2.72E2,3.2858E4,1.9121E4,1.5476E4,1.6827E4,9.691E3,5.7E2,5.34E2,3.685E3,8.85E2,4.829E3,1.2154E4,1.3247E4,8.73E2,2.84E2,2.254E3,2.035E3,5.28E2,1.092E3,2.687E3,2.84E2,7.05E2,7.04E2,7.9562E4,5.693E3,1.0056E4,5.666E3,5.473E3,1.041E3,3.33E2,2.331E3,7.791E3,1.2794E4,4.54E2,4.254E3,5.033E4,1.1E3,2.512E3,2.86E2,4.0886E4,1.4871E4,1.176E3,3.5E3,2.3E2,4.203E3,1.054E3,3.1804E4,7.469E3,1.1652E4,1.4021E4,1.455E3,5.94E2,1.6233E4,1.969E3,7.722E3,2.26E2,3.08E2,2.559E3,2.27E3,6.311E3,5.843E3,5.27E3,7.977E3,2.62E2,7.93E4,7.367E3,2.689E3,8.04E2,4.862E3,8.2E2,2.21E2,1.59E2,2.172E3,4.2781E4,7.549E3,4.78E2,2.034E3,2.28E3,1.22E3,2.38E2,8.16E2,2.237E3,2.9567E4,2.7E2,7.199E3,2.465E3,9.187E3,1.2568E4,1.453E3,1.153E3,3.02E2,6.401E3,9.832E3,5.85E2,7.137E3,4.831E3,1.48E3,2.615E3,3.228E3,3.04E3,2.23E3,5.66E2,7.411E3,1.6788E4,6.2512E4,7.187E3,1.8E2,2.308E3,3.81E2,5.248E3,2.301E3],"tree_param":{"num_deleted":"0","num_feature":"20","num_nodes":"229","size_leaf_vector":"0"}}]},"name":"gbtree"},"learner_model_param":{"base_score":"5E-1","boost_from_average":"1","num_class":"0","num_feature":"20","num_target":"1"},"objective":{"name":"reg:squarederror","reg_loss_param":{"scale_pos_weight":"1"}}},"version":[1,7,3]}