{"learner":{"attributes":{"best_iteration":"9","best_ntree_limit":"10","best_score":"1.623627"},"feature_names":[],"feature_types":[],"gradient_booster":{"model":{"gbtree_model_param":{"num_trees":"70","size_leaf_vector":"0"},"tree_info":[0,1,2,3,4,5,6,0,1,2,3,4,5,6,0,1,2,3,4,5,6,0,1,2,3,4,5,6,0,1,2,3,4,5,6,0,1,2,3,4,5,6,0,1,2,3,4,5,6,0,1,2,3,4,5,6,0,1,2,3,4,5,6,0,1,2,3,4,5,6],"trees":[{"base_weights":[-6.2118385E-2,-1.3271211E-1,2.616872E-1,-8.19547E-2,-4.9043414E-1,1.8641119E-1,1.4544384E0,-2.7930158E-1,-1.4622728E-2,-4.0480998E-1,-5.509335E-1,1.5398291E0,1.0951154E-1,-5.821418E-1,2.2214744E0,2.1405414E-1,-3.4536487E-1,1.5251964E-1,-8.714606E-2,-5.6288576E-1,-3.1773278E-1,-5.603233E-1,-4.005017E-1,3.4682558E0,4.4425306E-1,-4.37357E-2,2.781261E-1,2.9297323E0,-4.1441575E-1,6.853092E-1,-2.6172286E-1,-4.1836554E-1,3.157961E-2,7.0854366E-2,3.8717023E-1,-4.0222682E-2,-3.502605E-1,-5.7761395E-1,-5.4072815E-1,-2.074222E-2,-4.0180156E-1,-5.723458E-1,-5.1611507E-1,-4.377069E-3,-5.110095E-1,1.5773327E0,-2.3963413E-1,-9.343058E-2,1.0729909E0,5.6548834E-1,-7.912387E-2,1.8556744E0,3.4442537E0,-4.5097724E-1,6.2001604E-3,-4.089836E-1,3.426092E0,-5.088189E-1,1.138177E0,-1.9750626E-1,-4.4154972E-1,2.332628E-1,-5.7913995E-1,1.5889648E-1,-3.4735164E-1,4.6312648E-1,-5.215645E-1,-4.8880374E-1,-5.578288E-3,-3.9646435E-1,2.9694784E-1,-5.198668E-1,-5.816036E-1,1.6293892E-1,-5.770385E-1,-3.6343256E-1,-5.2394754E-1,-5.6316316E-1,-5.831608E-1,-4.5453995E-1,-5.76873E-1,2.1729487E-1,-2.1708727E-1,-2.0296115E-1,-5.3340256E-1,2.0999513E0,-5.7526124E-1,-5.5816853E-1,2.2885823E0,-4.7602158E-2,-5.1796484E-1,5.581993E-1,1.3735448E0,4.72281E-1,1.719887E0,-5.66738E-1,1.4345504E-1,2.2264278E0,9.185923E-1,-4.7778848E-1,-1.4405988E-1,5.241264E-1,-5.337955E-1,-1.8857698E-1,-4.6134484E-1,-5.5747867E-1,-3.1979924E-1,5.0850075E-1,1.8472999E0,5.7206776E-2,-5.343394E-1,-4.8479253E-1,-3.62663E-1,8.040973E-1,-3.0860929E-2,-3.229051E-1,2.2848459E-1,-4.3538138E-1,1.2919155E-1,2.2402391E-1,9.442904E-1,-4.9603584E-1,-5.740983E-1,-5.487685E-1,-4.0851995E-1,-6.906521E-2,1.9673033E-1,-3.1705675E-1,-4.9991265E-1,9.6364576E-1,-3.5192806E-1,-5.520425E-1,-4.8724088E-1,5.019857E-1,-2.5627173E-2,-3.9751342E-1,-1.8487121E-1,-3.5903963E-1,-5.3490275E-1,-5.806261E-1,-5.503578E-1,-4.1038463E-1,-5.810885E-1,8.908598E-2,7.4225116E-1,-1.7841987E-2,-3.2068488E-1,-3.0754098E-1,9.655172E-1,-5.4085106E-1,-3.466807E-1,1.4303359E0,3.375836E0,-5.598507E-1,-2.614108E-1,2.0034173E0,2.8200955E0,-4.343913E-1,7.3018884E-3,-5.407154E-1,-3.841778E-1,-5.511811E-1,6.536585E-1,1.5702924E0,6.556568E-1,-5.5915123E-1,6.0113746E-1,2.9640577E0,-5.7483846E-1,-4.6845123E-1,-5.707035E-1,5.0007355E-1,-2.3906937E-2,2.8198147E0,2.1051672E0,7.595782E-1,1.5724058E0,-4.9604294E-1,-1.5568377E-8,-3.466807E-1,1.0355029E0,8.90909E-1,-1.0566039E-1,5.251112E-1,-2.9131678E-1,-4.016204E-1,-5.684428E-1,-5.252403E-1,-5.708976E-1,-5.022701E-1,1.5423454E-1,-1.7495157E-2,1.032819E0,1.4818152E0,2.2004554E0,-2.0682679E-1,1.3178991E0,-4.4774902E-1,-5.441332E-1,-5.278916E-1,-4.288612E-1,-5.036418E-1,-3.049136E-1,-4.7918695E-1,2.0864465E0,1.7124237E-1,-3.9281133E-1,-3.7436637E-1,-1.7739497E-1,5.191617E-1,1.2325325E-1,8.24594E-2,-4.6122172E-1,4.9480245E-1,-5.8022E-1,4.1717973E-1,-3.4630308E-1,1.383661E0,4.9993345E-1,-4.1436258E-1,-5.281489E-1,-4.466296E-1,-5.5526817E-1,-3.862638E-1,-5.8019954E-1,-1.1651132E-1,1.621391E-1,3.100312E-1,-1.3075598E-1,-5.066272E-1,-2.5677436E-3,-5.18788E-1,-3.1578946E-1,1.3543143E0,5.6128186E-1,-5.0668466E-1,-2.1405713E-1,-5.54688E-1,-2.4454148E-1,-4.5494264E-1,-5.76773E-1,2.9611334E-1,6.089046E-1,8.040796E-2,-5.759835E-1,-3.4789455E-1,-5.281729E-1,3.1617916E-1,-2.563108E-1,5.7798165E-1,-3.904797E-1,-5.225057E-1,-5.7976264E-1,-5.6668746E-1,-5.4133433E-1,-3.5056898E-1,-4.7271514E-1,2.32569E-1,-5.267327E-1,3.3698028E-1,1.4682926E0,-2.852292E-1,2.307692E-1,-3.5854477E-1,4.628099E-1,-5.4782605E-1,-3.641094E-2,-5.1847947E-1,-5.792761E-1,-4.2125478E-1,-1.3459113E-8,2.0311587E0,-3.8872772E-1,-5.6470865E-1,-4.2268983E-1,-4.2541435E-1,1.2844035E-1,2.1512685E0,6.5116274E-1,2.9279187E0,5.7798165E-1,-4.9724904E-1,-2.1737306E-1,4.487669E-1,-4.677344E-2,-4.1160056E-1,-5.532056E-1,-4.4317767E-1,5.397053E-3,3.623978E-1,7.488372E-1,1.3461257E0,1.991465E0,3.9386186E-1,1.1555879E0,-5.685391E-1,-4.7650495E-1,4.2125717E-1,9.59589E-1,-5.7476777E-1,5.442359E-1,9.198188E-1,-4.8283765E-1,1.965793E0,-8.0815345E-2,2.2112272E0,1.7628825E0,1.2156583E0,4.919068E-1,1.7376586E0,6.774193E-1,-5.1303494E-1,-2.713797E-1,4.980237E-1,-4.754717E-1,-3.0567698E-2,-4.187256E-1,3.043478E-1,1.4696132E0,-4.1420117E-1,2.8965515E-1,2.1123827E-1,9.4251126E-1,-1.6694696E-1,-4.7525892E-1,-4.5129177E-1,-1.4579553E-2,-4.3424317E-1,-5.40206E-1,-4.5386037E-1,-5.766063E-1,3.848229E-1,-3.2546842E-1,-1.3932917E-1,3.3617926E-1,1.379036E0,4.976303E-1,4.4356433E-1,1.6454182E0,2.275434E0,1.1395348E0,1.8918917E-1,-2.8744248E-1,2.3121169E-1,2.450616E0,-1.9590445E-1,-5.4709417E-1,-5.614893E-1,-4.7042775E-1,-5.2222E-1,-5.785282E-1,-3.9305264E-1,-5.1941425E-1,-5.658113E-1,-2.5728178E-1,-1.331619E-1,-3.5442677E-1,-3.4054053E-1,-5.630769E-1,-1.2897943E-1,3.4370177E0,3.3011308E-1,-3.6969545E-1,-5.7134074E-1,-2.8817803E-1,-2.9110143E-1,-4.860603E-1,3.251439E-2,-5.802562E-1,7.242061E-1,-5.334836E-1,1.7783843E-1,-3.539887E-1,2.845671E-1,-1.8512398E-1,-5.3567314E-1,-3.3959725E-1,8.493242E-1,-5.769144E-1,-2.354701E-1,5.529128E-1,-2.1140504E-1,-4.8051175E-1,1.4987253E0,7.993216E-1,6.9263256E-1,-4.5321473E-1,-2.1653777E-1,-4.9747136E-1,-2.1390055E-1,-5.193414E-1,-5.767098E-1,-5.4722786E-1,-3.381153E-1,-4.4746196E-1,3.1335542E-1,-1.4996545E-1,4.9964687E-1,-1.0920882E-1,1.0181405E-1,4.5007122E-1,-2.2162838E-1,2.2435475E-2,-4.0706E-1,-5.764971E-1,1.9784017E-1,-5.5250514E-1,-4.5418736E-1,-5.535349E-1,8.2146436E-1,-3.8259363E-1,1.7041658E0,3.809749E-1,9.8515165E-1,4.4995928E-1,-5.435816E-1,-4.4484687E-1,-2.7218345E-1,7.1672335E-2,-5.57373E-1,-2.614108E-1,1.2844035E-1,-4.1420117E-1,-3.460705E-1,-5.230453E-1,1.4916697E-1,4.6776468E-1,1.4116423E0,5.5881995E-1,-9.099541E-2,4.379673E-1,-2.1534057E-1,-4.0454888E-1,-5.753599E-1,-4.0644646E-1,-2.514178E-1,4.4439438E-1,-4.6332735E-1,-2.012974E-1,-5.2238804E-1,-2.6279864E-1,-4.9814487E-1,-5.480291E-1,-5.6894845E-1,-3.6395147E-1,-3.3052343E-1,-5.650224E-1,-4.8993456E-1,-3.2155478E-1,8.5318553E-1,1.03561625E-1,1.3034482E0,-9.695292E-2,1.8421052E0,4.628099E-1,-2.236423E-2,-4.953846E-1,8.3419687E-1,-2.839758E-2,-3.9461654E-1,1.6568045E-1,3.8799074E-1,-5.090909E-1,-4.3360627E-1,-5.387173E-1,1.2844035E-1,-4.7572815E-1,2.8965515E-1,-3.4710744E-1,2.3939488E0,-5.524324E-1,-5.289824E-1,2.2105262E0,-8.300396E-2,-4.96063E-1,7.6038337E-1,2.3320546E0,1.198895E0,-1.24260366E-1,-3.4501448E-1,-5.2121776E-1,-3.356913E-2,-3.9885563E-1,2.4983995E-1,2.3777566E0,-1.3627166E-2,-5.580267E-1,-5.6988233E-1,-2.9037744E-1,-5.799485E-1,-5.293833E-1,-4.5503116E-1,-1.778291E-1,5.932203E-1,-5.4232424E-1,5.138823E-1,-3.26572E-1,1.827893E0,6.9351935E-1,1.5174409E0,8.459131E-1,2.1328268E0,1.438855E0,5.9514165E-1,4.63576E-2,1.2656621E0,-8.917198E-2,-5.6999207E-1,-2.9056603E-1,-5.100455E-1,1.10671915E-1,8.105722E-1,-8.586564E-2,1.7042044E-1,1.130507E0,-8.300396E-2,1.3254437E0,1.1143032E0,-4.2521563E-1,-5.5032855E-1,5.233644E-1,2.1562407E0,-4.883721E-1,-5.4532343E-1,1.1909783E-1,2.0301037E0,2.4886572E0,1.8438725E0,9.554896E-1,1.2760689E0,5.785123E-2,5.982646E-1,-4.801444E-1,1.8461537E0,4.628099E-1,5.785123E-2,9.655172E-1,-4.6355948E-1,-5.666738E-1,-4.1342282E-1,3.867403E-1,-3.2110092E-1,8.3419687E-1,-4.1420117E-1,5.7798165E-1,-5.2238804E-1,-2.2063038E-1,6.275862E-1,-8.917198E-2,4.628099E-1,1.9266055E0,-4.754717E-1,4.416107E-1,1.4E0,2.584615E-1,-2.077601E-1,2.0826445E0,-4.3076936E-2,-5.04055E-1,-3.821727E-1,-5.0102836E-1,3.1521297E0,-4.7394758E-1,-4.7583497E-1,-4.3076936E-2,-5.454363E-1,-3.3267328E-1,-4.3076936E-2,-4.7032705E-1,5.7743627E-1,-5.3049904E-1,1.10671915E-1,-4.017785E-1,-4.4409198E-1,1.2125248E-1,1.4651161E0,-1.8394162E-1,6.240713E-1,1.6701915E0,-2.0965059E-1,9.3081075E-1,3.1460658E-2,1.9266055E0,1.4384778E0,2.5640447E0,2.3020644E0,5.7798165E-1,1.3651452E0,1.2844035E-1,1.068303E0,7.936715E-2,1.8944517E-1,-3.548786E-1,-5.618905E-1,4.8599264E-1,-5.25355E-1,2.7391303E0,1.6068864E-1,-4.883721E-1,-5.643225E-1,-3.6969998E-1,-4.7041556E-1,-5.2775145E-1,-4.325679E-1,-1.4495341E-1,-3.810987E-1,-5.3467435E-1,-2.6768577E-1,5.3287196E-1,-2.6066783E-1,1.1609488E0,-5.3939295E-1,-2.9173613E-1,-3.888455E-1,1.6535431E-1,-5.8086777E-1,-5.0970095E-1,7.685364E-2,-5.5885136E-1,5.765421E-1,-3.4025484E-1,-5.802402E-1,-8.903817E-2,-1.3221987E-1,-5.8006626E-1,-3.9157575E-1,-1.041112E-1,-4.607015E-1,-5.411611E-1,2.274368E-1,-5.7675487E-1,1.0181412E0,7.560792E-2,-5.4080003E-1,-3.8433066E-1,5.137889E-2,5.740661E-1,1.1424399E-1,-5.3478336E-1,9.0773046E-2,4.6919662E-1,-4.4325393E-2,-4.5935357E-1,-4.4714528E-1,-5.45484E-1,-3.9681166E-1,-2.1755028E-1,1.0564908E0,-5.669156E-1,-5.8907665E-2,-5.8025223E-1,7.0795023E-1,-9.639219E-2,-1.3542739E-1,-5.771478E-1,-4.2951456E-1,-5.801535E-1,1.6447042E0,9.8458433E-1,1.4178703E0,4.8149395E-1,1.0112766E0,3.6786252E-1,-2.574601E-1,-4.879156E-1,-4.0479547E-1,-7.5416274E-2,-5.0860417E-1,-4.8275873E-2,-5.4496646E-1,5.0359692E-2,-5.340934E-1,-3.4404537E-1,-5.3291935E-1,-5.6449884E-1,-3.5002694E-1,7.892452E-2,-4.715921E-1,-3.7173718E-1,-4.6115988E-1,4.623345E-1,5.469633E-3,-1.9323196E-1,7.763889E-1,-1.4301272E-1,1.2540872E-2,-5.678209E-1,3.994024E-1,-3.740654E-2,1.3893943E0,3.6377314E-1,1.9505903E-2,-2.8152815E-1,6.3664186E-1,-2.2604038E-1,-2.8550163E-1,-5.749033E-1,-5.376237E-1,5.7676965E-1,-5.631682E-1,-4.8952284E-1,-5.149117E-1,-3.6602047E-1,-5.552513E-1,-4.4522968E-1,-2.0965059E-1,2.1235955E0,-3.1865796E-1,-5.7634985E-1,1.0936791E0,2.3825855E0,6.33484E-2,6.953642E-1,1.2768942E0,3.0434778E-1,5.278052E-1,8.588955E-2,-3.0215827E-1,-5.0023663E-1,-3.3852562E-1,-2.7114283E-2,-3.236994E-1,5.932203E-1,-1.0979803E-8,-4.0127388E-1,-3.9579967E-1,-5.2963443E-2,-5.281459E-1,-2.2580646E-1,8.208651E-2,1.1592356E0,7.0524555E-1,1.5107912E-1,6.646884E-1,2.357513E0,7.495881E-1,3.5468936E-1,-5.0359726E-2,-5.571821E-1,6.1926085E-1,4.913428E-2,-1.7259486E-1,-5.7231003E-1,-5.2274287E-1,-3.1317332E-1,-2.1494883E-1,-5.771155E-1,4.628099E-1,-4.1356674E-1,7.0351756E-1,7.981739E-3,-4.8689333E-1,5.7798165E-1,-7.99239E-2,-3.1680837E-1,-5.590484E-1,-4.8275873E-2,-9.469304E-2,-5.3164554E-1,-5.533537E-1,-4.0479547E-1,-5.17321E-1,7.2538845E-2,-1.3499615E-1,-3.8477802E-1,-1.0979803E-8,-4.92513E-1,3.043478E-1,-4.0180078E-1,1.6153846E0,1.4522819E-1,1.5711752E-1,-4.2541435E-1,-3.1487888E-1,4.628099E-1,4.628099E-1,-2.614108E-1,2.0057304E-1,-4.3523315E-1,-4.8244473E-1,-3.2506004E-1,5.7798165E-1,-3.2110092E-1,1.2727273E0,3.8781147E-2,-4.4816297E-1,1.2844035E-1,-1.8134716E-1,-5.428186E-1,3.1949332E0,1.9023058E0,1.2844035E-1,-5.491406E-1,-4.3523315E-1,5.7798165E-1,5.785123E-2,-5.483476E-1,-3.4710744E-1,1.1618257E0,2.6798282E0,1.5994357E0,5.785123E-2,1.9266055E0,-3.2110092E-1,1.2844035E-1,-2.2917177E-1,-4.6258676E-1,-5.33376E-1,-4.2327297E-1,3.1140554E-1,-1.4943445E-1,-4.5722172E-1,1.6043423E-1,1.8968686E-1,3.1483252E0,3.3821218E0,-5.2811384E-1,-3.699511E-1,4.590592E-2,-5.699982E-1,2.9928738E-1,1.3552742E-2,-4.43536E-1,-5.41822E-1,-2.9146427E-1,-5.0382054E-1,-3.978718E-1,-5.041551E-1,8.677686E-1,1.1454545E0,-1.7891374E-1,3.1226763E-1,8.106151E-1,-5.8091298E-2,-4.883721E-1,9.9024385E-1,2.2817678E0,-3.862069E-1,7.106847E-1,1.2979397E0,1.8474013E0,-1.5172091E-8,9.738856E-1,2.253496E0,1.1227722E0,1.5314617E0,4.5562127E-1,6.785946E-1,-5.8091298E-2,-4.0415704E-1,3.32838E-1,1.5257595E0,7.974683E-1,-5.728819E-1,-4.0479547E-1,1.2844035E-1,-4.4390243E-1,-5.702517E-1,-4.1202253E-1,7.368421E-1,-4.1420117E-1,2.718806E0,3.5742652E-1,4.8698496E-2,-4.3322772E-1,-3.1964558E-1,4.268216E-1,1.1558474E0,-5.592935E-1,4.628099E-1,-4.2541435E-1,6.2455934E-1,1.5312175E0,-5.476529E-1,6.551126E-1,-5.744844E-1,-4.236654E-1,1.7721518E0,-5.408618E-1,1.5576282E0,2.5689743E0,-5.476348E-1,-1.9384617E-1,-5.2441392E-2,4.890851E-1,1.8578018E0,2.5254393E0,4.628099E-1,2.5357277E0,1.9758353E0,9.6977323E-1,2.2580643E-1,1.6153846E0,1.3411479E0,2.8965515E-1,1.4567357E-1,8.6467725E-1,2.1247401E0,7.5121945E-1,-5.0528854E-1,6.774193E-1,-1.263538E-1,-5.280464E-1,5.785123E-2,5.7798165E-1,1.2844035E-1,1.1052631E0,-4.4390243E-1,7.2538845E-2],"categories":[],"categories_nodes":[],"categories_segments":[],"categories_sizes":[],"default_left":[true,true,true,true,true,true,true,true,true,true,true,true,true,false,true,true,true,true,true,true,true,true,true,false,true,true,true,true,true,true,true,true,true,true,true,true,true,false,true,true,true,true,true,true,true,true,true,true,true,true,true,true,false,true,true,true,false,true,true,true,true,true,false,true,true,true,true,true,true,true,true,true,false,true,false,true,true,true,false,true,false,true,true,true,true,true,false,true,true,true,true,true,true,true,true,true,true,true,true,true,true,true,false,true,true,true,true,true,true,true,true,true,true,true,true,true,true,true,true,true,true,true,false,true,true,true,true,true,true,true,true,true,true,true,true,true,true,true,true,false,true,true,false,true,true,true,true,true,false,true,true,true,false,true,true,true,true,true,true,true,true,false,true,true,true,true,true,false,false,true,false,true,true,false,true,true,true,true,true,true,false,true,true,true,true,true,false,true,false,true,true,true,true,true,true,true,true,true,true,true,true,true,true,true,true,true,true,true,true,true,true,true,true,true,false,true,true,true,true,true,false,true,true,true,false,true,true,true,true,true,true,true,true,true,true,true,true,true,true,true,false,true,true,true,false,true,true,true,true,false,true,true,false,true,false,true,true,true,false,true,true,true,true,true,false,false,true,true,false,true,true,true,true,false,true,false,false,true,true,false,false,true,true,true,true,true,true,true,true,true,true,true,true,true,true,true,true,true,true,false,true,true,true,true,true,true,true,true,true,true,true,true,true,true,false,true,true,true,true,false,false,true,true,true,true,true,true,true,true,true,false,true,true,true,true,true,true,true,true,true,true,true,true,true,true,true,false,false,true,true,false,true,true,false,true,true,true,true,true,true,false,true,true,false,true,true,true,true,false,true,true,true,true,true,true,true,true,true,false,true,true,true,true,true,true,true,true,true,true,true,true,false,true,true,true,true,true,true,true,true,true,true,true,true,false,true,true,true,true,true,true,true,true,true,true,false,true,true,true,false,true,false,false,true,true,true,true,true,true,true,true,true,true,false,true,true,true,true,true,true,true,false,true,false,true,true,false,true,true,true,true,false,true,false,false,true,false,false,true,true,true,true,false,true,true,false,false,false,false,true,false,true,false,true,true,true,true,true,true,true,true,true,true,true,true,true,true,false,true,false,true,true,true,true,false,true,true,true,true,true,true,true,true,true,true,true,false,true,true,true,true,true,true,true,true,true,false,true,true,true,true,true,false,true,true,true,true,true,true,true,false,true,false,true,false,false,false,true,false,true,true,false,true,false,false,false,true,false,false,false,false,false,false,false,false,false,false,false,false,false,false,false,false,false,false,false,false,false,false,false,false,false,false,false,false,false,false,false,false,false,false,false,false,false,false,false,false,false,false,false,false,false,false,false,false,false,false,false,false,false,false,false,false,false,false,false,false,false,false,false,false,false,false,false,false,false,false,false,false,false,false,false,false,false,false,false,false,false,false,false,false,false,false,false,false,false,false,false,false,false,false,false,false,false,false,false,false,false,false,false,false,false,false,false,false,false,false,false,false,false,false,false,false,false,false,false,false,false,false,false,false,false,false,false,false,false,false,false,false,false,false,false,false,false,false,false,false,false,false,false,false,false,false,false,false,false,false,false,false,false,false,false,false,false,false,false,false,false,false,false,false,false,false,false,false,false,false,false,false,false,false,false,false,false,false,false,false,false,false,false,false,false,false,false,false,false,false,false,false,false,false,false,false,false,false,false,false,false,false,false,false,false,false,false,false,false,false,false,false,false,false,false,false,false,false,false,false,false,false,false,false,false,false,false,false,false,false,false,false,false,false,false,false,false,false,false,false,false,false,false,false,false,false,false,false,false,false,false,false,false,false,false,false,false,false,false,false,false,false,false,false,false,false,false,false,false,false,false,false,false,false,false,false,false,false,false,false,false,false,false,false,false,false,false,false,false,false,false,false,false,false,false,false,false,false,false,false,false,false,false,false,false,false,false,false,false,false,false,false,false,false,false,false,false,false,false,false,false,false,false,false,false,false,false,false,false,false,false,false,false,false,false,false,false,false,false,false,false,false,false,false,false,false,false,false,false,false,false,false,false,false,false,false,false,false,false,false,false,false],"id":0,"left_children":[1,3,5,7,9,11,13,15,17,19,21,23,25,-1,27,29,31,33,35,37,39,41,43,-1,45,47,49,51,53,55,57,59,61,63,65,67,69,-1,71,73,75,77,79,81,83,85,87,89,91,93,95,97,-1,99,101,103,-1,105,107,109,111,113,-1,115,117,119,121,123,125,127,129,131,-1,133,-1,135,137,139,-1,141,-1,143,145,147,149,151,-1,153,155,157,159,161,163,165,167,169,171,173,175,177,179,181,-1,183,185,187,189,191,193,195,197,199,201,203,205,207,209,211,213,215,217,219,-1,221,223,225,227,229,231,233,235,237,239,241,243,245,247,249,251,-1,253,255,-1,257,259,261,263,265,-1,267,269,271,-1,273,275,277,279,281,283,285,287,-1,289,291,293,295,297,-1,-1,299,-1,301,303,-1,305,307,309,311,313,315,-1,317,319,321,323,325,-1,327,-1,329,331,333,335,337,339,341,343,345,347,349,351,353,355,357,359,361,363,365,367,369,371,373,375,377,-1,379,381,383,385,387,-1,389,391,393,-1,395,397,399,401,403,405,407,409,411,413,415,417,419,421,423,-1,425,427,429,-1,431,433,435,437,-1,439,441,-1,443,-1,445,447,449,-1,451,453,455,457,459,-1,-1,461,463,-1,465,467,469,471,-1,473,-1,-1,475,477,-1,-1,479,481,483,485,487,489,491,493,495,497,499,501,503,505,507,509,511,513,-1,515,517,519,521,523,525,527,529,531,533,535,537,539,541,-1,543,545,547,549,-1,-1,551,553,555,557,559,561,563,565,567,-1,569,571,573,575,577,579,581,583,585,587,589,591,593,595,597,-1,-1,599,601,-1,603,605,-1,607,609,611,613,615,617,-1,619,621,-1,623,625,627,629,-1,631,633,635,637,639,641,643,645,647,-1,649,651,653,655,657,659,661,663,665,667,669,671,-1,673,675,677,679,681,683,685,687,689,691,693,695,-1,697,699,701,703,705,707,709,711,713,715,-1,717,719,721,-1,723,-1,-1,725,727,729,731,733,735,737,739,741,743,-1,745,747,749,751,753,755,757,-1,759,-1,761,763,-1,765,767,769,771,-1,773,-1,-1,775,-1,-1,777,779,781,783,-1,785,787,-1,-1,-1,-1,789,-1,791,-1,793,795,797,799,801,803,805,807,809,811,813,815,817,819,-1,821,-1,823,825,827,829,-1,831,833,835,837,839,841,843,845,847,849,851,-1,853,855,857,859,861,863,865,867,869,-1,871,873,875,877,879,-1,881,883,885,887,889,891,893,-1,895,-1,897,-1,-1,-1,899,-1,901,903,-1,905,-1,-1,-1,907,-1,-1,-1,-1,-1,-1,-1,-1,-1,-1,-1,-1,-1,-1,-1,-1,-1,-1,-1,-1,-1,-1,-1,-1,-1,-1,-1,-1,-1,-1,-1,-1,-1,-1,-1,-1,-1,-1,-1,-1,-1,-1,-1,-1,-1,-1,-1,-1,-1,-1,-1,-1,-1,-1,-1,-1,-1,-1,-1,-1,-1,-1,-1,-1,-1,-1,-1,-1,-1,-1,-1,-1,-1,-1,-1,-1,-1,-1,-1,-1,-1,-1,-1,-1,-1,-1,-1,-1,-1,-1,-1,-1,-1,-1,-1,-1,-1,-1,-1,-1,-1,-1,-1,-1,-1,-1,-1,-1,-1,-1,-1,-1,-1,-1,-1,-1,-1,-1,-1,-1,-1,-1,-1,-1,-1,-1,-1,-1,-1,-1,-1,-1,-1,-1,-1,-1,-1,-1,-1,-1,-1,-1,-1,-1,-1,-1,-1,-1,-1,-1,-1,-1,-1,-1,-1,-1,-1,-1,-1,-1,-1,-1,-1,-1,-1,-1,-1,-1,-1,-1,-1,-1,-1,-1,-1,-1,-1,-1,-1,-1,-1,-1,-1,-1,-1,-1,-1,-1,-1,-1,-1,-1,-1,-1,-1,-1,-1,-1,-1,-1,-1,-1,-1,-1,-1,-1,-1,-1,-1,-1,-1,-1,-1,-1,-1,-1,-1,-1,-1,-1,-1,-1,-1,-1,-1,-1,-1,-1,-1,-1,-1,-1,-1,-1,-1,-1,-1,-1,-1,-1,-1,-1,-1,-1,-1,-1,-1,-1,-1,-1,-1,-1,-1,-1,-1,-1,-1,-1,-1,-1,-1,-1,-1,-1,-1,-1,-1,-1,-1,-1,-1,-1,-1,-1,-1,-1,-1,-1,-1,-1,-1,-1,-1,-1,-1,-1,-1,-1,-1,-1,-1,-1,-1,-1,-1,-1,-1,-1,-1,-1,-1,-1,-1,-1,-1,-1,-1,-1,-1,-1,-1,-1,-1,-1,-1,-1,-1,-1,-1,-1,-1,-1,-1,-1,-1,-1,-1,-1,-1,-1,-1,-1,-1,-1,-1,-1,-1,-1,-1,-1,-1,-1,-1,-1,-1,-1,-1,-1,-1,-1,-1,-1,-1,-1,-1,-1,-1,-1,-1,-1,-1,-1],"loss_changes":[3.8436401E3,2.5065527E3,2.7020046E3,1.6064565E3,8.863721E1,2.9464126E3,2.7921191E3,1.00247217E3,1.0927081E3,9.7633545E1,1.3969971E1,3.2141763E3,6.922682E2,0E0,2.4243994E3,8.146511E2,7.4638135E2,5.226951E2,7.7615E2,5.109253E-1,1.1444995E2,4.7304688E0,2.5995575E1,0E0,7.534056E2,7.790149E2,1.3095544E3,5.5905664E2,4.243767E0,5.4757104E3,6.261041E2,1.1626514E2,5.422849E2,7.4516425E2,4.8633044E2,8.2914667E2,2.8463635E2,0E0,5.699158E-1,1.0354514E2,1.6554138E1,4.0893555E-1,7.3396606E0,6.202899E0,3.0948715E0,4.12838E2,4.9001047E2,2.6143225E2,9.176691E1,7.598535E2,6.1733734E2,1.1384631E2,0E0,2.0191116E0,6.7237844E0,1.4977463E1,0E0,1.3965271E1,1.2034039E2,1.8539328E2,6.997266E1,4.990121E2,0E0,5.605885E2,1.4770737E2,7.4755273E2,4.443817E-1,1.8190552E1,6.361607E2,7.279529E1,2.748486E2,4.519043E-1,0E0,4.8723087E1,0E0,1.64917E1,1.3467712E0,5.8496094E-1,0E0,5.4269867E0,0E0,4.2701807E0,1.379775E0,4.3394885E0,4.1368866E-1,2.4689148E2,0E0,1.2310791E-1,4.672333E0,2.5760587E2,3.7772522E0,2.388533E1,5.2207397E1,8.699066E2,1.508519E3,4.2749023E-1,2.3311847E2,1.12109375E1,8.813911E0,2.0314598E0,5.5731783E0,2.927357E0,0E0,1.865012E1,6.5138702E0,2.2860718E-1,2.751125E1,4.007505E1,1.3178986E1,4.1007028E2,5.4537964E-1,3.1785156E1,5.915686E1,1.7238955E3,1.6565363E2,1.5735855E1,4.4679108E2,3.9795105E1,1.4282867E2,4.786094E2,4.2049915E2,7.600937E-1,0E0,1.2036743E0,6.039795E0,4.1357147E2,4.3900705E2,2.9969992E2,1.3233643E1,4.8479126E1,6.768402E0,1.3949585E-1,7.4823E-1,5.814499E0,2.8673456E1,1.4629761E1,1.5764287E1,1.8784575E0,1.4012146E-1,0E0,3.9916992E-2,2.6493225E0,0E0,4.798343E0,3.1862612E0,1.6625898E0,1.4741383E0,2.0076342E0,0E0,5.545807E-2,5.007117E-1,2.1386725E2,0E0,1.1836243E-1,3.6910594E-1,8.151047E0,3.46344E0,2.0460999E1,2.5362784E2,1.572876E0,4.4553566E0,0E0,5.411598E0,2.5182617E1,1.03811455E1,2.932434E-1,3.7464014E2,0E0,0E0,8.356951E0,0E0,5.1514075E2,3.0125308E2,0E0,3.4283447E0,9.091145E0,1.4699669E0,7.1720886E-1,2.503274E0,4.2827892E-1,0E0,2.2197971E0,7.7961445E-1,4.006613E0,4.980177E0,1.3068275E1,0E0,2.7137756E-1,0E0,5.632553E-1,9.960857E0,3.2134838E0,1.2794647E1,1.0422043E1,2.3957825E0,3.257954E1,2.62019E2,2.3993702E0,7.991638E-1,1.8505859E0,1.8553345E1,3.225476E1,4.3922974E1,5.9040985E0,1.5678716E3,1.2501274E2,1.4991798E1,1.434877E1,4.6803665E1,8.3841016E2,2.79506E2,7.735445E0,2.5444641E1,1.3848828E2,0E0,2.8758508E2,1.980191E1,7.1698975E1,1.9760257E2,1.7004509E0,0E0,2.1892872E0,3.8146973E-2,4.133728E0,0E0,4.4989093E2,5.8796826E2,2.5625647E2,4.2347454E1,2.1584595E1,2.0858731E2,7.593567E0,2.7740643E1,5.323004E1,6.918743E0,1.02996826E-1,2.8792038E0,1.1773682E-1,3.4893724E-1,1.7584076E0,0E0,2.3274908E0,6.379921E0,2.5301306E1,0E0,1.2371262E1,3.36734E0,4.123241E0,4.280222E0,0E0,7.8697586E-1,1.21398926E-1,0E0,1.6699219E-1,0E0,1.4861946E0,7.974014E-1,3.4034185E0,0E0,4.037757E0,7.199402E-1,6.529585E-1,2.0567384E0,8.7155294E-1,0E0,0E0,3.3458111E0,2.3210144E-1,0E0,5.383692E-1,5.457965E-1,1.3883807E2,1.9121925E1,0E0,5.147786E-1,0E0,0E0,8.946838E0,2.7579956E0,0E0,0E0,4.083618E0,1.134236E1,4.4428778E2,1.60389E2,1.7990761E0,3.3969116E-1,4.4832993E-1,8.84389E0,5.6396995E0,7.899147E0,1.5486176E1,4.776428E0,3.8793707E0,3.940918E0,9.60083E-2,1.6388206E0,7.6507263E2,2.6185767E2,0E0,3.8400526E0,2.2924603E2,2.5684776E1,3.563034E1,2.402175E2,2.4923096E0,1.6825562E0,1.9317093E0,5.6316366E0,1.1469154E0,7.34627E-1,2.878456E-1,1.8330139E0,1.6896579E0,0E0,1.3304684E0,2.070198E-1,7.1273416E-1,8.079066E-1,0E0,0E0,3.3126118E0,3.8597193E0,1.2688775E1,1.0818443E0,1.8805008E0,1.15523445E2,9.161501E-1,1.6042328E-1,9.5061684E-1,0E0,1.0974475E1,1.0232251E0,4.4508786E0,1.1497887E1,8.544182E0,9.430321E0,6.238147E0,7.0233E0,1.2718811E0,1.2259283E0,1.6609798E1,2.730236E1,2.2496357E1,9.103235E1,3.1965923E0,0E0,0E0,1.3480453E0,1.6861572E0,0E0,4.061847E1,3.2497253E0,0E0,3.6619644E0,1.9148486E2,4.637503E1,4.954239E0,1.2557983E-2,1.7683346E1,0E0,1.8585526E2,1.9471252E1,0E0,2.3302284E1,1.6776543E1,6.7840576E-1,4.343988E1,0E0,6.1953345E2,4.8355103E-1,4.8233405E2,9.329277E1,2.867282E0,2.3632858E0,1.2792664E0,7.4364777E0,8.07923E1,0E0,3.401763E1,2.705141E2,1.5207096E1,2.5471725E0,6.627991E1,3.480414E1,9.213394E1,1.1055489E0,8.808899E-1,3.5887527E-1,3.0073776E0,8.2286835E-2,0E0,7.2753906E-2,4.0910416E0,9.8908997E-1,2.6086685E2,1.9518378E2,5.0897168E2,1.9874756E2,1.4650702E2,4.2547766E2,2.7582397E1,1.7311952E2,2.6293259E1,0E0,3.8688577E2,6.3812256E-2,6.3857727E0,1.7443848E-1,2.7763966E1,4.0487175E0,4.5479767E1,4.262088E0,5.890188E0,3.5089054E0,0E0,3.3870506E-1,2.3204212E0,6.357144E0,0E0,1.7982394E-1,0E0,0E0,1.4892855E0,1.21738434E-1,3.4737787E0,3.1549711E0,5.3684387E0,6.3343353E0,5.26577E0,9.396923E0,7.51355E0,1.2376007E1,0E0,5.711481E0,1.4416919E0,5.120119E0,2.241064E0,4.2530594E0,4.245658E-1,1.3008854E0,0E0,4.6310425E-3,0E0,8.258294E-1,3.7490578E0,0E0,4.1365814E-1,2.1528602E0,3.7408533E0,1.12198E0,0E0,1.0444486E0,0E0,0E0,8.6183035E-1,0E0,0E0,1.0245333E0,8.865929E-2,8.7780255E-1,2.6808264E0,0E0,5.2658176E-1,2.1637726E-1,0E0,0E0,0E0,0E0,4.4657898E1,0E0,7.004299E-1,0E0,1.4536601E0,5.5716133E-1,3.243234E0,5.203247E0,2.9557533E0,2.1280059E-1,2.099022E0,9.7402954E-1,6.850511E0,5.6620617E0,1.8283975E2,3.177644E2,1.8859724E2,6.0849915E0,0E0,2.7999325E0,0E0,1.464859E0,2.4694061E-1,3.4526348E0,5.8525467E0,0E0,2.3413525E0,4.0869153E-1,3.5525703E-1,3.0118103E0,8.0686035E0,5.6490707E0,6.9642334E0,1.4447861E0,1.9629946E0,2.9186056E0,1.9171257E0,0E0,7.522583E-2,4.0448377E-1,2.146492E-1,2.002159E0,1.8945564E3,7.872112E1,4.374333E1,6.902002E1,1.1618608E0,0E0,1.5510895E2,1.506801E1,8.304291E-1,3.2881428E1,1.3005829E1,0E0,5.261383E-1,1.1482768E2,3.5242615E0,4.0594482E0,3.4817352E0,2.946875E0,1.3578911E0,0E0,5.546032E0,0E0,2.3692932E0,0E0,0E0,0E0,5.7418804E0,0E0,4.3356776E-1,1.988976E-1,0E0,6.1155415E-1,0E0,0E0,0E0,4.9841076E-1,0E0,0E0,0E0,0E0,0E0,0E0,0E0,0E0,0E0,0E0,0E0,0E0,0E0,0E0,0E0,0E0,0E0,0E0,0E0,0E0,0E0,0E0,0E0,0E0,0E0,0E0,0E0,0E0,0E0,0E0,0E0,0E0,0E0,0E0,0E0,0E0,0E0,0E0,0E0,0E0,0E0,0E0,0E0,0E0,0E0,0E0,0E0,0E0,0E0,0E0,0E0,0E0,0E0,0E0,0E0,0E0,0E0,0E0,0E0,0E0,0E0,0E0,0E0,0E0,0E0,0E0,0E0,0E0,0E0,0E0,0E0,0E0,0E0,0E0,0E0,0E0,0E0,0E0,0E0,0E0,0E0,0E0,0E0,0E0,0E0,0E0,0E0,0E0,0E0,0E0,0E0,0E0,0E0,0E0,0E0,0E0,0E0,0E0,0E0,0E0,0E0,0E0,0E0,0E0,0E0,0E0,0E0,0E0,0E0,0E0,0E0,0E0,0E0,0E0,0E0,0E0,0E0,0E0,0E0,0E0,0E0,0E0,0E0,0E0,0E0,0E0,0E0,0E0,0E0,0E0,0E0,0E0,0E0,0E0,0E0,0E0,0E0,0E0,0E0,0E0,0E0,0E0,0E0,0E0,0E0,0E0,0E0,0E0,0E0,0E0,0E0,0E0,0E0,0E0,0E0,0E0,0E0,0E0,0E0,0E0,0E0,0E0,0E0,0E0,0E0,0E0,0E0,0E0,0E0,0E0,0E0,0E0,0E0,0E0,0E0,0E0,0E0,0E0,0E0,0E0,0E0,0E0,0E0,0E0,0E0,0E0,0E0,0E0,0E0,0E0,0E0,0E0,0E0,0E0,0E0,0E0,0E0,0E0,0E0,0E0,0E0,0E0,0E0,0E0,0E0,0E0,0E0,0E0,0E0,0E0,0E0,0E0,0E0,0E0,0E0,0E0,0E0,0E0,0E0,0E0,0E0,0E0,0E0,0E0,0E0,0E0,0E0,0E0,0E0,0E0,0E0,0E0,0E0,0E0,0E0,0E0,0E0,0E0,0E0,0E0,0E0,0E0,0E0,0E0,0E0,0E0,0E0,0E0,0E0,0E0,0E0,0E0,0E0,0E0,0E0,0E0,0E0,0E0,0E0,0E0,0E0,0E0,0E0,0E0,0E0,0E0,0E0,0E0,0E0,0E0,0E0,0E0,0E0,0E0,0E0,0E0,0E0,0E0,0E0,0E0,0E0,0E0,0E0,0E0,0E0,0E0,0E0,0E0,0E0,0E0,0E0,0E0,0E0,0E0,0E0,0E0,0E0,0E0,0E0,0E0,0E0,0E0,0E0,0E0,0E0,0E0,0E0,0E0,0E0,0E0,0E0,0E0,0E0,0E0,0E0,0E0,0E0,0E0,0E0,0E0,0E0,0E0,0E0,0E0,0E0,0E0,0E0,0E0,0E0,0E0,0E0,0E0,0E0,0E0,0E0,0E0,0E0,0E0,0E0,0E0,0E0,0E0,0E0,0E0,0E0,0E0,0E0,0E0,0E0,0E0,0E0,0E0,0E0,0E0,0E0,0E0,0E0,0E0,0E0,0E0,0E0,0E0],"parents":[2147483647,0,0,1,1,2,2,3,3,4,4,5,5,6,6,7,7,8,8,9,9,10,10,11,11,12,12,14,14,15,15,16,16,17,17,18,18,19,19,20,20,21,21,22,22,24,24,25,25,26,26,27,27,28,28,29,29,30,30,31,31,32,32,33,33,34,34,35,35,36,36,38,38,39,39,40,40,41,41,42,42,43,43,44,44,45,45,46,46,47,47,48,48,49,49,50,50,51,51,53,53,54,54,55,55,57,57,58,58,59,59,60,60,61,61,63,63,64,64,65,65,66,66,67,67,68,68,69,69,70,70,71,71,73,73,75,75,76,76,77,77,79,79,81,81,82,82,83,83,84,84,85,85,87,87,88,88,89,89,90,90,91,91,92,92,93,93,94,94,95,95,96,96,97,97,98,98,99,99,100,100,101,101,103,103,104,104,105,105,106,106,107,107,108,108,109,109,110,110,111,111,112,112,113,113,114,114,115,115,116,116,117,117,118,118,119,119,120,120,121,121,123,123,124,124,125,125,126,126,127,127,128,128,129,129,130,130,131,131,132,132,133,133,134,134,135,135,136,136,137,137,138,138,140,140,141,141,143,143,144,144,145,145,146,146,147,147,149,149,150,150,151,151,153,153,154,154,155,155,156,156,157,157,158,158,159,159,160,160,162,162,163,163,164,164,165,165,166,166,169,169,171,171,172,172,174,174,175,175,176,176,177,177,178,178,179,179,181,181,182,182,183,183,184,184,185,185,187,187,189,189,190,190,191,191,192,192,193,193,194,194,195,195,196,196,197,197,198,198,199,199,200,200,201,201,202,202,203,203,204,204,205,205,206,206,207,207,208,208,209,209,210,210,211,211,212,212,213,213,215,215,216,216,217,217,218,218,219,219,221,221,222,222,223,223,225,225,226,226,227,227,228,228,229,229,230,230,231,231,232,232,233,233,234,234,235,235,236,236,237,237,238,238,239,239,241,241,242,242,243,243,245,245,246,246,247,247,248,248,250,250,251,251,253,253,255,255,256,256,257,257,259,259,260,260,261,261,262,262,263,263,266,266,267,267,269,269,270,270,271,271,272,272,274,274,277,277,278,278,281,281,282,282,283,283,284,284,285,285,286,286,287,287,288,288,289,289,290,290,291,291,292,292,293,293,294,294,295,295,296,296,297,297,298,298,300,300,301,301,302,302,303,303,304,304,305,305,306,306,307,307,308,308,309,309,310,310,311,311,312,312,313,313,315,315,316,316,317,317,318,318,321,321,322,322,323,323,324,324,325,325,326,326,327,327,328,328,329,329,331,331,332,332,333,333,334,334,335,335,336,336,337,337,338,338,339,339,340,340,341,341,342,342,343,343,344,344,345,345,348,348,349,349,351,351,352,352,354,354,355,355,356,356,357,357,358,358,359,359,361,361,362,362,364,364,365,365,366,366,367,367,369,369,370,370,371,371,372,372,373,373,374,374,375,375,376,376,377,377,379,379,380,380,381,381,382,382,383,383,384,384,385,385,386,386,387,387,388,388,389,389,390,390,392,392,393,393,394,394,395,395,396,396,397,397,398,398,399,399,400,400,401,401,402,402,403,403,405,405,406,406,407,407,408,408,409,409,410,410,411,411,412,412,413,413,414,414,416,416,417,417,418,418,420,420,423,423,424,424,425,425,426,426,427,427,428,428,429,429,430,430,431,431,432,432,434,434,435,435,436,436,437,437,438,438,439,439,440,440,442,442,444,444,445,445,447,447,448,448,449,449,450,450,452,452,455,455,458,458,459,459,460,460,461,461,463,463,464,464,469,469,471,471,473,473,474,474,475,475,476,476,477,477,478,478,479,479,480,480,481,481,482,482,483,483,484,484,485,485,486,486,488,488,490,490,491,491,492,492,493,493,495,495,496,496,497,497,498,498,499,499,500,500,501,501,502,502,503,503,504,504,505,505,507,507,508,508,509,509,510,510,511,511,512,512,513,513,514,514,515,515,517,517,518,518,519,519,520,520,521,521,523,523,524,524,525,525,526,526,527,527,528,528,529,529,531,531,533,533,537,537,539,539,540,540,542,542,546,546],"right_children":[2,4,6,8,10,12,14,16,18,20,22,24,26,-1,28,30,32,34,36,38,40,42,44,-1,46,48,50,52,54,56,58,60,62,64,66,68,70,-1,72,74,76,78,80,82,84,86,88,90,92,94,96,98,-1,100,102,104,-1,106,108,110,112,114,-1,116,118,120,122,124,126,128,130,132,-1,134,-1,136,138,140,-1,142,-1,144,146,148,150,152,-1,154,156,158,160,162,164,166,168,170,172,174,176,178,180,182,-1,184,186,188,190,192,194,196,198,200,202,204,206,208,210,212,214,216,218,220,-1,222,224,226,228,230,232,234,236,238,240,242,244,246,248,250,252,-1,254,256,-1,258,260,262,264,266,-1,268,270,272,-1,274,276,278,280,282,284,286,288,-1,290,292,294,296,298,-1,-1,300,-1,302,304,-1,306,308,310,312,314,316,-1,318,320,322,324,326,-1,328,-1,330,332,334,336,338,340,342,344,346,348,350,352,354,356,358,360,362,364,366,368,370,372,374,376,378,-1,380,382,384,386,388,-1,390,392,394,-1,396,398,400,402,404,406,408,410,412,414,416,418,420,422,424,-1,426,428,430,-1,432,434,436,438,-1,440,442,-1,444,-1,446,448,450,-1,452,454,456,458,460,-1,-1,462,464,-1,466,468,470,472,-1,474,-1,-1,476,478,-1,-1,480,482,484,486,488,490,492,494,496,498,500,502,504,506,508,510,512,514,-1,516,518,520,522,524,526,528,530,532,534,536,538,540,542,-1,544,546,548,550,-1,-1,552,554,556,558,560,562,564,566,568,-1,570,572,574,576,578,580,582,584,586,588,590,592,594,596,598,-1,-1,600,602,-1,604,606,-1,608,610,612,614,616,618,-1,620,622,-1,624,626,628,630,-1,632,634,636,638,640,642,644,646,648,-1,650,652,654,656,658,660,662,664,666,668,670,672,-1,674,676,678,680,682,684,686,688,690,692,694,696,-1,698,700,702,704,706,708,710,712,714,716,-1,718,720,722,-1,724,-1,-1,726,728,730,732,734,736,738,740,742,744,-1,746,748,750,752,754,756,758,-1,760,-1,762,764,-1,766,768,770,772,-1,774,-1,-1,776,-1,-1,778,780,782,784,-1,786,788,-1,-1,-1,-1,790,-1,792,-1,794,796,798,800,802,804,806,808,810,812,814,816,818,820,-1,822,-1,824,826,828,830,-1,832,834,836,838,840,842,844,846,848,850,852,-1,854,856,858,860,862,864,866,868,870,-1,872,874,876,878,880,-1,882,884,886,888,890,892,894,-1,896,-1,898,-1,-1,-1,900,-1,902,904,-1,906,-1,-1,-1,908,-1,-1,-1,-1,-1,-1,-1,-1,-1,-1,-1,-1,-1,-1,-1,-1,-1,-1,-1,-1,-1,-1,-1,-1,-1,-1,-1,-1,-1,-1,-1,-1,-1,-1,-1,-1,-1,-1,-1,-1,-1,-1,-1,-1,-1,-1,-1,-1,-1,-1,-1,-1,-1,-1,-1,-1,-1,-1,-1,-1,-1,-1,-1,-1,-1,-1,-1,-1,-1,-1,-1,-1,-1,-1,-1,-1,-1,-1,-1,-1,-1,-1,-1,-1,-1,-1,-1,-1,-1,-1,-1,-1,-1,-1,-1,-1,-1,-1,-1,-1,-1,-1,-1,-1,-1,-1,-1,-1,-1,-1,-1,-1,-1,-1,-1,-1,-1,-1,-1,-1,-1,-1,-1,-1,-1,-1,-1,-1,-1,-1,-1,-1,-1,-1,-1,-1,-1,-1,-1,-1,-1,-1,-1,-1,-1,-1,-1,-1,-1,-1,-1,-1,-1,-1,-1,-1,-1,-1,-1,-1,-1,-1,-1,-1,-1,-1,-1,-1,-1,-1,-1,-1,-1,-1,-1,-1,-1,-1,-1,-1,-1,-1,-1,-1,-1,-1,-1,-1,-1,-1,-1,-1,-1,-1,-1,-1,-1,-1,-1,-1,-1,-1,-1,-1,-1,-1,-1,-1,-1,-1,-1,-1,-1,-1,-1,-1,-1,-1,-1,-1,-1,-1,-1,-1,-1,-1,-1,-1,-1,-1,-1,-1,-1,-1,-1,-1,-1,-1,-1,-1,-1,-1,-1,-1,-1,-1,-1,-1,-1,-1,-1,-1,-1,-1,-1,-1,-1,-1,-1,-1,-1,-1,-1,-1,-1,-1,-1,-1,-1,-1,-1,-1,-1,-1,-1,-1,-1,-1,-1,-1,-1,-1,-1,-1,-1,-1,-1,-1,-1,-1,-1,-1,-1,-1,-1,-1,-1,-1,-1,-1,-1,-1,-1,-1,-1,-1,-1,-1,-1,-1,-1,-1,-1,-1,-1,-1,-1,-1,-1,-1,-1,-1,-1,-1,-1,-1,-1,-1,-1,-1,-1,-1,-1,-1,-1,-1,-1,-1,-1,-1,-1,-1,-1,-1,-1,-1,-1,-1,-1,-1,-1,-1,-1,-1,-1,-1,-1,-1,-1,-1,-1,-1],"split_conditions":[5E-1,4.45E1,5.15E1,8.5E0,4.75E1,1.5E0,2.35E1,1.5E0,1.15E1,1.05E1,5.15E1,3E0,1.75E1,-2.9107092E-2,2.65E1,2E1,3.4E1,8.5E0,2.75E1,7.5E0,1.35E1,2.45E1,2.75E1,1.7341278E-1,2.05E1,4.15E1,3.05E1,2.45E1,2.4175E4,1.6E1,4.2E1,3.5E0,4.05E1,7.5E0,2.75E1,1.25E1,4.2E1,-2.8880699E-2,9.5E0,2.41735E4,2.15E1,1.25E1,2.75E1,1.5E0,3.75E-1,2.4178E4,4.2E1,1.55E1,1.45E1,3.05E1,3.25E1,3.5E0,1.7221269E-1,2.0135E3,2.75E1,1.475E1,1.713046E-1,3.8E1,5E-1,6.5E0,2.25E1,3.5E0,-2.8956998E-2,2.5E0,2.25E1,2E1,2.416425E4,2.05E1,2.35E1,2.4E1,2.95E1,8.5E0,-2.908018E-2,5E-1,-2.8851926E-2,2.4179625E4,2.5E-1,5.5E0,-2.915804E-2,2.4174E4,-2.884365E-2,3.5E0,5E-1,1.0245E3,4.45E1,2.4158375E4,-2.8763061E-2,2.0145E3,1.6E1,2.5E0,3.1E1,1E1,2.4172E4,8.5E0,3E0,3.75E0,3.45E1,1.45E1,3.3E1,2.4174E4,1.25E0,4.5E0,-2.6689773E-2,2.0125E3,2.416975E4,2.25E1,5E-1,7.25E1,2E1,1.5E0,8.75E-1,5.5E0,3.5E0,2.5E0,3.85E1,1.15E1,3.5E0,1.65E1,2.35E1,1.45E1,2.55E1,3E0,-2.8704915E-2,2.5E-1,2.35E1,3.75E1,2.65E1,2E1,3.05E1,2.85E1,3.05E1,2.0145E3,2.417325E4,1.15E1,2.4173E4,2.4167625E4,1.25E1,2.9E1,2.35E1,-2.9031305E-2,4.3875E1,1.5E0,-2.9054424E-2,1.5E0,2.0105E3,5.59E2,1.15E1,3.15E1,4.8275862E-2,2.85E1,8.595E2,4.425E1,1.687918E-1,3.8E1,2.0125E3,1.35E1,4.65E1,5E-1,3.5E0,1.2E1,2.417025E4,-2.7559055E-2,2.545E2,1.65E1,1.65E1,2.416875E4,2.95E1,1.4820288E-1,-2.8741924E-2,2.625E0,-2.8535176E-2,2.41705E4,1.95E1,1.4099073E-1,2.0115E3,2E0,8.875E2,5E-1,2.75E1,5E-1,5.1775146E-2,3.5E0,6.38E2,3.5E0,2.625E0,1.15E1,-2.8422141E-2,8E0,-2.8544879E-2,2.4172E4,2.0125E3,3.5E0,1.5E0,1.635E2,6.075E1,3.5E0,5E-1,1.9995E3,2.41745E4,1.85E1,1.7E1,2.9E1,4.5E0,3.8E1,3.8E1,7.5E0,4.5E0,2.5E0,1.25E1,2.417475E4,2.4181125E4,1.5E0,2.05E1,2.4164E4,-2.9011E-2,1.05E1,1.55E1,2.4176E4,2.417625E4,2.5E0,-2.6407445E-2,5E-1,1.75E1,2.5E0,-2.9009977E-2,9.5E0,4E1,2.15E1,2.8E1,1.35E1,3.05E1,2.85E1,5E-1,2.4173E4,2.2875E1,2.5E0,9.5E0,4.65E1,3.795E2,3E0,-2.883865E-2,1.5E0,5.4E1,3.5E0,-2.8799176E-2,1.55E1,1.95E1,1.75E1,1.75E1,2.8899083E-2,2.05E1,1.5E0,-2.8988132E-2,1.1045E3,-2.7066717E-2,2.4173E4,3.95E1,1.775E1,-2.6336635E-2,2.07E2,8.8E1,5E-1,2.425E1,1.059E3,2.3140496E-2,-2.7391303E-2,2.85E1,2.205E2,-2.8963804E-2,3.6E1,2.0105E3,2.41785E4,1.6E1,-2.8235434E-2,5.5E0,-2.1270718E-2,6.4220177E-3,5E0,4.5E0,1.4639594E-1,2.8899083E-2,1.5875E1,3.5E0,2.4183E4,3.85E1,1.65E1,2.7E1,4.45E1,1.65E1,2.15E2,2.92E2,2.41725E4,5E-1,2.5E0,4.2E1,2.0145E3,2.55E1,1.75E1,2.15E1,-2.8738389E-2,6.485E2,2.417E4,2.25E1,4.65E1,2.45E1,7.5E0,1.027E3,2.7E1,5E-1,4.65E1,1.022E3,2.5E0,3.8625E1,2.94E2,-2.3773586E-2,2.7E1,7.5E0,2E0,1.5E0,-2.0710059E-2,1.4482758E-2,7.625E0,2.5E0,2.125E0,3E0,5E-1,5E-1,4.75E0,1.08E3,5.65E1,-2.8830314E-2,5.0875E1,3E0,2.4173E4,2E0,2.4173E4,3.5E0,1.15E1,2.0135E3,1.087E3,8.665E2,1.4125E1,1.75E0,5.5E0,5.5E0,1.6E1,-2.7354708E-2,-2.8074464E-2,7.5E0,2.75E0,-2.8926412E-2,1.45E1,4.625E0,-2.8290564E-2,4.65E1,2.41805E4,5.5E0,5E-1,5E-1,2.4171E4,1.7185089E-1,2.4171E4,3.65E1,-2.8567037E-2,5.5E0,2.41625E4,5E-1,2.41625E4,-2.9012812E-2,1.75E1,1.15E1,2.65E1,1.25E1,5.545E2,7.5E0,2.375E0,2.4164E4,2.4164E4,-2.8845722E-2,9.5E0,2.417675E4,2.417675E4,1.65E1,2.417625E4,2.35E1,2.65E1,1.75E1,1.5E0,1.07E3,2.5E0,9.845E2,-2.883549E-2,3E0,1.5E0,2.0115E3,1.7E1,1.8E1,2.4165625E4,1.95E1,1.5E1,2.4E1,1.5E1,3.05E1,2.95E1,-2.8824855E-2,2.85E1,9.425E2,3.3E1,1.0965E3,3.8E1,2.417025E4,6.25E1,5.555E2,6.5E0,2.4172E4,-2.7179081E-2,3.07E2,5E-1,8.25E1,-2.7868649E-2,2.5E0,6.4220177E-3,-2.0710059E-2,1.05E1,1.0975E3,1.15E1,6.5E0,2E0,1.25E1,5.05E1,3.425E1,2.4173E4,1.75E1,-2.8767994E-2,2.05E1,1.58E2,2.0145E3,1.0995E3,1.95E1,1.15E1,2.35E1,-2.4907244E-2,1.15E1,-2.8447423E-2,1.05E1,5E-1,-2.825112E-2,1E1,2.0095E3,2.003E3,1.027E3,6.517241E-2,9.105E2,9.210526E-2,2.3140496E-2,2.46E2,-2.476923E-2,4.1709844E-2,9.455E2,3.1E1,1.1E3,1.35E1,-2.5454545E-2,2.15E2,4.625E0,6.4220177E-3,-2.3786409E-2,1.4482758E-2,-1.7355373E-2,2.0115E3,-2.7621621E-2,1.7E1,1.10526316E-1,5E-1,5E-1,2.0135E3,1.5E0,2E0,6.44E2,2.5E1,3.35E1,2.0105E3,3.35E1,3.8E1,1.85E1,6.5E0,1.15E1,-2.8494118E-2,4.295E2,-2.8997425E-2,2.0135E3,1.07E2,2.013E3,1.5E0,-2.7116213E-2,1.35E1,2E0,2.725E2,3.025E2,6.1E1,2.0045E3,2.0125E3,3.8E1,1.056E3,4.25E1,1.5E0,-4.4585993E-3,1.0945E3,3.465E2,7.905E2,4.415E2,2.15E1,2.4162875E4,2.05E1,2.75E1,2.675E2,6.627219E-2,2.05E1,2.25E1,2.15E1,2.35E1,1.5E0,-2.4418605E-2,2.0145E3,2.4166875E4,2.0095E3,3.3E1,2.55E1,2.5E0,1.15E1,2.8925615E-3,3.5E0,-2.4007222E-2,2.4174E4,2.3140496E-2,2.8925615E-3,4.8275862E-2,1.5E0,-2.8333692E-2,2.5E0,2.002E3,-1.6055046E-2,2.45E1,-2.0710059E-2,2.8899083E-2,-2.6119402E-2,2E0,3.137931E-2,-4.4585993E-3,2.3140496E-2,9.633028E-2,-2.3773586E-2,2.2080535E-2,7E-2,1.2923076E-2,-1.0388005E-2,1.0413223E-1,-2.153847E-3,-2.5202751E-2,-1.9108636E-2,-2.5051419E-2,1.5760648E-1,-2.369738E-2,-2.3791749E-2,-2.153847E-3,-2.7271817E-2,-1.6633665E-2,-2.153847E-3,-2.3516353E-2,2.8871814E-2,-2.6524952E-2,5.533596E-3,-2.0088924E-2,-2.2204598E-2,6.062624E-3,7.325581E-2,-9.197081E-3,3.1203566E-2,8.350958E-2,-1.048253E-2,4.654054E-2,1.5730329E-3,9.633028E-2,7.192389E-2,1.2820224E-1,1.1510322E-1,2.8899083E-2,6.8257265E-2,6.4220177E-3,5.341515E-2,3.9683576E-3,9.472258E-3,-1.774393E-2,-2.8094525E-2,2.4299633E-2,-2.626775E-2,1.3695651E-1,8.034432E-3,-2.4418605E-2,-2.8216124E-2,-1.8485E-2,-2.3520779E-2,-2.6387572E-2,-2.1628395E-2,-7.247671E-3,-1.9054934E-2,-2.6733717E-2,-1.3384289E-2,2.6643598E-2,-1.3033392E-2,5.804744E-2,-2.6969647E-2,-1.4586806E-2,-1.9442275E-2,8.267716E-3,-2.904339E-2,-2.5485048E-2,3.842682E-3,-2.7942568E-2,2.8827105E-2,-1.7012743E-2,-2.901201E-2,-4.4519086E-3,-6.6109933E-3,-2.9003313E-2,-1.9578788E-2,-5.20556E-3,-2.3035076E-2,-2.7058056E-2,1.137184E-2,-2.8837744E-2,5.0907057E-2,3.780396E-3,-2.7040003E-2,-1.9216534E-2,2.5689446E-3,2.8703306E-2,5.7121995E-3,-2.6739169E-2,4.5386525E-3,2.3459831E-2,-2.2162697E-3,-2.296768E-2,-2.2357265E-2,-2.72742E-2,-1.9840583E-2,-1.0877514E-2,5.282454E-2,-2.8345779E-2,-2.9453833E-3,-2.9012611E-2,3.539751E-2,-4.8196097E-3,-6.7713694E-3,-2.885739E-2,-2.1475729E-2,-2.9007677E-2,8.223521E-2,4.9229216E-2,7.089352E-2,2.4074698E-2,5.056383E-2,1.8393127E-2,-1.2873004E-2,-2.439578E-2,-2.0239774E-2,-3.7708138E-3,-2.5430208E-2,-2.4137937E-3,-2.7248323E-2,2.5179847E-3,-2.6704669E-2,-1.720227E-2,-2.6645968E-2,-2.8224943E-2,-1.7501347E-2,3.946226E-3,-2.3579605E-2,-1.858686E-2,-2.3057995E-2,2.3116726E-2,2.7348165E-4,-9.661598E-3,3.8819443E-2,-7.150636E-3,6.270436E-4,-2.8391046E-2,1.997012E-2,-1.870327E-3,6.946971E-2,1.8188657E-2,9.7529514E-4,-1.4076407E-2,3.1832095E-2,-1.13020195E-2,-1.4275081E-2,-2.8745165E-2,-2.6881186E-2,2.8838484E-2,-2.8158411E-2,-2.4476143E-2,-2.5745586E-2,-1.8301023E-2,-2.7762566E-2,-2.2261484E-2,-1.048253E-2,1.06179774E-1,-1.5932899E-2,-2.8817493E-2,5.4683954E-2,1.1912928E-1,3.16742E-3,3.476821E-2,6.384471E-2,1.5217389E-2,2.639026E-2,4.2944774E-3,-1.5107914E-2,-2.5011832E-2,-1.6926281E-2,-1.3557142E-3,-1.618497E-2,2.9661015E-2,-5.4899013E-10,-2.0063695E-2,-1.9789984E-2,-2.6481722E-3,-2.6407296E-2,-1.1290323E-2,4.1043255E-3,5.796178E-2,3.526228E-2,7.553956E-3,3.323442E-2,1.1787565E-1,3.7479404E-2,1.7734468E-2,-2.5179863E-3,-2.7859105E-2,3.0963043E-2,2.4567142E-3,-8.629743E-3,-2.8615503E-2,-2.6137143E-2,-1.5658667E-2,-1.0747442E-2,-2.8855775E-2,2.3140496E-2,-2.0678338E-2,3.517588E-2,3.9908694E-4,-2.4344666E-2,2.8899083E-2,-3.996195E-3,-1.5840419E-2,-2.7952421E-2,-2.4137937E-3,-4.734652E-3,-2.6582276E-2,-2.7667686E-2,-2.0239774E-2,-2.586605E-2,3.6269424E-3,-6.7498074E-3,-1.9238902E-2,-5.4899013E-10,-2.462565E-2,1.5217391E-2,-2.009004E-2,8.076923E-2,7.26141E-3,7.855876E-3,-2.1270718E-2,-1.5743945E-2,2.3140496E-2,2.3140496E-2,-1.30705405E-2,1.0028652E-2,-2.1761658E-2,-2.4122236E-2,-1.6253002E-2,2.8899083E-2,-1.6055046E-2,6.363636E-2,1.9390574E-3,-2.2408148E-2,6.4220177E-3,-9.067358E-3,-2.714093E-2,1.5974666E-1,9.51153E-2,6.4220177E-3,-2.7457029E-2,-2.1761658E-2,2.8899083E-2,2.8925615E-3,-2.741738E-2,-1.7355373E-2,5.8091283E-2,1.339914E-1,7.997178E-2,2.8925615E-3,9.633028E-2,-1.6055046E-2,6.4220177E-3,-1.1458589E-2,-2.3129338E-2,-2.66688E-2,-2.1163648E-2,1.5570277E-2,-7.4717226E-3,-2.2861086E-2,8.021711E-3,9.484343E-3,1.5741627E-1,1.691061E-1,-2.6405692E-2,-1.8497555E-2,2.2952962E-3,-2.849991E-2,1.4964369E-2,6.776371E-4,-2.21768E-2,-2.70911E-2,-1.4573214E-2,-2.5191028E-2,-1.989359E-2,-2.5207756E-2,4.338843E-2,5.727273E-2,-8.945688E-3,1.5613382E-2,4.0530756E-2,-2.9045648E-3,-2.4418605E-2,4.9512193E-2,1.14088394E-1,-1.9310346E-2,3.5534237E-2,6.4896986E-2,9.237006E-2,-7.5860457E-10,4.869428E-2,1.12674795E-1,5.6138612E-2,7.657309E-2,2.2781065E-2,3.392973E-2,-2.9045648E-3,-2.0207852E-2,1.66419E-2,7.628798E-2,3.9873417E-2,-2.8644094E-2,-2.0239774E-2,6.4220177E-3,-2.2195121E-2,-2.8512586E-2,-2.0601127E-2,3.6842104E-2,-2.0710059E-2,1.359403E-1,1.7871326E-2,2.434925E-3,-2.1661386E-2,-1.598228E-2,2.134108E-2,5.7792373E-2,-2.7964676E-2,2.3140496E-2,-2.1270718E-2,3.1227967E-2,7.656088E-2,-2.7382646E-2,3.2755632E-2,-2.8724222E-2,-2.1183271E-2,8.8607594E-2,-2.704309E-2,7.788141E-2,1.2844871E-1,-2.7381739E-2,-9.6923085E-3,-2.6220696E-3,2.4454257E-2,9.289009E-2,1.2627196E-1,2.3140496E-2,1.267864E-1,9.879177E-2,4.848866E-2,1.1290322E-2,8.076923E-2,6.705739E-2,1.4482758E-2,7.2836787E-3,4.3233864E-2,1.0623701E-1,3.7560973E-2,-2.5264427E-2,3.3870965E-2,-6.31769E-3,-2.6402323E-2,2.8925615E-3,2.8899083E-2,6.4220177E-3,5.5263158E-2,-2.2195121E-2,3.6269424E-3],"split_indices":[4,16,16,15,16,15,15,15,16,15,16,16,15,0,15,16,16,16,15,15,15,15,15,0,16,16,16,15,18,16,16,16,16,16,15,16,16,0,15,18,15,15,15,6,18,18,16,15,15,15,16,5,0,12,15,18,0,16,10,15,16,15,0,16,15,15,18,15,15,16,15,15,0,10,0,18,18,15,0,18,0,5,8,0,11,18,0,12,11,15,16,15,17,16,16,18,16,17,11,17,18,8,0,12,18,16,19,17,11,16,18,15,15,15,16,15,16,15,15,15,15,11,0,18,15,16,15,16,15,15,15,12,18,15,17,18,17,0,15,0,18,6,0,5,12,0,8,11,0,15,0,18,0,16,9,11,11,19,15,16,18,0,0,15,15,18,16,0,0,18,0,18,15,0,12,6,0,19,15,8,0,5,0,5,18,16,0,18,0,18,12,5,5,0,18,15,10,9,18,16,16,16,15,16,16,15,15,5,15,18,18,5,15,18,0,16,15,17,18,8,0,8,15,5,0,15,16,16,16,16,15,15,18,18,18,5,8,11,0,11,0,5,0,5,0,15,15,15,15,0,11,6,0,0,0,17,11,18,0,0,17,10,18,0,0,0,15,0,0,0,12,17,16,0,17,0,0,17,8,0,0,18,16,18,16,15,16,11,15,0,0,18,19,5,11,12,15,16,15,0,0,17,15,16,15,8,0,11,19,11,0,5,18,0,0,11,8,6,8,0,0,18,8,18,11,10,10,18,0,0,0,18,11,18,6,18,5,8,12,0,0,18,18,15,15,11,0,0,15,18,0,16,18,0,11,17,15,19,19,18,0,18,16,0,15,18,19,18,0,15,8,15,15,0,8,18,18,17,0,15,18,18,15,18,15,15,17,6,0,6,0,0,11,5,9,16,16,18,15,16,16,16,16,15,0,15,0,16,0,11,18,18,0,8,17,0,0,19,17,0,6,0,0,8,0,8,8,6,15,18,18,17,15,0,15,0,9,0,15,8,15,0,8,0,15,8,0,0,12,9,0,0,0,0,0,0,0,0,0,17,0,17,0,0,18,0,0,0,0,12,0,0,0,17,8,9,5,6,0,11,16,12,16,16,16,16,15,0,0,0,12,17,12,6,0,11,5,0,0,18,9,12,11,0,18,5,0,0,0,0,0,15,18,15,15,0,0,15,15,15,15,5,0,12,18,12,18,18,8,8,0,8,0,17,0,0,0,5,0,6,9,0,11,0,0,0,5,0,0,0,0,0,0,0,0,0,0,0,0,0,0,0,0,0,0,0,0,0,0,0,0,0,0,0,0,0,0,0,0,0,0,0,0,0,0,0,0,0,0,0,0,0,0,0,0,0,0,0,0,0,0,0,0,0,0,0,0,0,0,0,0,0,0,0,0,0,0,0,0,0,0,0,0,0,0,0,0,0,0,0,0,0,0,0,0,0,0,0,0,0,0,0,0,0,0,0,0,0,0,0,0,0,0,0,0,0,0,0,0,0,0,0,0,0,0,0,0,0,0,0,0,0,0,0,0,0,0,0,0,0,0,0,0,0,0,0,0,0,0,0,0,0,0,0,0,0,0,0,0,0,0,0,0,0,0,0,0,0,0,0,0,0,0,0,0,0,0,0,0,0,0,0,0,0,0,0,0,0,0,0,0,0,0,0,0,0,0,0,0,0,0,0,0,0,0,0,0,0,0,0,0,0,0,0,0,0,0,0,0,0,0,0,0,0,0,0,0,0,0,0,0,0,0,0,0,0,0,0,0,0,0,0,0,0,0,0,0,0,0,0,0,0,0,0,0,0,0,0,0,0,0,0,0,0,0,0,0,0,0,0,0,0,0,0,0,0,0,0,0,0,0,0,0,0,0,0,0,0,0,0,0,0,0,0,0,0,0,0,0,0,0,0,0,0,0,0,0,0,0,0,0,0,0,0,0,0,0,0,0,0,0,0,0,0,0,0,0,0,0,0,0,0,0,0,0,0,0,0,0,0,0,0,0,0,0,0,0,0,0,0,0,0,0,0,0,0,0,0,0,0,0,0,0,0,0,0,0,0,0],"split_type":[0,0,0,0,0,0,0,0,0,0,0,0,0,0,0,0,0,0,0,0,0,0,0,0,0,0,0,0,0,0,0,0,0,0,0,0,0,0,0,0,0,0,0,0,0,0,0,0,0,0,0,0,0,0,0,0,0,0,0,0,0,0,0,0,0,0,0,0,0,0,0,0,0,0,0,0,0,0,0,0,0,0,0,0,0,0,0,0,0,0,0,0,0,0,0,0,0,0,0,0,0,0,0,0,0,0,0,0,0,0,0,0,0,0,0,0,0,0,0,0,0,0,0,0,0,0,0,0,0,0,0,0,0,0,0,0,0,0,0,0,0,0,0,0,0,0,0,0,0,0,0,0,0,0,0,0,0,0,0,0,0,0,0,0,0,0,0,0,0,0,0,0,0,0,0,0,0,0,0,0,0,0,0,0,0,0,0,0,0,0,0,0,0,0,0,0,0,0,0,0,0,0,0,0,0,0,0,0,0,0,0,0,0,0,0,0,0,0,0,0,0,0,0,0,0,0,0,0,0,0,0,0,0,0,0,0,0,0,0,0,0,0,0,0,0,0,0,0,0,0,0,0,0,0,0,0,0,0,0,0,0,0,0,0,0,0,0,0,0,0,0,0,0,0,0,0,0,0,0,0,0,0,0,0,0,0,0,0,0,0,0,0,0,0,0,0,0,0,0,0,0,0,0,0,0,0,0,0,0,0,0,0,0,0,0,0,0,0,0,0,0,0,0,0,0,0,0,0,0,0,0,0,0,0,0,0,0,0,0,0,0,0,0,0,0,0,0,0,0,0,0,0,0,0,0,0,0,0,0,0,0,0,0,0,0,0,0,0,0,0,0,0,0,0,0,0,0,0,0,0,0,0,0,0,0,0,0,0,0,0,0,0,0,0,0,0,0,0,0,0,0,0,0,0,0,0,0,0,0,0,0,0,0,0,0,0,0,0,0,0,0,0,0,0,0,0,0,0,0,0,0,0,0,0,0,0,0,0,0,0,0,0,0,0,0,0,0,0,0,0,0,0,0,0,0,0,0,0,0,0,0,0,0,0,0,0,0,0,0,0,0,0,0,0,0,0,0,0,0,0,0,0,0,0,0,0,0,0,0,0,0,0,0,0,0,0,0,0,0,0,0,0,0,0,0,0,0,0,0,0,0,0,0,0,0,0,0,0,0,0,0,0,0,0,0,0,0,0,0,0,0,0,0,0,0,0,0,0,0,0,0,0,0,0,0,0,0,0,0,0,0,0,0,0,0,0,0,0,0,0,0,0,0,0,0,0,0,0,0,0,0,0,0,0,0,0,0,0,0,0,0,0,0,0,0,0,0,0,0,0,0,0,0,0,0,0,0,0,0,0,0,0,0,0,0,0,0,0,0,0,0,0,0,0,0,0,0,0,0,0,0,0,0,0,0,0,0,0,0,0,0,0,0,0,0,0,0,0,0,0,0,0,0,0,0,0,0,0,0,0,0,0,0,0,0,0,0,0,0,0,0,0,0,0,0,0,0,0,0,0,0,0,0,0,0,0,0,0,0,0,0,0,0,0,0,0,0,0,0,0,0,0,0,0,0,0,0,0,0,0,0,0,0,0,0,0,0,0,0,0,0,0,0,0,0,0,0,0,0,0,0,0,0,0,0,0,0,0,0,0,0,0,0,0,0,0,0,0,0,0,0,0,0,0,0,0,0,0,0,0,0,0,0,0,0,0,0,0,0,0,0,0,0,0,0,0,0,0,0,0,0,0,0,0,0,0,0,0,0,0,0,0,0,0,0,0,0,0,0,0,0,0,0,0,0,0,0,0,0,0,0,0,0,0,0,0,0,0,0,0,0,0,0,0,0,0,0,0,0,0,0,0,0,0,0,0,0,0,0,0,0,0,0,0,0,0,0,0,0,0,0,0,0,0,0,0,0,0,0,0,0,0,0,0,0,0,0,0,0,0,0,0,0,0,0,0,0,0,0,0,0,0,0,0,0,0,0,0,0,0,0,0,0,0,0,0,0,0,0,0,0,0,0,0,0,0,0,0,0,0,0,0,0,0,0,0,0,0,0],"sum_hessian":[1.6814572E5,1.3804972E5,3.0096002E4,1.2089683E5,1.7152898E4,2.8310451E4,1.7855511E3,3.0754287E4,9.014254E4,7.10498E3,1.0047919E4,1.5210613E3,2.678939E4,4.8857147E2,1.2969797E3,3.631592E3,2.7122695E4,2.7276982E4,6.2865555E4,2.5217144E3,4.5832656E3,9.455021E3,5.92898E2,5.5028577E2,9.707756E2,1.4034613E4,1.2754776E4,1.02220416E3,2.7477554E2,1.824245E3,1.807347E3,2.2722125E4,4.400572E3,2.0235676E4,7.0413066E3,5.3352004E4,9.513552E3,1.4997552E3,1.0219592E3,1.01142865E3,3.571837E3,7.424082E3,2.030939E3,1.2955103E2,4.63347E2,3.6489798E2,6.0587756E2,1.3437552E4,5.970613E2,7.06849E3,5.686286E3,3.3257144E2,6.896327E2,2.5273471E2,2.2040817E1,1.3043267E3,5.199184E2,1.5367349E3,2.7061227E2,2.1595103E3,2.0562613E4,3.3085718E3,1.0920001E3,1.671698E4,3.518694E3,6.498613E3,5.426939E2,3.8240818E3,4.952792E4,8.880001E3,6.335511E2,6.8571436E2,3.3624493E2,7.60898E2,2.5053062E2,2.7210615E3,8.507756E2,4.0437554E3,3.3803267E3,1.012898E3,1.0180409E3,6.3428577E1,6.612245E1,3.2081635E1,4.3126535E2,2.9363266E2,7.126531E1,5.387756E2,6.710204E1,1.2129307E4,1.308245E3,2.2114287E2,3.759184E2,6.541715E3,5.267756E2,1.7816328E3,3.9046533E3,2.3730614E2,9.526531E1,2.3191838E2,2.0816328E1,1.1265306E1,1.0775511E1,2.5126532E2,1.0530613E3,1.2205715E3,3.161633E2,1.442449E2,1.26367355E2,1.2301226E3,9.293878E2,1.3278613E4,7.2840005E3,1.0459592E3,2.2626123E3,2.1093062E3,1.4607675E4,2.9701226E3,5.485715E2,4.342286E3,2.1563267E3,3.7224493E2,1.7044899E2,2.1857144E3,1.6383674E3,3.769837E4,1.1829552E4,5.026041E3,3.8539595E3,3.1224493E2,3.2130615E2,3.3722452E2,3.484898E2,2.7134695E2,4.8955106E2,2.2839185E3,4.3714288E2,5.5102043E1,7.956735E2,1.6920001E3,2.3517554E3,7.540409E2,2.5885715E2,5.191837E1,1.1510205E1,2.302041E1,4.3102043E1,3.0122452E1,1.9591838E0,4.1289798E2,1.8367348E1,1.939592E2,9.967348E1,5.348572E2,3.9183676E0,4.6775513E1,2.0326532E1,1.5068573E3,1.062245E4,1.1155103E3,1.9273471E2,1.7142859E1,2.0400002E2,2.9412247E2,8.179592E1,7.261225E2,5.8155923E3,3.413878E2,1.8538777E2,7.3714294E1,1.7079185E3,1.2465306E3,2.6581226E3,3.64898E1,2.0081635E2,7.8367355E1,1.689796E1,2.2334695E2,8.571429E0,1.8367348E1,2.4489799E0,6.8571434E0,4.4081635E0,3.1102043E1,2.2016328E2,6.791021E2,3.739592E2,3.7053064E2,8.500409E2,2.2824492E2,8.791837E1,7.24898E1,7.1755104E1,6.465307E1,6.171429E1,1.017796E3,2.1232654E2,9.918368E1,8.3020416E2,7.494858E3,5.7837554E3,2.1144492E3,5.1695513E3,5.2310205E2,5.228572E2,1.452245E3,8.1036743E2,1.5570613E3,5.5224493E2,3.8816328E3,1.0726042E4,1.4106123E2,2.8290615E3,3.622041E2,1.8636736E2,3.2439187E3,1.0983674E3,1.0831837E3,1.073143E3,1.089796E2,2.6326532E2,1.3493878E2,2.0507756E3,1.4532246E3,1.8514287E2,3.127984E4,6.4185312E3,8.788898E3,3.0406533E3,3.1354287E3,1.8906124E3,3.4939595E3,3.6000003E2,1.572245E2,1.5502042E2,1.5012247E2,1.7118369E2,3.3355106E2,3.6734695E0,2.6057144E2,8.791837E1,9.4040825E1,1.7730614E2,4.1118372E2,7.8367355E1,1.6579594E3,6.259592E2,5.412245E1,3.8302045E2,1.2244899E0,5.3877556E1,6.3330615E2,1.6236736E2,8.1502045E2,1.5367349E3,3.881633E2,3.6587756E2,4.2612247E1,9.306123E0,8.326531E0,3.1836736E0,1.1020409E1,1.2000001E1,4.1632656E1,1.4693879E0,1.5428573E1,1.4693878E1,2.7012247E2,1.4277551E2,1.4938777E1,3.4285717E0,1.457143E2,4.82449E1,5.135511E2,2.1306124E1,2.6938777E0,1.2244899E0,4.1632656E1,5.1428576E0,1.9102041E1,1.2244899E0,1.1674287E3,3.394286E2,1.1583674E3,9.464082E3,1.01387764E2,1.0141225E3,1.6726532E2,2.5469389E1,5.1428574E1,1.5257144E2,1.946939E2,9.942858E1,5.4857147E1,2.6938778E1,6.467756E2,7.934695E1,3.8737961E3,1.941796E3,6.710204E1,6.6122456E0,8.735511E2,3.729796E2,7.29796E1,2.585143E3,1.4914287E2,5.1673473E1,2.7673471E1,5.0693882E1,1.3469389E1,3.4285717E0,2.0644899E2,1.689796E1,4.1632657E0,4.4081635E0,3.6734695E0,1.4693878E1,4.1632657E0,2.6938777E0,2.4489799E0,1.9591838E0,1.8612246E1,1.2489797E1,1.324898E2,8.767348E1,6.0171436E2,7.7387764E1,5.6571434E1,3.139592E2,1.4253062E2,8.5714294E1,5.951021E1,2.8408165E1,5.436735E1,1.812245E1,4.2612247E1,2.9142859E1,9.306123E0,5.5346943E1,5.6571434E1,5.1428576E0,1.7191838E2,8.458776E2,1.089796E2,1.0334695E2,2.889796E1,7.028572E1,6.666123E2,1.6359184E2,6.750123E3,7.4473474E2,4.148572E3,1.6351838E3,1.687347E3,4.2710208E2,1.1576327E3,4.0119187E3,1.9910205E2,3.2400003E2,1.9836736E2,3.244898E2,1.1228572E3,3.293878E2,2.9779593E2,5.125715E2,8.941225E2,6.6293884E2,3.636735E2,1.8857144E2,3.2490615E3,6.325715E2,9.625715E3,1.1003267E3,8.032654E1,6.07347E1,1.7527349E3,1.0763267E3,2.7232654E2,8.9877556E1,5.583674E2,2.6855513E3,5.490613E2,5.4930615E2,9.036735E2,1.7951022E2,8.92898E2,1.802449E2,3.3306126E1,7.567348E1,3.3061226E1,1.01877556E2,5.4000006E2,1.5107756E3,8.169797E2,6.3624493E2,2.2579592E3,2.9021879E4,2.8601636E3,3.5583677E3,3.5348574E3,5.254041E3,1.908245E3,1.1324082E3,1.2957552E3,1.8396736E3,1.3861226E3,5.0448984E2,1.2269388E3,2.2670205E3,1.9346941E1,3.4065308E2,1.1510205E2,4.212245E1,3.0612247E1,1.2440817E2,8.914286E1,6.0979595E1,1.4228572E2,2.889796E1,3.296327E2,3.9183676E0,1.2244899E0,2.4489799E0,1.0261225E2,1.579592E2,5.1673473E1,4.236735E1,8.816327E0,1.684898E2,2.78449E2,1.3273471E2,4.978776E2,1.1600817E3,4.484082E2,1.7755103E2,9.795919E0,4.4326534E1,7.885715E1,3.041633E2,2.4979593E1,2.889796E1,3.3453064E2,2.9877554E2,8.0424493E2,1.0775511E1,3.5730615E2,3.0857145E1,3.26449E2,3.9428574E1,6.3673472E0,3.62449E1,1.9591838E0,6.3673472E0,1.7142859E0,1.4693879E0,5.3877554E0,5.632653E0,2.9387758E0,9.061225E0,3.9183678E1,2.4489799E0,7.8367352E0,6.8571434E0,5.6326534E1,2.1379593E2,1.2244899E0,1.3714287E1,1.9591838E0,1.4693879E0,1.2783675E2,1.7877552E1,4.6530617E1,1.7142859E0,4.1632657E0,1.7142859E1,5.3877554E0,3.62449E1,2.6938777E0,2.4489799E0,1.6089796E2,1.0065307E3,1.692245E2,1.7020409E2,1.0511022E3,1.0726531E2,8.888817E3,5.752653E2,4.236735E1,5.9020412E1,4.6677554E2,5.47347E2,1.5942859E2,7.8367352E0,1.2244899E1,1.3224491E1,4.236735E1,9.061225E0,5.8775516E0,1.466939E2,1.4351021E2,5.1183678E1,7.6897964E1,2.2530613E1,3.4285717E1,2.057143E1,2.4734695E1,2.2040818E0,6.423674E2,4.4081635E0,7.518368E1,4.1632657E0,2.1911023E3,1.682694E3,3.4604083E2,1.5957552E3,4.1632657E0,2.4489799E0,7.63347E2,1.1020409E2,3.499592E2,2.302041E1,6.783674E1,5.1428576E0,7.7730615E2,1.8078369E3,9.526531E1,5.3877556E1,4.579592E1,5.8775516E0,2.6204084E1,1.4693879E0,4.604082E1,4.6530614E0,1.2000001E1,1.4693879E0,1.4693879E0,1.9591838E0,1.1240817E2,9.4040825E1,1.42040825E1,2.6938777E0,1.2244899E0,2.9387758E0,2.4489799E0,1.2244899E0,8.571429E0,6.1224494E0,1.9591838E0,2.2040818E0,1.4693879E0,1.2244899E0,4.4081635E0,1.42040825E1,6.8571434E0,5.632653E0,1.3102042E2,1.4693879E0,5.632653E0,8.2040825E1,2.5542859E2,3.4628574E2,9.061225E0,6.832654E1,5.0938778E1,5.632653E0,3.0465308E2,9.306123E0,5.632653E0,1.3689796E2,4.946939E1,1.0040817E1,4.1632657E0,2.42449E1,2.4734695E1,2.9632656E1,5.1428576E0,1.2979592E1,1.27346945E1,2.9877554E1,1.1265306E1,1.7877552E1,8.081634E0,1.2244899E0,4.726531E1,8.081634E0,5.5346943E1,1.2244899E0,3.9183676E0,1.2244899E0,1.812245E1,1.5379593E2,1.04571434E2,7.4130615E2,2.6204084E1,8.277551E1,9.061225E0,9.428572E1,1.3224491E1,1.56734705E1,8.228572E1,8.130613E1,6.5951025E2,6.090613E3,3.5779595E3,5.706123E2,1.6506123E2,1.4701226E3,4.222041E2,4.8979597E0,1.0545306E3,1.0310205E2,1.01363275E3,2.998286E3,1.819592E2,1.7142859E1,2.3559186E2,8.840817E1,1.346939E2,6.3673473E1,8.2114294E2,3.017143E2,1.8759184E2,1.4179593E2,3.3502045E2,1.7755103E2,5.80898E2,3.1322452E2,4.604082E2,2.0253062E2,2.7600003E2,8.767348E1,2.2354287E3,1.01363275E3,6.0048987E2,3.2081635E1,7.297715E3,2.3280002E3,3.0661227E2,7.9371436E2,3.991837E1,4.0408165E1,4.089796E1,1.9836737E1,1.7951022E2,1.5732246E3,7.312654E2,3.4506125E2,2.3779593E2,3.4530613E1,3.7004083E2,1.8832654E2,2.167837E3,5.177143E2,4.5575513E2,9.330613E1,3.6685718E2,1.8244899E2,7.021225E2,2.0155104E2,5.9755108E1,1.1975511E2,4.496327E2,4.4326535E2,2.8408165E1,1.5183675E2,1.3469389E1,1.9836737E1,7.3714294E1,1.9591838E0,1.42040825E1,1.8857143E1,9.208164E1,9.795919E0,8.436735E2,6.671021E2,7.9444904E2,2.2530613E1,4.7853064E2,1.577143E2,3.639184E2,1.8940409E3,6.3195923E3,2.2702287E4,1.9991022E3,8.610613E2,2.8126533E3,7.4571436E2,1.1260409E3,2.4088164E3,4.4081635E2,4.8132246E3,3.7983676E2,1.5284083E3,3.257143E2,8.066939E2,7.530613E2,5.426939E2,4.7118372E2,9.1493884E2,4.2465308E2,7.983674E1,7.236735E2,5.0326535E2,2.227592E3,3.9428574E1,1.1265306E1,8.081634E0,2.5812247E2,8.253062E1,6.1959187E1,5.314286E1,2.1551022E1,2.057143E1,2.0816328E1,9.795919E0,1.0212246E2,2.2285715E1,1.8857143E1,4.212245E1,1.1167348E2,3.0612247E1,1.6653063E1,1.2244899E1,1.7142859E0,2.2040818E0,8.742858E1,1.5183675E1,1.5453062E2,3.4285717E0,4.946939E1,2.2040818E0,2.3510206E1,1.8857143E1,5.8775516E0,2.9387758E0,8.5714294E1,8.277551E1,2.5714288E2,2.1306124E1,9.012245E1,4.2612247E1,4.4595923E2,5.191837E1,5.0375513E2,6.563266E2,8.47347E1,9.281633E1,1.4693879E0,8.326531E0,2.7428574E1,1.689796E1,7.763266E1,1.2244899E0,1.4914287E2,1.5502042E2,2.302041E1,1.9591838E0,1.8612246E1,1.0285715E1,2.8530615E2,1.3469389E1,7.8367352E0,2.9387758E0,7.8367355E1,2.7893878E2,1.7142859E0,3.247347E2,4.1632657E0,3.526531E1,2.4489799E0,3.9183676E0,3.355102E1,2.6938777E0,4.8979597E0,1.4693879E0,1.4693879E0,3.9183676E0,6.1224494E0,2.9387758E0,1.4693878E1,2.4489798E1,1.2244899E0,1.2244899E0,1.4693879E0,6.3673472E0,5.5102043E1,1.2244899E0,2.9387758E0,2.1085716E2,4.6530617E1,8.130613E1,1.2244899E0,4.5306126E1,2.9387758E0,1.2244899E0,1.4693879E0,1.56734705E1,1.4693879E0,3.9183676E0,2.2775513E1,1.3469389E1,1.4693879E0,1.2244899E0,1.2244899E0,1.2244899E0,8.253062E1,7.8367355E1,8.9142865E2,1.1510205E2,4.212245E1,1.2710205E2,1.5428572E2,1.5918368E1,1.0307756E3,2.0326532E1,7.959184E1,2.7673471E1,1.2717552E3,7.6170615E3,5.676735E2,7.5918374E0,2.0081635E1,3.8938778E1,5.189388E2,2.8408165E1,8.179592E1,7.763266E1,6.3673472E0,1.4693879E0,6.8571434E0,5.3877554E0,2.6448982E1,1.5918368E1,3.9183676E0,5.1428576E0,3.1836736E0,2.6938777E0,1.9591838E0,1.4473471E2,8.914286E1,5.436735E1,6.8571434E0,4.4326534E1,6.759184E1,9.306123E0,2.0081635E1,2.4489799E0,3.036735E1,3.9183676E0,7.8367352E0,1.27346945E1,1.444898E1,1.0285715E1,6.28898E2,1.3469389E1,1.2244899E0,3.1836736E0,4.359184E1,3.1591839E1,1.7142859E0,2.4489799E0,4.1951022E2,1.7715919E3,1.2134695E3,4.6922452E2,1.1877552E2,2.2726532E2,1.5724899E3,2.3265308E1,1.4693879E0,2.6938777E0,3.521633E2,4.1118372E2,9.942858E1,1.0775511E1,2.9093878E2,5.9020412E1,1.0285715E1,1.27346945E1,2.9632656E1,3.8204082E1,7.716735E2,5.632653E0,1.2357552E3,5.7208167E2,7.420409E1,2.1061226E1,1.4693879E0,5.240817E1,3.8693882E1,7.1020412E0,3.4285717E0,2.4489799E0,2.42449E1,1.9591838E0,1.7632654E1,2.8408165E1,8.816327E0,3.1836736E0,1.089796E2,3.4285717E0,4.6530614E0,9.551021E0,1.4693879E0,1.2244899E0,1.2244899E0,1.7142859E0,3.1836736E0,2.9387758E0],"tree_param":{"num_deleted":"0","num_feature":"20","num_nodes":"909","size_leaf_vector":"0"}},{"base_weights":[-9.029663E-2,-8.510952E-3,-5.8330894E-1,-3.1817967E-1,8.39231E-2,-1.1406021E-1,-4.5403168E-1,1.4413485E-1,-2.7134472E-1,-2.2185206E-2,-5.286079E-1,-3.3972487E-2,-4.829257E-1,1.8855447E-1,-4.0460953E-1,1.8260254E-1,-3.442233E-1,-1.6995415E-1,4.5828965E-1,-5.698023E-1,-4.3452957E-1,-5.735987E-1,1.8304832E-1,-5.2565175E-1,-2.4563606E-1,1.2153948E-1,4.0034387E-1,-1.4444311E-1,-4.564636E-1,5.438775E-1,-5.330841E-1,-4.526904E-1,-1.02232516E-1,-3.069238E-1,7.984087E-2,7.8751636E-1,-1.24908686E-1,-5.703805E-1,-1.5469614E-1,-4.4220456E-1,1.353965E-1,-5.788992E-1,-3.6842105E-1,-1.6687935E-2,3.1679627E-1,-5.613942E-1,-3.2661164E-1,8.1577516E-1,-3.8918972E-1,2.5221014E-1,-2.8078275E-2,1.0397438E-1,5.857508E-1,3.4196794E-1,-5.7920325E-1,-3.2012796E-1,-5.032428E-1,7.597296E-1,-1.1145632E-1,-5.356801E-1,5.7798165E-1,-2.608389E-1,-5.1994485E-1,2.3022138E-1,-2.9041472E-1,-2.0408231E-1,-5.3390336E-1,3.8181815E-1,-2.245134E-1,8.970294E-1,6.483935E-1,3.9647093E-1,-2.5756863E-1,1.2844035E-1,-3.4710744E-1,-3.6032298E-1,-4.686904E-1,8.3419687E-1,-2.4396783E-1,5.7798165E-1,-5.293006E-1,-2.7323565E-1,2.3422632E-1,1.5069965E-1,5.51191E-1,-5.6306005E-1,-2.9494852E-1,-4.6983474E-1,-2.0266448E-1,1.3345073E0,1.8918917E-1,-4.2292196E-1,5.0951844E-1,-2.8324476E-1,2.8796348E-1,-1.5541948E-1,2.7546188E-1,2.725822E-1,-3.4454477E-1,-1.3367483E-2,6.6238946E-1,4.634711E-1,6.774458E-2,-3.2807288E-1,2.8084248E-1,-5.7171506E-1,-3.4788314E-1,5.010166E-1,1.0119197E0,1.0490994E-1,-3.22676E-1,-5.4189414E-1,-3.886542E-1,-3.3101642E-1,1.6171482E-1,-4.1814256E-1,-5.501226E-1,-3.940252E-1,7.2130567E-1,9.139854E-3,-4.3053994E-1,-2.7843285E-1,4.5026797E-1,-5.5430686E-1,-4.6239644E-1,7.411921E-1,1.0416356E-2,-4.7962925E-1,2.8109316E-2,8.0154324E-1,1.2629851E0,4.4194084E-1,7.1710795E-1,1.6185741E-1,6.9877404E-1,-4.255835E-1,2.5852942E-1,-2.3452026E-1,-5.745789E-1,-4.8128638E-1,-2.4854745E-1,1.6568045E-1,-4.7035572E-1,1.0277323E-1,-2.9915243E-1,-2.0584214E-2,5.48986E-1,2.9279625E-1,-3.908892E-2,5.768201E-1,-3.5311574E-1,-5.647348E-1,-4.5145285E-1,1.2708016E-1,-3.6914447E-1,-5.1364267E-1,-2.532027E-1,3.469897E-4,-5.5863535E-1,1.7723615E0,1.1934197E0,4.148835E-1,-3.2129195E-1,-4.408382E-1,8.430197E-1,1.0465443E0,4.028909E-1,-4.2192787E-1,1.2937073E-1,6.150511E-1,1.6638833E-1,3.342929E-1,-2.4847806E-1,4.6760055E-1,-1.4672577E-1,-5.773414E-2,6.430156E-1,-4.4184434E-1,1.4825724E-1,-2.9731235E-1,2.666648E-1,8.347795E-1,4.3630928E-1,2.1076508E-1,5.4825515E-1,7.168E-1,1.5955407E-2,-2.6109627E-1,-4.0794396E-1,1.8497409E0,-9.026965E-2,-4.9368906E-1,-5.8128256E-1,7.4183956E-2,-4.8738888E-1,3.9547798E-1,7.071561E-1,1.04289E0,2.3187105E-1,-1.1630148E-1,2.937771E-1,6.385403E-2,-3.615894E-1,-4.519787E-1,-5.536813E-1,3.9737988E-1,-4.9763033E-1,-1.9519858E-1,-4.379114E-1,1.2202852E0,-1.9765212E-1,-5.3139716E-1,-1.996554E-1,-5.673842E-1,-3.920401E-1,-2.3905797E-1,-5.782589E-1,9.220825E-1,-4.9000803E-2,6.057492E-1,-3.7573272E-1,-3.2421297E-1,-5.219567E-1,-4.865653E-1,7.359258E-3,2.9943126E-1,7.3343766E-1,-5.208157E-1,-5.6442E-1,-5.397704E-1,-4.088005E-1,4.376646E-1,1.049327E0,-2.4628247E-1,2.6674137E-1,-5.085549E-1,-3.9317265E-1,-1.9029127E-1,2.4513315E-1,4.9968594E-1,8.4711343E-1,1.4226433E0,9.2482907E-1,5.231146E-1,7.495536E-2,7.8325367E-1,5.1363564E-1,4.8075983E-1,-4.3357093E-2,7.5923496E-1,-4.585153E-1,-2.1843195E-1,-5.255829E-1,3.401484E-1,-7.434322E-2,-4.476946E-1,-1.16260394E-1,1.2844035E-1,-4.829886E-1,2.6415092E-1,-3.4133533E-1,-3.2110092E-1,5.7798165E-1,-8.860761E-2,1.0275229E0,-2.2230935E-1,-4.1263157E-1,1.7240128E-1,-2.4319799E-1,7.145783E-1,1.2695794E-1,1.285291E-1,4.961452E-1,-1.7129503E-1,1.1097293E-1,4.1641656E-1,7.4545103E-1,-4.754717E-1,5.785123E-2,-5.696594E-1,-5.4229707E-1,7.803277E-2,-5.449351E-1,5.812274E-1,-1.778291E-1,-5.618905E-1,-2.485752E-1,-4.6748224E-1,-5.791543E-1,-3.0999616E-1,4.590162E-2,-7.466952E-2,3.2995057E-1,-3.3546326E-1,-5.6050533E-1,4.5562127E-1,1.8404415E0,1.0003856E0,1.6933686E0,2.1270055E-1,6.5306115E-1,3.9737988E-1,-3.897837E-1,-4.9958265E-1,-2.4427962E-1,3.5128516E-1,1.2430632E0,5.0909084E-1,1.4638069E0,1.7781095E-1,8.9804584E-1,-4.5081237E-1,-1.8068607E-1,3.491951E-1,7.243468E-2,7.219987E-1,6.207863E-2,-1.2337305E-1,2.5104985E-1,2.4530803E-1,1.0963243E0,-3.2349458E-1,1.2566872E-1,7.3946565E-1,1.9866629E-1,-4.982227E-1,2.2290722E-1,1.6142683E-1,-3.00869E-1,7.546662E-1,1.8424489E-1,-4.6210122E-1,-2.4778761E-1,4.284936E-1,-1.430507E-1,-7.580945E-2,-5.142006E-1,9.4085604E-1,3.926383E-2,1.0163808E0,4.2483303E-1,6.1460245E-1,-1.8418016E-1,-1.4028072E-2,7.6227754E-1,1.7126495E-1,6.048891E-1,-8.022924E-2,1.4646153E0,-1.5782239E-1,1.6245066E-1,-1.617247E-1,-3.772296E-1,-4.2154267E-1,-2.8964177E-1,5.7798165E-1,2.2105262E0,-3.3142036E-1,7.5121945E-1,-5.014837E-1,1.10671915E-1,-8.632709E-2,2.8050295E-1,-5.75162E-1,-3.067967E-1,4.3695584E-1,-2.223176E-1,7.7083063E-1,2.994652E-1,8.6691517E-1,1.0935677E0,3.884738E-1,-4.585153E-1,-3.3577615E-1,7.7748806E-3,6.1649317E-1,1.7899364E-1,-3.8181818E-1,3.7523103E-1,-3.9004257E-1,3.4941748E-2,-2.106319E-1,-5.1675063E-1,-2.5454545E-1,-5.565798E-1,1.1052631E0,-3.862069E-1,-2.3268698E-1,-5.5879825E-1,-1.02960564E-1,-5.747254E-1,-5.2384496E-1,-2.2444142E-1,9.3094623E-1,1.6437246E0,2.643625E-1,-4.282107E-1,-5.464786E-1,-4.5730177E-1,-1.3746849E-1,-3.3191392E-1,-5.729333E-1,-5.350787E-1,-3.3416587E-1,-5.036252E-1,-2.588928E-2,-4.517855E-1,5.2940524E-1,1.0645473E0,-2.6404715E-1,3.7415482E-2,4.377274E-1,1.2584039E0,-2.8975457E-1,-5.796178E-1,-3.9139694E-1,-7.8531764E-2,-4.2948443E-1,-5.675156E-1,5.8238167E-1,-4.9332505E-1,-4.610874E-1,3.8739854E-1,5.702428E-1,1.9912641E-1,-3.4461537E-1,7.8490746E-1,-5.7003254E-1,-4.3683046E-1,-5.563413E-1,-3.98314E-1,5.7798165E-1,-4.1671944E-1,1.7455575E-1,5.832845E-1,8.5576814E-1,1.2380062E0,-2.997407E-1,-3.1102488E-2,3.6246646E-2,3.931082E-1,-5.472298E-1,-4.5059976E-1,-2.2520936E-1,-4.4524392E-1,-2.8160617E-1,6.23834E-2,3.6158127E-1,1.2565094E-1,-2.7741099E-2,5.9179157E-1,7.670524E-1,9.9762464E-1,1.106267E0,1.6289918E0,1.020408E0,5.4368925E-1,5.918211E-1,-3.2825336E-2,2.245989E-1,-3.9904988E-1,9.4749314E-1,6.593894E-1,3.8727307E-1,7.752011E-1,-1.2173914E-1,8.365458E-1,1.5957911E-1,-5.055165E-1,3.9999998E-1,9.1177577E-1,3.465346E-1,-2.507955E-1,-5.2807754E-1,1.2844035E-1,-4.9201277E-1,3.755998E-1,-2.9683885E-1,4.6580404E-1,-4.6857435E-1,1.2844035E-1,8.471337E-1,-1.5641381E-1,-4.3282506E-1,-5.062984E-1,1.0275229E0,-2.0487805E-1,-6.466514E-2,-4.499473E-1,1.7451522E-1,-4.647303E-1,-2.505561E-1,5.121951E-1,-4.470016E-1,2.4221437E-2,1.19747095E-1,1.2727273E0,3.6332178E-1,-3.1921825E-1,8.2076585E-1,3.1460658E-2,-4.883721E-1,3.1321537E-1,-3.147377E-1,2.6296955E-1,8.418839E-1,3.4501904E-1,3.5989698E-2,-3.980471E-1,-1.7099692E-8,1.2888086E0,-6.796118E-2,4.8227513E-1,9.4406974E-1,5.5001813E-1,-5.731712E-1,-5.5202204E-1,-5.647075E-1,-5.047381E-1,4.4094485E-1,-3.9854014E-1,-5.5048627E-1,5.785123E-2,-3.6842105E-1,1.0880828E0,-3.6842105E-1,4.628099E-1,-3.5947257E-1,-5.5118125E-2,-4.3338594E-1,-5.0577873E-1,-2.4236253E-1,-4.5225516E-1,-3.121903E-1,6.8141586E-1,5.4963525E-2,-1.5351927E-1,4.572671E-2,4.1869843E-1,-4.7035572E-1,1.2844035E-1,1.2844035E-1,5.7798165E-1,5.350318E-1,1.9013262E0,7.9083E-1,1.3431734E0,1.3733238E0,2.4100578E0,-4.7855824E-2,5.113221E-1,1.1847672E0,4.1815045E-1,-3.2110092E-1,7.455621E-1,-5.285815E-1,-1.2173914E-1,-5.3962445E-1,-4.027122E-1,-2.573743E-1,5.2238804E-1,-2.2580646E-1,5.177195E-1,1.5705794E0,2.274368E-1,-5.8091298E-2,1.0880828E0,2.2292991E-1,1.9283018E0,-1.6650149E-1,3.7507278E-1,1.1117195E0,1.3418528E-1,-4.5529702E-1,1.6153846E0,-2.9227573E-2,-3.991143E-1,5.9715635E-1,2.584615E-1,1.497581E-1,-8.3321944E-2,2.2537106E-1,8.8352054E-1,1.6781756E-1,-2.4911033E-1,2.116618E-1,-4.5764905E-1,3.1127882E-1,-1.804229E-1,4.592134E-1,-9.991675E-2,5.7263255E-1,1.1591378E0,-3.7057185E-1,6.823388E-2,2.1658832E-1,-3.927967E-2,9.143253E-1,4.202845E-1,-5.980869E-3,1.0351999E0,-5.434113E-1,-1.7893107E-1,-4.2200634E-1,5.4547036E-1,-9.8076105E-2,6.6390955E-1,-4.489903E-1,-4.769708E-2,8.7028056E-1,1.7898048E-1,-5.467634E-1,5.417198E-1,-4.7801736E-1,-3.3741167E-1,2.9647041E-2,-3.3494338E-1,5.9743947E-1,2.3067994E-1,-2.0186047E-1,1.8247645E-1,3.4036908E-1,-5.02324E-1,-5.246992E-1,9.655172E-1,1.1391622E0,7.531372E-1,-4.059502E-1,2.6799265E-1,1.0627292E0,3.7583888E-1,-2.4119707E-2,6.5175545E-1,8.5889477E-1,3.435449E-1,-5.737391E-1,1.2333086E-2,3.289365E-1,-1.9235724E-1,9.9900883E-1,1.4157301E-1,7.6038337E-1,5.491851E-2,2.1795797E-1,6.508514E-1,3.867403E-1,-4.516129E-1,1.2844035E-1,1.7433962E0,7.5121945E-1,-2.0913531E-1,2.0180793E-1,-4.754717E-1,-3.1601104E-1,-8.9592464E-2,-3.3881914E-2,-3.964836E-1,-4.0331322E-1,-5.381846E-1,-3.9238155E-1,5.3206646E-1,-4.516129E-1,2.2292991E-1,1.2727273E0,-1.0979803E-8,-4.4217992E-1,-5.668533E-1,1.0275229E0,-4.3523315E-1,-1.8360049E-1,3.1835613E-1,-3.0355594E-1,3.8806453E-1,-5.794309E-1,-4.2268983E-1,-2.5957724E-1,-5.5341303E-1,5.890801E-1,2.838171E-1,-3.607532E-1,5.121951E-1,6.814793E-1,1.3196172E0,-1.6944025E-1,7.2309893E-1,9.8196054E-1,6.0398996E-1,1.1835691E0,9.611547E-1,-9.695292E-2,6.3839996E-1,-9.5310144E-2,-4.96063E-1,1.4713376E0,-8.098729E-2,-3.422984E-2,8.818897E-1,-1.03762835E-1,2.6415092E-1,5.785123E-2,-4.9201277E-1,8.471337E-1,1.6166279E-1,-4.1182104E-1,-2.839758E-2,-2.988764E-1,7.5121945E-1,-3.6191678E-1,3.043478E-1,-8.917198E-2,-5.2955586E-1,-4.754717E-1,1.6568045E-1,-2.4454148E-1,-5.5804324E-1,-4.8442906E-1,4.628099E-1,-2.5680774E-1,1.1941471E-1,2.9590484E-1,-5.383695E-1,-1.5782768E-1,-3.2391012E-1,7.924526E-2,1.0023799E0,1.9158546E0,1.046225E0,7.9878256E-2,5.2822804E-1,-1.457209E-1,-4.744809E-1,-4.6278355E-1,-5.6692773E-1,-2.289577E-1,-5.2967507E-1,-1.7290425E-8,-2.6551974E-1,-4.4460857E-1,-2.5761256E-1,-4.1498965E-1,-5.75012E-1,-4.2033058E-1,-2.4495612E-1,-2.1506442E-1,-5.369144E-1,-1.1475411E-1,2.0246816E-1,-4.836176E-1,-1.8543047E-1,3.0992147E-1,7.842949E-1,1.0942171E0,2.4216214E-1,-4.563691E-1,-1.3587978E-1,9.4885215E-2,-3.27252E-1,1.10458694E-1,5.1839834E-1,3.1024927E-1,1.3486651E0,-2.536456E-1,-4.990619E-1,-5.1374006E-1,-2.4679634E-1,1.7380854E-1,-1.7154315E-1,-5.001634E-1,-3.37673E-1,-5.757962E-1,-4.7711557E-1],"categories":[],"categories_nodes":[],"categories_segments":[],"categories_sizes":[],"default_left":[true,true,false,true,true,true,true,true,true,true,true,true,true,true,true,true,true,true,true,true,true,true,true,true,true,true,true,true,true,true,true,true,true,true,true,true,true,false,true,true,true,false,true,true,true,true,true,true,true,true,true,true,true,true,false,true,true,true,true,true,false,true,true,true,true,true,true,true,true,true,true,true,true,false,false,true,true,false,true,false,false,true,true,true,true,true,true,true,true,true,true,true,true,true,true,true,true,true,true,true,true,true,true,true,true,true,true,true,true,true,true,true,true,true,true,true,true,true,true,true,true,true,true,true,true,true,true,true,true,true,true,true,true,true,true,true,true,true,false,true,true,true,false,true,true,true,true,true,true,true,true,true,true,true,true,true,true,true,true,true,true,true,true,true,true,true,true,true,true,true,true,true,true,true,true,true,true,true,true,true,true,true,true,true,true,true,true,true,true,true,true,true,false,true,true,true,true,true,true,true,true,true,true,true,true,true,true,true,true,true,true,true,true,true,true,true,false,true,true,true,true,true,true,true,true,true,true,true,false,true,true,true,true,true,true,true,true,true,true,true,true,true,true,true,true,true,true,true,true,true,false,true,true,true,true,true,true,false,true,true,true,false,false,true,false,true,true,true,true,true,true,true,true,true,true,true,true,false,false,true,true,true,true,true,true,false,true,true,false,true,true,true,true,true,false,true,true,true,true,true,true,true,true,true,true,true,true,true,true,true,true,true,true,true,true,true,true,true,true,true,true,true,true,true,true,true,true,true,true,true,true,true,true,true,true,true,true,true,true,true,true,true,true,true,true,true,true,true,true,true,true,true,true,true,true,false,false,true,true,true,true,true,true,true,true,true,true,true,true,true,true,true,false,true,true,true,true,true,true,true,true,true,true,true,true,false,false,true,false,true,false,true,true,true,true,true,true,true,true,true,true,false,true,true,true,true,true,true,true,true,true,true,true,true,false,true,true,true,true,false,false,false,false,false,false,false,false,false,false,false,false,false,false,false,false,false,false,false,false,false,false,false,false,false,false,false,false,false,false,false,false,false,false,false,false,false,false,false,false,false,false,false,false,false,false,false,false,false,false,false,false,false,false,false,false,false,false,false,false,false,false,false,false,false,false,false,false,false,false,false,false,false,false,false,false,false,false,false,false,false,false,false,false,false,false,false,false,false,false,false,false,false,false,false,false,false,false,false,false,false,false,false,false,false,false,false,false,false,false,false,false,false,false,false,false,false,false,false,false,false,false,false,false,false,false,false,false,false,false,false,false,false,false,false,false,false,false,false,false,false,false,false,false,false,false,false,false,false,false,false,false,false,false,false,false,false,false,false,false,false,false,false,false,false,false,false,false,false,false,false,false,false,false,false,false,false,false,false,false,false,false,false,false,false,false,false,false,false,false,false,false,false,false,false,false,false,false,false,false,false,false,false,false,false,false,false,false,false,false,false,false,false,false,false,false,false,false,false,false,false,false,false,false,false,false,false,false,false,false,false,false,false,false,false,false,false,false,false,false,false,false,false,false,false,false,false,false,false,false,false,false,false,false,false,false,false,false,false,false,false,false,false,false,false,false,false,false,false,false,false,false,false,false,false,false,false,false,false,false,false,false,false,false,false,false,false,false,false,false,false,false,false,false,false,false,false,false,false,false,false,false,false,false,false,false,false,false,false,false,false,false,false,false,false,false,false,false,false,false,false,false,false,false,false,false,false,false,false,false,false,false,false,false,false,false,false,false,false,false,false,false,false,false,false,false,false,false,false,false,false,false],"id":1,"left_children":[1,3,-1,5,7,9,11,13,15,17,19,21,23,25,27,29,31,33,35,37,39,41,43,45,47,49,51,53,55,57,59,61,63,65,67,69,71,-1,73,75,77,-1,79,81,83,85,87,89,91,93,95,97,99,101,-1,103,105,107,109,111,-1,113,115,117,119,121,123,125,127,129,131,133,135,-1,-1,137,139,-1,141,-1,-1,143,145,147,149,151,153,155,157,159,161,163,165,167,169,171,173,175,177,179,181,183,185,187,189,191,193,195,197,199,201,203,205,207,209,211,213,215,217,219,221,223,225,227,229,231,233,235,237,239,241,243,245,247,249,251,253,255,-1,257,259,261,-1,263,265,267,269,271,273,275,277,279,281,283,285,287,289,291,293,295,297,299,301,303,305,307,309,311,313,315,317,319,321,323,325,327,329,331,333,335,337,339,341,343,345,347,349,351,353,355,357,359,-1,361,363,365,367,369,371,373,375,377,379,381,383,385,387,389,391,393,395,397,399,401,403,405,-1,407,409,411,413,415,417,419,421,423,425,427,-1,429,431,433,435,437,439,441,443,445,447,449,451,453,455,457,459,461,463,465,467,469,-1,471,473,475,477,479,481,-1,483,485,487,-1,-1,489,-1,491,493,495,497,499,501,503,505,507,509,511,513,-1,-1,515,517,519,521,523,525,-1,527,529,-1,531,533,535,537,539,-1,541,543,545,547,549,551,553,555,557,559,561,563,565,567,569,571,573,575,577,579,581,583,585,587,589,591,593,595,597,599,601,603,605,607,609,611,613,615,617,619,621,623,625,627,629,631,633,635,637,639,641,643,645,647,649,651,653,655,657,659,-1,-1,661,663,665,667,669,671,673,675,677,679,681,683,685,687,689,-1,691,693,695,697,699,701,703,705,707,709,711,713,-1,-1,715,-1,717,-1,719,721,723,725,727,729,731,733,735,737,-1,739,741,743,745,747,749,751,753,755,757,759,761,-1,763,765,767,769,-1,-1,-1,-1,-1,-1,-1,-1,-1,-1,-1,-1,-1,-1,-1,-1,-1,-1,-1,-1,-1,-1,-1,-1,-1,-1,-1,-1,-1,-1,-1,-1,-1,-1,-1,-1,-1,-1,-1,-1,-1,-1,-1,-1,-1,-1,-1,-1,-1,-1,-1,-1,-1,-1,-1,-1,-1,-1,-1,-1,-1,-1,-1,-1,-1,-1,-1,-1,-1,-1,-1,-1,-1,-1,-1,-1,-1,-1,-1,-1,-1,-1,-1,-1,-1,-1,-1,-1,-1,-1,-1,-1,-1,-1,-1,-1,-1,-1,-1,-1,-1,-1,-1,-1,-1,-1,-1,-1,-1,-1,-1,-1,-1,-1,-1,-1,-1,-1,-1,-1,-1,-1,-1,-1,-1,-1,-1,-1,-1,-1,-1,-1,-1,-1,-1,-1,-1,-1,-1,-1,-1,-1,-1,-1,-1,-1,-1,-1,-1,-1,-1,-1,-1,-1,-1,-1,-1,-1,-1,-1,-1,-1,-1,-1,-1,-1,-1,-1,-1,-1,-1,-1,-1,-1,-1,-1,-1,-1,-1,-1,-1,-1,-1,-1,-1,-1,-1,-1,-1,-1,-1,-1,-1,-1,-1,-1,-1,-1,-1,-1,-1,-1,-1,-1,-1,-1,-1,-1,-1,-1,-1,-1,-1,-1,-1,-1,-1,-1,-1,-1,-1,-1,-1,-1,-1,-1,-1,-1,-1,-1,-1,-1,-1,-1,-1,-1,-1,-1,-1,-1,-1,-1,-1,-1,-1,-1,-1,-1,-1,-1,-1,-1,-1,-1,-1,-1,-1,-1,-1,-1,-1,-1,-1,-1,-1,-1,-1,-1,-1,-1,-1,-1,-1,-1,-1,-1,-1,-1,-1,-1,-1,-1,-1,-1,-1,-1,-1,-1,-1,-1,-1,-1,-1,-1,-1,-1,-1,-1,-1,-1,-1,-1,-1,-1,-1,-1,-1,-1,-1,-1,-1,-1,-1,-1,-1,-1,-1,-1,-1,-1,-1,-1,-1,-1,-1,-1,-1,-1,-1,-1,-1,-1,-1,-1,-1,-1,-1,-1,-1,-1,-1,-1,-1,-1,-1,-1,-1,-1,-1,-1,-1,-1],"loss_changes":[6.782031E3,4.1295503E3,0E0,9.1958984E2,2.3767212E3,5.0477454E2,2.4165332E2,2.3158062E3,5.3275977E2,7.7043585E2,9.070679E0,1.5030472E2,1.8874902E2,1.2473865E3,9.5917725E1,5.7638727E2,3.641377E2,2.8396515E2,4.9016046E2,3.1237793E-1,3.2811432E0,1.8704987E-1,2.446088E1,1.1212402E2,4.3373395E2,1.3053274E3,1.1607585E3,2.5055087E2,3.76709E1,2.0960294E2,2.4669037E0,1.2347632E2,2.6880347E2,1.2501141E2,2.7027487E2,2.4276062E1,6.3860634E1,0E0,2.458201E-1,1.4075012E0,3.000592E0,0E0,2.136115E0,2.3759274E1,2.1265266E1,5.773926E0,4.261017E1,1.09999146E2,7.619525E1,6.823801E2,1.2032112E3,6.150007E2,5.966953E2,1.860617E1,0E0,7.3407288E0,4.6765015E1,7.219574E1,1.6845224E1,4.7161865E-1,0E0,7.385208E1,2.1559326E1,4.7641837E2,1.1515718E2,1.7966751E2,2.1812744E0,1.9699988E2,9.441411E1,3.079718E1,9.928741E0,1.3175816E1,6.3882404E1,0E0,0E0,4.770323E0,1.394104E0,0E0,7.838839E-1,0E0,0E0,1.8088989E0,1.4980004E1,8.703497E0,5.465721E0,2.2299805E0,2.7161689E0,1.0454224E1,9.332237E1,9.338562E0,1.7967758E1,5.5172913E1,4.7961884E0,1.27735016E2,1.3284504E3,9.994152E2,7.4632806E2,7.232035E2,1.06608154E2,1.1734581E2,4.4867432E2,8.185715E0,5.8010483E0,7.9112854E0,1.2013721E1,1.9993896E0,7.9706665E1,1.1729919E1,1.336615E1,7.6576605E0,2.8265839E0,5.063629E-1,3.094419E0,3.0904434E1,1.3533517E2,4.012622E1,1.4697266E1,1.9404655E1,1.3454547E2,2.0120947E2,1.7998383E1,1.9715686E2,1.5879471E1,1.4459229E-1,1.3423996E0,6.969968E1,4.789303E1,1.6227264E0,3.4975204E1,9.545105E0,8.760468E0,5.411072E0,6.869049E0,7.0099325E0,6.0557365E0,1.1386261E1,4.94948E0,2.881054E0,0E0,5.9684753E-1,1.594028E0,8.7780255E-1,0E0,2.3050942E0,1.3990469E0,4.51428E0,5.7467804E0,6.0968018E0,2.774214E0,5.671829E0,3.7333918E-1,1.1386719E0,1.0019802E1,1.9713411E0,1.5511017E0,2.5316925E0,3.2345104E0,2.038298E1,7.7056885E-3,3.0270996E0,1.2134064E1,5.051073E0,2.5186048E0,2.7395233E1,6.263691E0,2.4996834E0,8.494709E0,1.1556915E1,7.009426E0,5.35322E2,5.975682E2,2.3720325E2,5.1725195E2,4.6211914E2,3.740428E2,1.66575E2,1.4256445E2,7.180847E0,3.0031366E1,3.516359E1,1.1387996E2,4.861421E2,5.517794E2,1.2279281E1,6.077141E0,7.7199373E0,4.1284723E0,9.378761E0,9.747772E-1,5.2959347E-1,3.7815337E0,1.6626434E0,0E0,1.1184467E1,1.594545E1,9.510868E0,4.588623E0,3.8809814E0,2.642734E0,2.3106294E0,3.5462713E0,2.627007E0,1.9259071E0,1.2696877E0,4.0171814E-1,3.0191774E0,3.584714E-1,3.2913666E1,2.1779068E1,9.51387E0,2.8445738E1,9.460449E-1,4.5328712E0,5.767822E-1,3.328598E0,1.6924892E1,0E0,3.803119E1,3.3689432E0,3.712976E1,9.16964E0,1.4275116E1,3.983368E0,1.4145111E1,2.490002E2,6.6125164E0,7.500801E0,1.0457916E0,0E0,1.3264084E-1,2.0130997E0,1.4442604E1,1.2509033E1,4.1742973E0,1.05932865E1,9.6987915E-1,1.5363102E0,8.505121E0,5.103405E0,4.752371E0,6.8044434E0,6.3530273E0,1.7298317E0,5.735668E0,2.5230222E0,7.6309204E0,4.176655E0,9.083117E0,6.261166E0,3.903942E0,0E0,3.4232416E0,6.776047E-1,4.4841595E0,4.52608E0,5.5535984E-1,3.0795593E0,0E0,3.81958E-1,2.1468751E0,7.883785E-1,0E0,0E0,1.1980097E0,0E0,2.288178E0,1.0296793E0,3.1121545E0,2.3639688E0,4.3102074E0,2.9901428E0,6.242737E0,3.997244E0,3.5030437E0,8.581375E0,3.7208576E0,3.6166954E0,0E0,0E0,3.474121E-1,1.7165527E0,5.5584884E0,6.055374E-1,3.1218863E0,1.2494799E0,0E0,9.7888684E-1,4.974594E-1,0E0,1.4245281E0,7.2953463E0,6.872512E0,3.8360481E0,4.6013987E-1,0E0,6.384021E-2,2.2154236E0,6.5388947E0,5.514038E0,4.6754675E0,5.624859E0,1.4085263E0,1.585535E0,6.895813E0,5.6591034E0,1.7183559E0,5.7591896E0,2.6434467E0,3.957676E0,3.7730837E0,3.7713604E0,1.4550964E1,5.952018E0,2.4412413E0,5.40434E0,6.082798E2,4.835208E1,6.1699023E2,4.8992834E2,2.3171109E2,1.1372437E1,2.8310657E2,4.6175217E1,1.750758E2,5.443655E2,2.119223E1,2.922002E2,2.1447034E2,5.5549988E1,1.4895618E2,1.4314069E2,3.1713867E0,4.3036137E0,6.123966E0,3.4972425E0,6.47289E1,6.255493E0,6.1169586E0,5.679668E1,1.3404785E2,2.046044E2,2.5621863E2,8.527362E1,4.4231496E0,4.0718517E0,2.6453602E0,4.327072E0,1.4098667E0,2.2467403E0,3.6193523E0,2.303823E0,4.896847E0,2.4750671E0,1.0785675E0,6.4129386E0,0E0,0E0,1.0484382E0,1.6390245E0,1.0557861E0,3.0314968E0,7.5498343E0,9.39627E0,1.998291E-1,3.7550755E0,7.8604584E0,2.6023347E0,6.9432755E0,5.429159E0,3.2151031E0,3.8270874E0,2.3818462E0,0E0,1.1334109E0,7.2800617E0,4.432266E0,1.8146436E0,4.091357E-1,9.757812E-1,1.2344933E0,3.1572366E0,1.6953509E0,3.2967758E-1,8.082252E-1,1.4659119E-1,0E0,0E0,1.5141166E0,0E0,2.5996037E1,0E0,1.0283478E1,2.2305164E0,3.318924E0,3.732956E0,4.2981877E0,2.255066E0,1.2507629E0,2.9711113E0,6.6952515E0,1.3702831E0,0E0,3.2976532E0,2.6606522E0,1.642025E0,3.8304393E0,1.4947891E0,1.0143127E1,1.2062988E1,1.2182481E0,2.7516565E0,7.1976433E0,5.556572E0,2.7202625E0,0E0,1.1909149E1,4.4274254E0,2.0068207E0,2.2613525E-1,0E0,0E0,0E0,0E0,0E0,0E0,0E0,0E0,0E0,0E0,0E0,0E0,0E0,0E0,0E0,0E0,0E0,0E0,0E0,0E0,0E0,0E0,0E0,0E0,0E0,0E0,0E0,0E0,0E0,0E0,0E0,0E0,0E0,0E0,0E0,0E0,0E0,0E0,0E0,0E0,0E0,0E0,0E0,0E0,0E0,0E0,0E0,0E0,0E0,0E0,0E0,0E0,0E0,0E0,0E0,0E0,0E0,0E0,0E0,0E0,0E0,0E0,0E0,0E0,0E0,0E0,0E0,0E0,0E0,0E0,0E0,0E0,0E0,0E0,0E0,0E0,0E0,0E0,0E0,0E0,0E0,0E0,0E0,0E0,0E0,0E0,0E0,0E0,0E0,0E0,0E0,0E0,0E0,0E0,0E0,0E0,0E0,0E0,0E0,0E0,0E0,0E0,0E0,0E0,0E0,0E0,0E0,0E0,0E0,0E0,0E0,0E0,0E0,0E0,0E0,0E0,0E0,0E0,0E0,0E0,0E0,0E0,0E0,0E0,0E0,0E0,0E0,0E0,0E0,0E0,0E0,0E0,0E0,0E0,0E0,0E0,0E0,0E0,0E0,0E0,0E0,0E0,0E0,0E0,0E0,0E0,0E0,0E0,0E0,0E0,0E0,0E0,0E0,0E0,0E0,0E0,0E0,0E0,0E0,0E0,0E0,0E0,0E0,0E0,0E0,0E0,0E0,0E0,0E0,0E0,0E0,0E0,0E0,0E0,0E0,0E0,0E0,0E0,0E0,0E0,0E0,0E0,0E0,0E0,0E0,0E0,0E0,0E0,0E0,0E0,0E0,0E0,0E0,0E0,0E0,0E0,0E0,0E0,0E0,0E0,0E0,0E0,0E0,0E0,0E0,0E0,0E0,0E0,0E0,0E0,0E0,0E0,0E0,0E0,0E0,0E0,0E0,0E0,0E0,0E0,0E0,0E0,0E0,0E0,0E0,0E0,0E0,0E0,0E0,0E0,0E0,0E0,0E0,0E0,0E0,0E0,0E0,0E0,0E0,0E0,0E0,0E0,0E0,0E0,0E0,0E0,0E0,0E0,0E0,0E0,0E0,0E0,0E0,0E0,0E0,0E0,0E0,0E0,0E0,0E0,0E0,0E0,0E0,0E0,0E0,0E0,0E0,0E0,0E0,0E0,0E0,0E0,0E0,0E0,0E0,0E0,0E0,0E0,0E0,0E0,0E0,0E0,0E0,0E0,0E0,0E0,0E0,0E0,0E0,0E0,0E0,0E0,0E0,0E0,0E0,0E0,0E0,0E0,0E0,0E0,0E0,0E0,0E0,0E0,0E0,0E0,0E0,0E0,0E0,0E0,0E0,0E0,0E0,0E0,0E0,0E0,0E0,0E0,0E0,0E0,0E0,0E0,0E0,0E0,0E0,0E0,0E0,0E0,0E0,0E0,0E0,0E0,0E0,0E0,0E0,0E0,0E0,0E0,0E0,0E0,0E0,0E0,0E0,0E0,0E0,0E0,0E0,0E0,0E0,0E0,0E0,0E0],"parents":[2147483647,0,0,1,1,3,3,4,4,5,5,6,6,7,7,8,8,9,9,10,10,11,11,12,12,13,13,14,14,15,15,16,16,17,17,18,18,19,19,20,20,21,21,22,22,23,23,24,24,25,25,26,26,27,27,28,28,29,29,30,30,31,31,32,32,33,33,34,34,35,35,36,36,38,38,39,39,40,40,42,42,43,43,44,44,45,45,46,46,47,47,48,48,49,49,50,50,51,51,52,52,53,53,55,55,56,56,57,57,58,58,59,59,61,61,62,62,63,63,64,64,65,65,66,66,67,67,68,68,69,69,70,70,71,71,72,72,75,75,76,76,78,78,81,81,82,82,83,83,84,84,85,85,86,86,87,87,88,88,89,89,90,90,91,91,92,92,93,93,94,94,95,95,96,96,97,97,98,98,99,99,100,100,101,101,102,102,103,103,104,104,105,105,106,106,107,107,108,108,109,109,110,110,111,111,112,112,113,113,114,114,115,115,116,116,117,117,118,118,119,119,120,120,121,121,122,122,123,123,124,124,125,125,126,126,127,127,128,128,129,129,130,130,131,131,132,132,133,133,134,134,135,135,136,136,137,137,139,139,140,140,141,141,143,143,144,144,145,145,146,146,147,147,148,148,149,149,150,150,151,151,152,152,153,153,154,154,155,155,156,156,157,157,158,158,159,159,160,160,161,161,162,162,163,163,164,164,165,165,166,166,167,167,168,168,169,169,170,170,171,171,172,172,173,173,174,174,175,175,176,176,177,177,178,178,179,179,180,180,181,181,182,182,183,183,184,184,185,185,186,186,187,187,188,188,189,189,190,190,191,191,193,193,194,194,195,195,196,196,197,197,198,198,199,199,200,200,201,201,202,202,203,203,204,204,205,205,206,206,207,207,208,208,209,209,210,210,211,211,212,212,213,213,214,214,215,215,217,217,218,218,219,219,220,220,221,221,222,222,223,223,224,224,225,225,226,226,227,227,229,229,230,230,231,231,232,232,233,233,234,234,235,235,236,236,237,237,238,238,239,239,240,240,241,241,242,242,243,243,244,244,245,245,246,246,247,247,248,248,249,249,251,251,252,252,253,253,254,254,255,255,256,256,258,258,259,259,260,260,263,263,265,265,266,266,267,267,268,268,269,269,270,270,271,271,272,272,273,273,274,274,275,275,276,276,279,279,280,280,281,281,282,282,283,283,284,284,286,286,287,287,289,289,290,290,291,291,292,292,293,293,295,295,296,296,297,297,298,298,299,299,300,300,301,301,302,302,303,303,304,304,305,305,306,306,307,307,308,308,309,309,310,310,311,311,312,312,313,313,314,314,315,315,316,316,317,317,318,318,319,319,320,320,321,321,322,322,323,323,324,324,325,325,326,326,327,327,328,328,329,329,330,330,331,331,332,332,333,333,334,334,335,335,336,336,337,337,338,338,339,339,340,340,341,341,342,342,343,343,344,344,345,345,346,346,347,347,348,348,349,349,350,350,351,351,352,352,353,353,354,354,357,357,358,358,359,359,360,360,361,361,362,362,363,363,364,364,365,365,366,366,367,367,368,368,369,369,370,370,371,371,373,373,374,374,375,375,376,376,377,377,378,378,379,379,380,380,381,381,382,382,383,383,384,384,387,387,389,389,391,391,392,392,393,393,394,394,395,395,396,396,397,397,398,398,399,399,400,400,402,402,403,403,404,404,405,405,406,406,407,407,408,408,409,409,410,410,411,411,412,412,413,413,415,415,416,416,417,417,418,418],"right_children":[2,4,-1,6,8,10,12,14,16,18,20,22,24,26,28,30,32,34,36,38,40,42,44,46,48,50,52,54,56,58,60,62,64,66,68,70,72,-1,74,76,78,-1,80,82,84,86,88,90,92,94,96,98,100,102,-1,104,106,108,110,112,-1,114,116,118,120,122,124,126,128,130,132,134,136,-1,-1,138,140,-1,142,-1,-1,144,146,148,150,152,154,156,158,160,162,164,166,168,170,172,174,176,178,180,182,184,186,188,190,192,194,196,198,200,202,204,206,208,210,212,214,216,218,220,222,224,226,228,230,232,234,236,238,240,242,244,246,248,250,252,254,256,-1,258,260,262,-1,264,266,268,270,272,274,276,278,280,282,284,286,288,290,292,294,296,298,300,302,304,306,308,310,312,314,316,318,320,322,324,326,328,330,332,334,336,338,340,342,344,346,348,350,352,354,356,358,360,-1,362,364,366,368,370,372,374,376,378,380,382,384,386,388,390,392,394,396,398,400,402,404,406,-1,408,410,412,414,416,418,420,422,424,426,428,-1,430,432,434,436,438,440,442,444,446,448,450,452,454,456,458,460,462,464,466,468,470,-1,472,474,476,478,480,482,-1,484,486,488,-1,-1,490,-1,492,494,496,498,500,502,504,506,508,510,512,514,-1,-1,516,518,520,522,524,526,-1,528,530,-1,532,534,536,538,540,-1,542,544,546,548,550,552,554,556,558,560,562,564,566,568,570,572,574,576,578,580,582,584,586,588,590,592,594,596,598,600,602,604,606,608,610,612,614,616,618,620,622,624,626,628,630,632,634,636,638,640,642,644,646,648,650,652,654,656,658,660,-1,-1,662,664,666,668,670,672,674,676,678,680,682,684,686,688,690,-1,692,694,696,698,700,702,704,706,708,710,712,714,-1,-1,716,-1,718,-1,720,722,724,726,728,730,732,734,736,738,-1,740,742,744,746,748,750,752,754,756,758,760,762,-1,764,766,768,770,-1,-1,-1,-1,-1,-1,-1,-1,-1,-1,-1,-1,-1,-1,-1,-1,-1,-1,-1,-1,-1,-1,-1,-1,-1,-1,-1,-1,-1,-1,-1,-1,-1,-1,-1,-1,-1,-1,-1,-1,-1,-1,-1,-1,-1,-1,-1,-1,-1,-1,-1,-1,-1,-1,-1,-1,-1,-1,-1,-1,-1,-1,-1,-1,-1,-1,-1,-1,-1,-1,-1,-1,-1,-1,-1,-1,-1,-1,-1,-1,-1,-1,-1,-1,-1,-1,-1,-1,-1,-1,-1,-1,-1,-1,-1,-1,-1,-1,-1,-1,-1,-1,-1,-1,-1,-1,-1,-1,-1,-1,-1,-1,-1,-1,-1,-1,-1,-1,-1,-1,-1,-1,-1,-1,-1,-1,-1,-1,-1,-1,-1,-1,-1,-1,-1,-1,-1,-1,-1,-1,-1,-1,-1,-1,-1,-1,-1,-1,-1,-1,-1,-1,-1,-1,-1,-1,-1,-1,-1,-1,-1,-1,-1,-1,-1,-1,-1,-1,-1,-1,-1,-1,-1,-1,-1,-1,-1,-1,-1,-1,-1,-1,-1,-1,-1,-1,-1,-1,-1,-1,-1,-1,-1,-1,-1,-1,-1,-1,-1,-1,-1,-1,-1,-1,-1,-1,-1,-1,-1,-1,-1,-1,-1,-1,-1,-1,-1,-1,-1,-1,-1,-1,-1,-1,-1,-1,-1,-1,-1,-1,-1,-1,-1,-1,-1,-1,-1,-1,-1,-1,-1,-1,-1,-1,-1,-1,-1,-1,-1,-1,-1,-1,-1,-1,-1,-1,-1,-1,-1,-1,-1,-1,-1,-1,-1,-1,-1,-1,-1,-1,-1,-1,-1,-1,-1,-1,-1,-1,-1,-1,-1,-1,-1,-1,-1,-1,-1,-1,-1,-1,-1,-1,-1,-1,-1,-1,-1,-1,-1,-1,-1,-1,-1,-1,-1,-1,-1,-1,-1,-1,-1,-1,-1,-1,-1,-1,-1,-1,-1,-1,-1,-1,-1,-1,-1,-1,-1,-1,-1,-1,-1,-1,-1,-1,-1,-1,-1,-1,-1,-1,-1,-1,-1,-1,-1,-1,-1,-1,-1,-1,-1,-1],"split_conditions":[6.5E0,7.5E0,-2.9165447E-2,2.0135E3,2.75E1,4.05E1,1.5E0,4.75E1,1.5E0,3.15E1,4.5E0,1.5E0,6.5E0,2.25E1,1.15E1,2.0145E3,3.3E1,4.5E0,9.5E0,1.1135E3,3.2285E4,1.0805E3,2.5E0,5.5E0,1.5E0,1.55E1,2.0135E3,2.0135E3,1.25E1,3.05E1,5.3295E4,1.35E1,3.5E0,5.5E0,4.5E0,5.5E0,2.5E0,-2.8519025E-2,2.5E0,1.5E0,3.5845E4,-2.894496E-2,1.0835E3,5E-1,5E-1,2.4186875E4,5.5E0,5.5E0,2.4185875E4,2.5E0,2.95E1,3.45E1,1.5E0,5.2E3,-2.8960163E-2,3.4665E4,2.35E1,2.0135E3,4.5E0,2.0325E4,2.8899083E-2,2.417075E4,2.85E1,9.5E0,2.85E1,1.85E1,4.5E0,5.5E0,5.5E0,3.5E0,2.35E1,9.75E1,5.5E0,6.4220177E-3,-1.7355373E-2,5E-1,1.779E4,4.1709844E-2,1.1E1,2.8899083E-2,-2.6465029E-2,7.15E1,3.225E1,2.5E0,2.309E4,2.41865E4,4.65E2,4.5E0,9.5E0,2.565E2,5E-1,2.4186E4,2.25E1,5.5E0,3.5E0,7.5E0,4.25E1,4.5E0,5.5E0,4.5E0,2.0145E3,4.45E2,8.3E1,1.045E2,1E0,1.35E1,2.45E1,2.5E0,2.213E4,1.985E3,5E-1,1.65E1,2.095E4,5E-1,5.5E0,3.5E0,5.5E0,2.0135E3,2.95E1,1E1,9E0,5E-1,1.595E2,1.25E1,5.45E1,2.5E0,3.5E0,6E0,6.5E0,3.15E2,7.5E0,9.76E3,5.5E0,4.2125E1,1.9535E4,3.5E0,9.5E0,3.2125E1,-2.8728945E-2,2.5E0,1.065E2,2.185E2,-2.3517786E-2,2.4175E4,2.5E0,2.5E0,7.49E2,1.065E2,7E0,2.49E3,2E0,4.5E0,2E0,5.225E2,3.5E0,2.0145E3,1.0715E4,8.5E0,5.375E0,6.25E-1,6.285E3,3.45E3,9.5E0,5.5E0,2.5E0,2.5E0,5E-1,2.41745E4,5.05E2,5.5E0,1.95E1,2.4180875E4,5.5E0,2.0135E3,2.0135E3,1.25E1,2.65E1,2.41655E4,1.05E1,2.0145E3,2.35E1,4.5E0,2.65E1,8.74E2,3.5E0,3E0,2E0,2.385E3,4.5E0,2.0135E3,3.5E0,3.752E4,-2.9064128E-2,2.98E3,2.65E1,1.8735E4,1.187E4,2.25E1,4.07E4,4.19E2,2.025E1,1.325E3,1.797E4,5.3E2,4.5E1,4.975E2,3.5E0,2.95E1,3.05E1,7.5E0,2.0145E3,2.5E0,5.5E0,4.5E0,2.0145E3,2E0,-2.8912945E-2,1.5E0,2.95E1,5E-1,2.0135E3,3.05E1,4.5E0,1.5E0,2.5E0,2.2625E1,7.95E1,2.125E0,-2.8221E-2,1.3795E4,5.55E1,4.25E1,2.5E0,8.76E3,1.305E3,5E-1,1.375E1,6.41E3,7.5E0,4.5E0,7.5E0,1.66E3,5E-1,1.022E3,6.5E0,1.005E2,3.5E0,1.25E1,5.45E1,3.395E2,-2.2925764E-2,1.45E2,4.746E4,1.15E2,3.5E0,1.1005E3,3.4875E1,6.4220177E-3,4.45E1,2.1175E4,1.15E1,-1.6055046E-2,2.8899083E-2,7.85E1,5.1376145E-2,1.5E0,1.0345E3,4.2E1,3E0,4.25E1,8.455E2,2.365E2,1.72E2,6.125E2,5.9E1,5E-1,5.175E1,-2.3773586E-2,2.8925615E-3,5.5E0,6.5E0,2.325E3,4.85E1,2.185E2,1.5E0,-2.8094525E-2,6.48E2,1.5E0,-2.8957715E-2,1.6E1,6.5E0,7.15E1,3.3E1,5.67E3,-2.8025268E-2,1.79E2,1.55E1,8.155E2,8.495E2,8.45E1,5.1125E1,6.4E2,2.5E0,6E0,3.2285E4,1.15E1,8.12E2,3.84E3,3.435E2,7.4E1,3.5E0,5.3295E4,2.5E0,1.725E1,2.0145E3,6.5E0,2.0145E3,1.55E1,2.4178875E4,1.95E1,1.2E1,2.15E1,2.0145E3,4.5E0,3.85E1,5.5E0,1.05E1,2.55E1,3.5E0,7.5E0,2.5E0,2.416625E4,1.5875E1,2.625E3,3.65E1,2.5E0,4.6165E4,6.275E1,5.5E0,9.5E0,2.45E1,4.5E0,2E0,1.5E0,2.5E0,6.45E2,1.285E2,4.5E0,5.25E1,3.75E-1,1.042E3,4.15E2,1.25E-1,1.15E1,9.91E2,2.8899083E-2,1.10526316E-1,5.2425E4,5.5E2,5.5E0,3.07E2,3.5E0,1.4E1,1.0805E3,1.128E4,1.5E0,9.135E2,6.895E3,3.5E0,3.5E0,2.915E3,2.578E4,-2.2925764E-2,2.9125E1,4.455E2,4.25E1,3.975E1,2.21E2,1.2E1,1.15E1,3.5E0,3.5E0,1.625E0,7.5E0,1.15E1,5.5263158E-2,-1.9310346E-2,3.4665E4,-2.7939914E-2,2.5E0,-2.873627E-2,2.5E0,6.5E0,1.065E2,6.74E2,6.395E2,1.75E1,2.0135E3,6.9E2,2.175E3,4.295E2,-2.8646667E-2,2.95E1,5.6E1,1.95E1,5.64E3,3.95E1,1.5E0,4.2E1,6.5E0,1.305E4,1.65E1,1.35E1,1.2895E4,-2.898089E-2,2.0135E3,2.925E2,2.0135E3,5E-1,2.9119084E-2,-2.4666253E-2,-2.305437E-2,1.9369928E-2,2.851214E-2,9.956321E-3,-1.723077E-2,3.9245375E-2,-2.8501628E-2,-2.1841524E-2,-2.7817065E-2,-1.99157E-2,2.8899083E-2,-2.0835971E-2,8.727788E-3,2.9164225E-2,4.278841E-2,6.1900314E-2,-1.4987036E-2,-1.5551244E-3,1.8123323E-3,1.965541E-2,-2.7361492E-2,-2.2529988E-2,-1.1260468E-2,-2.2262197E-2,-1.4080308E-2,3.11917E-3,1.8079063E-2,6.282547E-3,-1.3870549E-3,2.9589579E-2,3.835262E-2,4.988123E-2,5.531335E-2,8.144959E-2,5.1020402E-2,2.7184462E-2,2.9591054E-2,-1.6412669E-3,1.1229945E-2,-1.9952495E-2,4.737466E-2,3.296947E-2,1.9363655E-2,3.8760055E-2,-6.086957E-3,4.182729E-2,7.978956E-3,-2.5275826E-2,2E-2,4.5588788E-2,1.7326731E-2,-1.2539776E-2,-2.6403878E-2,6.4220177E-3,-2.4600638E-2,1.8779991E-2,-1.4841943E-2,2.3290202E-2,-2.3428718E-2,6.4220177E-3,4.2356685E-2,-7.820691E-3,-2.1641253E-2,-2.5314922E-2,5.1376145E-2,-1.0243903E-2,-3.233257E-3,-2.2497365E-2,8.725761E-3,-2.3236515E-2,-1.2527806E-2,2.5609756E-2,-2.235008E-2,1.2110719E-3,5.987355E-3,6.363636E-2,1.816609E-2,-1.5960913E-2,4.1038293E-2,1.5730329E-3,-2.4418605E-2,1.5660768E-2,-1.5736885E-2,1.3148478E-2,4.2094197E-2,1.7250953E-2,1.799485E-3,-1.9902354E-2,-8.5498464E-10,6.444043E-2,-3.398059E-3,2.4113758E-2,4.720349E-2,2.7500907E-2,-2.865856E-2,-2.7601102E-2,-2.8235376E-2,-2.5236905E-2,2.2047242E-2,-1.9927008E-2,-2.7524313E-2,2.8925615E-3,-1.8421052E-2,5.440414E-2,-1.8421052E-2,2.3140496E-2,-1.797363E-2,-2.7559062E-3,-2.1669297E-2,-2.5288938E-2,-1.2118126E-2,-2.2612758E-2,-1.5609515E-2,3.4070794E-2,2.7481762E-3,-7.675964E-3,2.2863355E-3,2.0934923E-2,-2.3517786E-2,6.4220177E-3,6.4220177E-3,2.8899083E-2,2.675159E-2,9.506631E-2,3.95415E-2,6.715867E-2,6.866619E-2,1.2050289E-1,-2.3927912E-3,2.5566105E-2,5.9238363E-2,2.0907523E-2,-1.6055046E-2,3.7278105E-2,-2.6429076E-2,-6.086957E-3,-2.6981223E-2,-2.013561E-2,-1.28687145E-2,2.6119402E-2,-1.1290323E-2,2.5885975E-2,7.852897E-2,1.137184E-2,-2.9045648E-3,5.440414E-2,1.1146496E-2,9.6415095E-2,-8.325075E-3,1.8753638E-2,5.5585977E-2,6.709264E-3,-2.2764852E-2,8.076923E-2,-1.4613786E-3,-1.9955715E-2,2.9857818E-2,1.2923076E-2,7.487905E-3,-4.1660974E-3,1.1268553E-2,4.4176027E-2,8.390878E-3,-1.24555165E-2,1.0583091E-2,-2.2882452E-2,1.5563942E-2,-9.021145E-3,2.296067E-2,-4.9958373E-3,2.8631628E-2,5.7956893E-2,-1.8528594E-2,3.411694E-3,1.0829416E-2,-1.9639835E-3,4.5716267E-2,2.1014227E-2,-2.9904346E-4,5.1759996E-2,-2.7170567E-2,-8.946554E-3,-2.1100318E-2,2.7273519E-2,-4.9038054E-3,3.3195477E-2,-2.2449514E-2,-2.384854E-3,4.351403E-2,8.949025E-3,-2.7338171E-2,2.708599E-2,-2.3900868E-2,-1.6870584E-2,1.482352E-3,-1.674717E-2,2.9871974E-2,1.1533997E-2,-1.0093024E-2,9.123823E-3,1.7018454E-2,-2.51162E-2,-2.623496E-2,4.8275862E-2,5.695811E-2,3.765686E-2,-2.029751E-2,1.3399633E-2,5.3136464E-2,1.8791944E-2,-1.2059853E-3,3.2587774E-2,4.294474E-2,1.7177245E-2,-2.8686956E-2,6.166543E-4,1.6446825E-2,-9.617862E-3,4.9950443E-2,7.078651E-3,3.801917E-2,2.7459254E-3,1.0897899E-2,3.254257E-2,1.9337015E-2,-2.2580644E-2,6.4220177E-3,8.716981E-2,3.7560973E-2,-1.0456766E-2,1.0090397E-2,-2.3773586E-2,-1.5800552E-2,-4.4796234E-3,-1.6940957E-3,-1.982418E-2,-2.0165661E-2,-2.690923E-2,-1.9619077E-2,2.6603324E-2,-2.2580644E-2,1.1146496E-2,6.363636E-2,-5.4899013E-10,-2.2108996E-2,-2.8342664E-2,5.1376145E-2,-2.1761658E-2,-9.180024E-3,1.5917806E-2,-1.5177797E-2,1.9403227E-2,-2.8971544E-2,-2.1134492E-2,-1.2978862E-2,-2.7670652E-2,2.9454006E-2,1.4190855E-2,-1.803766E-2,2.5609756E-2,3.4073964E-2,6.598086E-2,-8.472013E-3,3.615495E-2,4.9098026E-2,3.0199498E-2,5.9178453E-2,4.8057735E-2,-4.847646E-3,3.1919997E-2,-4.7655073E-3,-2.480315E-2,7.356688E-2,-4.0493645E-3,-1.7114921E-3,4.4094484E-2,-5.188142E-3,1.3207546E-2,2.8925615E-3,-2.4600638E-2,4.2356685E-2,8.08314E-3,-2.0591052E-2,-1.419879E-3,-1.494382E-2,3.7560973E-2,-1.809584E-2,1.5217391E-2,-4.4585993E-3,-2.6477793E-2,-2.3773586E-2,8.284023E-3,-1.2227074E-2,-2.7902162E-2,-2.4221454E-2,2.3140496E-2,-1.2840387E-2,5.9707356E-3,1.4795243E-2,-2.6918475E-2,-7.891384E-3,-1.6195506E-2,3.962263E-3,5.0118994E-2,9.579273E-2,5.231125E-2,3.993913E-3,2.6411403E-2,-7.2860452E-3,-2.3724046E-2,-2.3139177E-2,-2.8346388E-2,-1.1447885E-2,-2.6483754E-2,-8.645213E-10,-1.32759875E-2,-2.223043E-2,-1.2880628E-2,-2.0749483E-2,-2.8750602E-2,-2.1016529E-2,-1.2247806E-2,-1.0753221E-2,-2.6845722E-2,-5.7377056E-3,1.0123408E-2,-2.418088E-2,-9.271524E-3,1.5496074E-2,3.9214745E-2,5.4710854E-2,1.2108107E-2,-2.2818455E-2,-6.7939893E-3,4.744261E-3,-1.63626E-2,5.5229347E-3,2.5919918E-2,1.5512464E-2,6.743326E-2,-1.26822805E-2,-2.4953095E-2,-2.5687004E-2,-1.2339817E-2,8.690427E-3,-8.577158E-3,-2.500817E-2,-1.688365E-2,-2.8789809E-2,-2.385578E-2],"split_indices":[1,15,0,13,15,16,16,16,14,16,1,15,15,15,14,13,16,1,14,0,7,0,15,1,1,15,13,13,15,15,7,16,1,14,14,15,1,0,1,15,7,0,0,10,4,18,14,14,18,16,16,16,14,7,0,7,15,13,1,7,0,18,15,14,15,16,15,1,1,1,17,17,1,0,0,4,7,0,17,0,0,0,18,5,7,17,7,15,14,0,4,17,17,1,14,16,16,14,1,1,13,7,0,17,8,15,15,1,7,7,18,17,7,4,1,1,1,13,15,14,14,4,17,18,17,15,15,15,14,7,8,7,1,18,7,1,8,18,0,0,0,0,0,17,5,5,0,17,11,7,5,1,1,0,8,13,7,14,18,18,7,7,17,1,5,5,4,18,7,1,16,18,1,13,13,16,15,17,14,13,15,1,15,0,17,11,5,7,1,13,5,7,0,7,15,7,7,17,7,0,18,7,7,7,7,0,1,15,15,8,13,1,1,1,13,1,0,1,17,4,13,15,1,16,1,18,0,18,0,7,17,17,14,7,7,4,18,7,14,17,8,7,4,0,17,17,5,17,17,0,0,7,7,7,5,0,18,0,17,7,14,0,0,17,0,5,0,11,11,11,0,0,17,0,18,17,18,0,0,15,14,7,11,0,5,0,0,5,0,11,8,17,17,7,0,0,0,0,0,17,18,7,5,14,7,11,0,7,0,17,5,7,5,18,13,16,13,16,18,15,17,15,13,1,16,1,14,15,1,14,1,18,18,7,11,1,7,18,1,14,15,14,1,1,1,7,0,8,0,18,0,7,18,15,0,0,0,7,0,1,0,5,17,0,7,1,0,7,8,1,7,7,0,18,0,17,18,0,11,8,5,5,18,8,0,0,0,7,0,14,0,14,8,0,0,0,17,13,7,7,0,0,15,18,17,7,11,5,11,8,7,17,18,7,0,13,0,13,4,0,0,0,0,0,0,0,0,0,0,0,0,0,0,0,0,0,0,0,0,0,0,0,0,0,0,0,0,0,0,0,0,0,0,0,0,0,0,0,0,0,0,0,0,0,0,0,0,0,0,0,0,0,0,0,0,0,0,0,0,0,0,0,0,0,0,0,0,0,0,0,0,0,0,0,0,0,0,0,0,0,0,0,0,0,0,0,0,0,0,0,0,0,0,0,0,0,0,0,0,0,0,0,0,0,0,0,0,0,0,0,0,0,0,0,0,0,0,0,0,0,0,0,0,0,0,0,0,0,0,0,0,0,0,0,0,0,0,0,0,0,0,0,0,0,0,0,0,0,0,0,0,0,0,0,0,0,0,0,0,0,0,0,0,0,0,0,0,0,0,0,0,0,0,0,0,0,0,0,0,0,0,0,0,0,0,0,0,0,0,0,0,0,0,0,0,0,0,0,0,0,0,0,0,0,0,0,0,0,0,0,0,0,0,0,0,0,0,0,0,0,0,0,0,0,0,0,0,0,0,0,0,0,0,0,0,0,0,0,0,0,0,0,0,0,0,0,0,0,0,0,0,0,0,0,0,0,0,0,0,0,0,0,0,0,0,0,0,0,0,0,0,0,0,0,0,0,0,0,0,0,0,0,0,0,0,0,0,0,0,0,0,0,0,0,0,0,0,0,0,0,0,0,0,0,0,0,0,0,0,0,0,0,0,0,0,0,0,0,0,0,0,0,0,0,0,0,0,0,0,0,0,0,0,0,0,0,0,0,0,0,0,0,0,0,0,0,0,0,0,0,0],"split_type":[0,0,0,0,0,0,0,0,0,0,0,0,0,0,0,0,0,0,0,0,0,0,0,0,0,0,0,0,0,0,0,0,0,0,0,0,0,0,0,0,0,0,0,0,0,0,0,0,0,0,0,0,0,0,0,0,0,0,0,0,0,0,0,0,0,0,0,0,0,0,0,0,0,0,0,0,0,0,0,0,0,0,0,0,0,0,0,0,0,0,0,0,0,0,0,0,0,0,0,0,0,0,0,0,0,0,0,0,0,0,0,0,0,0,0,0,0,0,0,0,0,0,0,0,0,0,0,0,0,0,0,0,0,0,0,0,0,0,0,0,0,0,0,0,0,0,0,0,0,0,0,0,0,0,0,0,0,0,0,0,0,0,0,0,0,0,0,0,0,0,0,0,0,0,0,0,0,0,0,0,0,0,0,0,0,0,0,0,0,0,0,0,0,0,0,0,0,0,0,0,0,0,0,0,0,0,0,0,0,0,0,0,0,0,0,0,0,0,0,0,0,0,0,0,0,0,0,0,0,0,0,0,0,0,0,0,0,0,0,0,0,0,0,0,0,0,0,0,0,0,0,0,0,0,0,0,0,0,0,0,0,0,0,0,0,0,0,0,0,0,0,0,0,0,0,0,0,0,0,0,0,0,0,0,0,0,0,0,0,0,0,0,0,0,0,0,0,0,0,0,0,0,0,0,0,0,0,0,0,0,0,0,0,0,0,0,0,0,0,0,0,0,0,0,0,0,0,0,0,0,0,0,0,0,0,0,0,0,0,0,0,0,0,0,0,0,0,0,0,0,0,0,0,0,0,0,0,0,0,0,0,0,0,0,0,0,0,0,0,0,0,0,0,0,0,0,0,0,0,0,0,0,0,0,0,0,0,0,0,0,0,0,0,0,0,0,0,0,0,0,0,0,0,0,0,0,0,0,0,0,0,0,0,0,0,0,0,0,0,0,0,0,0,0,0,0,0,0,0,0,0,0,0,0,0,0,0,0,0,0,0,0,0,0,0,0,0,0,0,0,0,0,0,0,0,0,0,0,0,0,0,0,0,0,0,0,0,0,0,0,0,0,0,0,0,0,0,0,0,0,0,0,0,0,0,0,0,0,0,0,0,0,0,0,0,0,0,0,0,0,0,0,0,0,0,0,0,0,0,0,0,0,0,0,0,0,0,0,0,0,0,0,0,0,0,0,0,0,0,0,0,0,0,0,0,0,0,0,0,0,0,0,0,0,0,0,0,0,0,0,0,0,0,0,0,0,0,0,0,0,0,0,0,0,0,0,0,0,0,0,0,0,0,0,0,0,0,0,0,0,0,0,0,0,0,0,0,0,0,0,0,0,0,0,0,0,0,0,0,0,0,0,0,0,0,0,0,0,0,0,0,0,0,0,0,0,0,0,0,0,0,0,0,0,0,0,0,0,0,0,0,0,0,0,0,0,0,0,0,0,0,0,0,0,0,0,0,0,0,0,0,0,0,0,0,0,0,0,0,0,0,0,0,0,0,0,0,0,0,0,0,0,0,0,0,0,0,0,0,0,0,0,0,0,0,0,0,0,0,0,0,0,0,0,0,0,0,0,0,0,0,0,0,0,0,0,0,0,0,0,0,0,0,0,0,0,0,0,0,0,0,0,0,0,0,0,0,0,0,0,0,0,0,0,0,0,0,0,0,0,0,0,0,0,0,0,0,0,0,0,0,0,0,0,0,0,0,0,0,0,0,0,0,0,0,0,0,0,0,0,0],"sum_hessian":[1.6819862E5,1.4426719E5,2.393143E4,3.3163105E4,1.11104086E5,1.3252654E4,1.9910451E4,9.500327E4,1.6100817E4,1.0849226E4,2.4034287E3,1.2815511E3,1.8628898E4,8.788948E4,7.1137964E3,2.2271023E3,1.3873715E4,8.297878E3,2.5513472E3,1.6680001E3,7.3542865E2,3.6710208E2,9.1444904E2,1.5785389E4,2.8435105E3,6.676506E4,2.112441E4,1.1828572E3,5.930939E3,1.4801633E3,7.4693884E2,9.579185E3,4.294531E3,5.3591025E3,2.9387756E3,1.6305308E3,9.208164E2,1.6653063E3,2.6938777E0,7.258776E2,9.551021E0,3.5608167E2,1.1020409E1,3.6710208E2,5.47347E2,1.3380735E4,2.4046533E3,3.382041E2,2.5053064E3,3.5638777E4,3.1126287E4,8.130123E3,1.2994287E4,5.583674E2,6.2448987E2,1.517143E3,4.4137964E3,1.1133062E3,3.6685718E2,7.4571436E2,1.2244899E0,2.4876736E3,7.0915107E3,1.5521633E3,2.7423674E3,3.689388E3,1.6697144E3,1.4750205E3,1.4637552E3,9.093062E2,7.2122455E2,1.8636736E2,7.3444904E2,1.2244899E0,1.4693879E0,1.809796E2,5.44898E2,2.9387758E0,6.6122456E0,1.2244899E0,9.795919E0,1.814694E2,1.8563266E2,3.2130615E2,2.2604083E2,1.3296491E4,8.42449E1,1.1142858E3,1.2903674E3,1.8440817E2,1.5379593E2,2.4151838E3,9.012245E1,2.230286E3,3.3408492E4,2.1927676E4,9.198613E3,5.909143E3,2.2209797E3,1.473796E3,1.152049E4,3.86449E2,1.7191838E2,1.497796E3,1.9346941E1,3.0617146E3,1.3520818E3,5.5102045E2,5.6228577E2,1.814694E2,1.8538777E2,7.12898E2,3.281633E1,2.1335513E3,3.5412247E2,1.6248981E3,5.466613E3,6.8351025E2,8.6865314E2,8.7428577E2,1.8680818E3,3.3134697E3,3.759184E2,1.293796E3,3.759184E2,7.491429E2,7.258776E2,7.278368E2,7.359184E2,7.236735E2,1.8563266E2,1.819592E2,5.392653E2,1.0579593E2,8.0571434E1,5.542041E2,1.802449E2,1.1534695E2,6.563266E1,5.1428577E2,3.0612247E1,2.4489799E0,4.1632657E0,1.1510205E1,1.699592E2,1.0310205E2,8.253062E1,1.8342859E2,1.3787756E2,2.2016328E2,5.8775516E0,1.3095919E4,2.0057144E2,1.2489797E1,7.1755104E1,